%YAML:1.0
---
opencv_ml_svm:
   format: 3
   svmType: C_SVC
   kernel:
      type: RBF
      gamma: 5.0000000000000000e-01
   C: 1.2500000000000000e+01
   term_criteria: { epsilon:1.1920928955078125e-07, iterations:1000 }
   var_count: 225
   class_count: 10
   class_labels: !!opencv-matrix
      rows: 10
      cols: 1
      dt: i
      data: [ 0, 1, 2, 3, 4, 5, 6, 7, 8, 9 ]
   sv_total: 176
   support_vectors:
      - [ 1.53766811e-01, 6.04426973e-02, 1.86406940e-01, 1.25765130e-01,
          6.45166814e-01, 6.45166814e-01, 1.22963056e-01, 1.17685407e-01,
          2.32909024e-01, 2.78512567e-01, 1.05174683e-01, 3.24599855e-02,
          8.06058124e-02, 6.64104164e-01, 6.64104164e-01, 8.91172364e-02,
          7.20227286e-02, 4.46131527e-02, 5.32081962e-01, 6.69351779e-03,
          8.51029437e-03, 9.54153389e-03, 5.32081962e-01, 5.32081962e-01,
          4.86419490e-03, 1.62139814e-03, 3.80943894e-01, 5.11297882e-01,
          2.70371442e-03, 9.69869923e-03, 1.18752316e-01, 5.11297882e-01,
          4.51405555e-01, 7.46521540e-03, 1.31793609e-02, 5.03827870e-01,
          8.10155794e-02, 2.71144602e-02, 2.15394944e-01, 5.95710516e-01,
          5.95710516e-01, 2.00853199e-01, 1.36955865e-02, 1.33367822e-01,
          4.15089607e-01, 4.44905907e-01, 4.44905907e-01, 4.54799607e-02,
          7.79886320e-02, 4.44905907e-01, 4.44905907e-01, 2.31894985e-01,
          1.01068780e-01, 3.62836033e-01, 5.52428424e-01, 1.28531486e-01,
          0., 8.08037724e-03, 5.52428424e-01, 2.17005387e-01,
          9.04768184e-02, 8.41961056e-02, 5.52428424e-01, 5.74190974e-01,
          6.75296830e-03, 0., 2.28299433e-03, 5.48210025e-01,
          1.85165361e-01, 2.06112349e-03, 6.87041203e-04, 5.74190974e-01,
          5.67960083e-01, 0., 5.87220886e-04, 2.56309509e-02,
          5.67960083e-01, 1.47878394e-01, 6.65740808e-03, 6.34255484e-02,
          5.67960083e-01, 1.59504756e-01, 1.57186285e-01, 4.06116247e-01,
          4.06116247e-01, 1.21431544e-01, 3.26184034e-01, 4.06116247e-01,
          4.06116247e-01, 4.06116247e-01, 4.32442397e-01, 4.32442397e-01,
          4.01207507e-01, 4.32442397e-01, 4.32442397e-01, 7.37170056e-02,
          9.96702164e-02, 8.70816559e-02, 2.52458930e-01, 5.71973145e-01,
          2.91373581e-03, 0., 1.46038868e-02, 5.71973145e-01,
          2.00358942e-01, 3.15545243e-04, 1.05181753e-04, 5.47372222e-01,
          4.71412450e-01, 0., 0., 3.82887363e-03, 5.73459327e-01,
          5.60819924e-01, 3.45676788e-03, 1.15225592e-03, 3.58666152e-01,
          3.19970310e-01, 3.01513053e-03, 0., 2.02265568e-02,
          6.12023771e-01, 6.12023771e-01, 1.07920449e-02, 1.54576702e-02,
          3.76282185e-01, 4.04356450e-01, 4.04356450e-01, 2.80524731e-01,
          2.75548398e-02, 4.04356450e-01, 4.04356450e-01, 4.04356450e-01,
          2.92064160e-01, 1.16983451e-01, 4.41722244e-01, 2.56257467e-02,
          1.37895554e-01, 4.41722244e-01, 4.41722244e-01, 1.44361788e-02,
          1.07097169e-02, 4.41722244e-01, 4.41722244e-01, 5.64451396e-01,
          4.63604834e-03, 0., 1.54758422e-02, 5.64451396e-01,
          1.95668787e-01, 0., 0., 5.64451396e-01, 5.11854231e-01, 0., 0.,
          0., 5.11854231e-01, 4.57059950e-01, 0., 0., 5.11854231e-01,
          4.98949021e-01, 3.53249232e-03, 0., 6.41182624e-03,
          4.98949021e-01, 4.98107702e-01, 0., 1.26262940e-03,
          4.98949021e-01, 5.51205575e-01, 5.51205575e-01, 2.26553213e-02,
          9.86784510e-03, 1.60919473e-01, 2.27389500e-01, 5.53094000e-02,
          4.17394303e-02, 5.51205575e-01, 6.66307926e-01, 1.06770754e-01,
          1.22806460e-01, 3.06318868e-02, 4.31512073e-02, 0.,
          2.03137659e-03, 2.75916100e-01, 6.66307926e-01, 7.00408280e-01,
          1.63498670e-02, 3.64584848e-02, 0., 4.37194221e-02,
          3.44855040e-02, 8.03170502e-02, 2.67723501e-02, 7.00408280e-01,
          6.93806231e-01, 3.03762369e-02, 9.88791510e-02, 0.,
          4.49737459e-02, 5.37505336e-02, 4.69949767e-02, 1.11892171e-01,
          6.93806231e-01, 6.57455623e-01, 3.43256928e-02, 1.65155813e-01,
          1.27541840e-01, 5.96365631e-02, 9.96403769e-02, 2.53702432e-01,
          7.98076615e-02, 6.57455623e-01, 5.22019565e-01, 1.99517995e-01,
          1.36269584e-01, 1.03169240e-01, 2.65544832e-01, 1.50088787e-01,
          3.50196838e-01, 4.06298548e-01, 5.22019565e-01 ]
      - [ 5.13408147e-02, 2.33393684e-02, 7.00180978e-02, 0.,
          6.91389501e-01, 6.91389501e-01, 1.65176958e-01, 2.32705269e-02,
          3.39275077e-02, 3.42479885e-01, 1.84324023e-03, 5.52972127e-03,
          0., 5.72278738e-01, 5.72278738e-01, 2.77947336e-02,
          1.17112519e-02, 4.70152378e-01, 4.41481441e-01, 2.32414692e-03,
          6.97244145e-03, 0., 5.47374189e-01, 4.47479248e-01,
          9.44908708e-03, 3.14969546e-03, 5.47374189e-01, 4.02604669e-01,
          6.82074763e-03, 2.26189300e-01, 5.09472013e-01, 5.09472013e-01,
          3.34980525e-02, 4.03150171e-02, 1.34383403e-02, 5.09472013e-01,
          1.10825039e-02, 1.54299483e-01, 5.47742069e-01, 5.47742069e-01,
          5.47742069e-01, 3.00530903e-02, 2.39168718e-01, 1.05163977e-01,
          3.70231420e-02, 4.96151298e-01, 4.96151298e-01, 1.09403975e-01,
          9.25964769e-03, 4.96151298e-01, 4.00239855e-01, 1.10746935e-01,
          2.79670805e-02, 2.66931504e-01, 6.92930579e-01, 1.11843711e-02,
          0., 0., 1.24137178e-01, 1.31284699e-01, 0., 2.51674722e-03,
          6.92930579e-01, 6.98096037e-01, 0., 0., 0., 1.19733311e-01,
          6.33959994e-02, 0., 0., 6.98096037e-01, 4.90492582e-01, 0.,
          4.32940274e-02, 2.43236139e-01, 9.83397439e-02, 2.23158747e-02,
          4.49605644e-01, 4.90492582e-01, 4.90492582e-01, 2.27935240e-02,
          9.96780992e-02, 5.03950357e-01, 5.03950357e-01, 5.03950357e-01,
          1.68651178e-01, 3.65529984e-01, 2.26820827e-01, 9.54501331e-02,
          4.39176798e-01, 4.39176798e-01, 4.39176798e-01, 4.39176798e-01,
          4.39176798e-01, 6.86580222e-03, 1.43167749e-01, 4.67391871e-02,
          9.22125354e-02, 5.53923965e-01, 1.16099175e-02, 5.56280045e-03,
          1.01263821e-01, 5.53923965e-01, 2.52097636e-01, 0., 0.,
          5.53923965e-01, 5.58742940e-01, 0., 0., 2.51778075e-03,
          5.58742940e-01, 2.40484774e-01, 0., 0., 5.58742940e-01,
          3.64429861e-01, 8.95357865e-04, 0., 2.18191259e-02,
          4.39464778e-01, 4.39464778e-01, 4.39464778e-01, 3.91940385e-01,
          3.59609634e-01, 3.24097633e-01, 5.12462080e-01, 5.12462080e-01,
          1.28846943e-01, 6.31303862e-02, 1.49332732e-01, 5.12462080e-01,
          2.35940292e-01, 5.86139485e-02, 1.22444659e-01, 6.53167488e-03,
          2.97285259e-01, 5.18433392e-01, 5.18433392e-01, 3.21875252e-02,
          6.57156706e-02, 2.82372802e-01, 5.18433392e-01, 1.82341039e-01,
          0., 2.05577025e-03, 1.19693004e-01, 8.68920505e-01,
          3.51705939e-01, 0., 0., 2.55011320e-01, 2.55100459e-01,
          4.28915815e-03, 0., 9.29291768e-04, 7.35900164e-01,
          5.52678108e-01, 0., 0., 2.83825099e-01, 5.28612077e-01,
          2.65185654e-01, 0., 8.61808192e-03, 5.28612077e-01,
          5.28612077e-01, 2.26188719e-01, 8.85007977e-02, 1.64430767e-01,
          6.00664735e-01, 6.00664735e-01, 4.90258723e-01, 0.,
          3.13299857e-02, 7.88851902e-02, 1.48278594e-01, 2.85246279e-02,
          4.52526659e-02, 5.79731584e-01, 1.73557624e-02, 5.20672873e-02,
          1.04279965e-01, 2.72320718e-01, 1.18310507e-02, 8.38206038e-02,
          4.76258993e-01, 5.79731584e-01, 6.01457119e-01, 4.79725301e-02,
          1.43917605e-01, 2.25681029e-02, 4.95437205e-01, 3.68010737e-02,
          1.19188903e-02, 3.97296343e-03, 6.01457119e-01, 6.70372486e-01,
          9.53415688e-03, 2.47431127e-03, 0., 2.83588737e-01,
          1.10649832e-01, 3.96401919e-02, 1.32133979e-02, 6.70372486e-01,
          6.23574913e-01, 4.42101300e-01, 3.67450416e-02, 0.,
          5.25405630e-02, 3.55784371e-02, 1.04346082e-01, 6.60641789e-02,
          6.23574913e-01, 6.52224243e-01, 6.52224243e-01, 2.48563007e-01,
          1.88654557e-01, 3.28627527e-02, 0., 1.79182410e-01,
          5.31457216e-02, 9.64921787e-02 ]
      - [ 2.25782216e-01, 9.17496905e-03, 1.19278375e-02, 1.74869150e-01,
          6.68084145e-01, 6.68084145e-01, 1.27322450e-01, 7.03731505e-03,
          5.11238053e-02, 4.89210516e-01, 5.85671235e-03, 1.55713167e-02,
          8.27112496e-02, 7.21571326e-01, 1.67477772e-01, 5.10764448e-03,
          1.70254835e-03, 4.44533020e-01, 4.52877611e-01, 1.92524982e-03,
          5.77574922e-03, 1.08290195e-01, 7.25274026e-01, 1.94034223e-02,
          5.73801622e-03, 1.91267184e-03, 4.99462694e-01, 2.61474878e-01,
          4.95245261e-03, 1.48573564e-02, 2.91037202e-01, 6.79609895e-01,
          1.58623904e-01, 5.35557419e-03, 1.78519147e-03, 5.93999505e-01,
          1.78965349e-02, 9.73976124e-03, 5.55018544e-01, 5.84209085e-01,
          5.84209085e-01, 2.41715508e-03, 2.67428509e-03, 8.91428266e-04,
          5.56023121e-02, 4.49869126e-01, 4.49869126e-01, 5.54433232e-03,
          1.44478336e-01, 4.49869126e-01, 4.49869126e-01, 2.08843186e-01,
          3.25688161e-02, 3.46982062e-01, 5.78820527e-01, 5.29087707e-02,
          0., 2.72004809e-02, 5.65751731e-01, 2.32290272e-02, 0., 0.,
          5.78820527e-01, 5.75515926e-01, 0., 0., 2.44338270e-02,
          5.75515926e-01, 5.79070882e-04, 0., 0., 5.75515926e-01,
          4.90148872e-01, 5.46084391e-03, 1.63825322e-02, 8.42027888e-02,
          4.90148872e-01, 3.04568261e-02, 1.60639137e-01, 4.90148872e-01,
          4.90148872e-01, 1.39359236e-02, 1.47127301e-01, 4.85884666e-01,
          4.85884666e-01, 4.28899258e-01, 4.11883518e-02, 3.61752033e-01,
          4.06735361e-01, 1.38526097e-01, 4.33510274e-01, 4.33510274e-01,
          4.33510274e-01, 4.33510274e-01, 4.33510274e-01, 3.91467251e-02,
          1.86973602e-01, 7.56553113e-02, 1.17467053e-01, 5.61672747e-01,
          4.50980961e-02, 1.85746215e-02, 1.91292301e-01, 5.61672747e-01,
          9.48193893e-02, 0., 0., 5.61672747e-01, 5.73634088e-01, 0., 0.,
          8.01215507e-03, 5.73634088e-01, 8.39021280e-02, 0., 0.,
          5.73634088e-01, 2.69072026e-01, 0., 0., 6.91049732e-04,
          4.29722518e-01, 4.29722518e-01, 4.29722518e-01, 4.29722518e-01,
          4.29722518e-01, 1.38200261e-03, 5.04592180e-01, 5.04592180e-01,
          7.38431513e-02, 2.94255633e-02, 3.20417553e-01, 5.04592180e-01,
          3.10188413e-01, 1.60983697e-01, 4.46957111e-01, 4.19562357e-03,
          2.16251165e-01, 4.46957111e-01, 4.46957111e-01, 2.90717967e-02,
          1.29855812e-01, 3.63266915e-01, 4.46957111e-01, 5.59831619e-01,
          5.46536467e-05, 4.43763705e-03, 2.23103970e-01, 5.59831619e-01,
          6.61825463e-02, 0., 0., 5.59831619e-01, 5.72278500e-01, 0., 0.,
          4.32752725e-03, 5.72278500e-01, 1.08436793e-01, 0., 0.,
          5.72278500e-01, 4.93868262e-01, 2.67213695e-02, 0.,
          2.06240540e-04, 4.93868262e-01, 4.93868262e-01, 1.10595532e-01,
          8.06135312e-02, 4.93868262e-01, 6.13968313e-01, 6.13968313e-01,
          2.91437417e-01, 0., 3.28627788e-02, 2.53572553e-01,
          1.52072608e-01, 1.82225090e-02, 2.57259816e-01, 6.81728303e-01,
          1.24752335e-02, 4.11703438e-02, 8.41011107e-03, 1.16806932e-01,
          1.68126414e-03, 4.25475799e-02, 2.15195104e-01, 6.81728303e-01,
          6.81842804e-01, 7.44931260e-03, 2.23479364e-02, 5.43072000e-02,
          2.43356466e-01, 6.34507509e-04, 2.41316669e-02, 8.04388896e-03,
          6.81842804e-01, 6.83059394e-01, 7.12284993e-04, 2.13685515e-03,
          8.47179035e-04, 2.44107231e-01, 1.94840394e-02, 7.76890106e-03,
          2.58963322e-03, 6.83059394e-01, 7.00949013e-01, 1.36383884e-02,
          1.13491658e-02, 0., 4.53022793e-02, 7.35704973e-02,
          3.12708654e-02, 3.98284420e-02, 7.00949013e-01, 6.11017764e-01,
          5.84034443e-01, 8.05365890e-02, 0., 6.61863089e-02,
          9.67552736e-02, 4.04906571e-02, 1.86022781e-02, 5.07194519e-01 ]
      - [ 3.81890714e-01, 1.08930776e-02, 2.05151178e-02, 4.55555506e-03,
          5.98847091e-01, 5.98847091e-01, 3.08092445e-01, 1.19306275e-03,
          1.88312650e-01, 6.21568382e-01, 1.36858993e-03, 4.10577003e-03,
          1.20708928e-01, 6.21568382e-01, 1.77944854e-01, 2.03174800e-02,
          6.77249394e-03, 4.17596787e-01, 5.26143968e-01, 4.42554196e-03,
          1.32766264e-02, 2.53184646e-01, 5.26143968e-01, 3.36692482e-01,
          1.64838079e-02, 5.49460249e-03, 5.12960494e-01, 3.11573029e-01,
          1.39597915e-02, 9.58857611e-02, 4.67699111e-01, 4.67699111e-01,
          3.53121668e-01, 2.96455443e-01, 1.41611353e-01, 4.67699111e-01,
          1.55496290e-02, 1.96108937e-01, 6.51062429e-01, 6.51062429e-01,
          3.12391371e-01, 1.26229133e-02, 3.90976481e-02, 5.72507307e-02,
          6.69392869e-02, 3.99096251e-01, 3.99096251e-01, 3.99096251e-01,
          1.17621594e-03, 1.91964969e-01, 3.99096251e-01, 3.99096251e-01,
          5.91115020e-02, 3.99096251e-01, 6.64808452e-01, 2.56540198e-02,
          1.09791765e-02, 4.04890254e-02, 3.26445341e-01, 1.17278732e-02,
          0., 1.73294097e-02, 6.64808452e-01, 6.96120679e-01,
          6.71951892e-03, 1.00031300e-02, 1.11833856e-01, 1.02212660e-01,
          1.93103999e-02, 1.81710422e-02, 8.97830632e-03, 6.96120679e-01,
          5.14584482e-01, 2.99560539e-02, 3.35729346e-02, 1.74009144e-01,
          1.02923028e-01, 1.78309247e-01, 3.54652494e-01, 5.14584482e-01,
          5.14584482e-01, 3.48807946e-02, 5.24226367e-01, 5.24226367e-01,
          5.24226367e-01, 2.76331231e-02, 9.98784322e-03, 1.20262660e-01,
          3.76311153e-01, 1.10325694e-01, 3.22341174e-01, 3.74719590e-01,
          3.81489128e-01, 3.81489128e-01, 3.81489128e-01, 2.58019529e-02,
          3.81489128e-01, 3.81489128e-01, 1.53409824e-01, 5.22710860e-01,
          2.62591317e-02, 1.79896578e-02, 1.89538345e-01, 6.97968423e-01,
          1.78371400e-01, 0., 2.29249615e-02, 4.04185623e-01,
          4.43791866e-01, 8.87520704e-03, 1.32122319e-02, 1.31616324e-01,
          7.88641393e-01, 1.53172731e-01, 2.40004919e-02, 1.18586356e-02,
          3.62585098e-01, 2.52108067e-01, 8.29641297e-02, 2.92810034e-02,
          8.64302814e-02, 5.43537796e-01, 5.43537796e-01, 4.18155193e-01,
          2.70928144e-01, 2.76912451e-01, 8.26206058e-02, 6.25910699e-01,
          6.25910699e-01, 1.50061324e-02, 3.64019983e-02, 3.56902957e-01,
          2.19082147e-01, 1.61551192e-01, 1.92453600e-02, 2.45542303e-01,
          0., 6.35989085e-02, 4.80141610e-01, 4.80141610e-01,
          6.63029030e-03, 9.31697786e-02, 4.80141610e-01, 4.80141610e-01,
          5.67718267e-01, 1.21811153e-02, 1.00384350e-03, 1.55499265e-01,
          5.67718267e-01, 5.51585034e-02, 0., 6.85410574e-03,
          5.67718267e-01, 5.73903620e-01, 3.61166499e-03, 0.,
          6.16791397e-02, 5.73903620e-01, 4.85356487e-02, 0., 0.,
          5.73903620e-01, 4.82640892e-01, 2.51462936e-01, 8.04738328e-03,
          8.99725314e-03, 4.82640892e-01, 4.82640892e-01, 4.57227509e-03,
          3.19686485e-03, 4.82640892e-01, 6.16556585e-01, 6.16556585e-01,
          4.22915459e-01, 1.34018555e-01, 1.17131926e-01, 1.42660379e-01,
          5.40950662e-03, 5.48519456e-05, 5.13838418e-02, 5.75420201e-01,
          3.46419681e-03, 1.65221076e-02, 1.95021518e-02, 7.00825593e-03,
          6.50836015e-03, 1.31155085e-02, 5.75420201e-01, 5.75420201e-01,
          7.04547882e-01, 7.52774533e-03, 9.95636173e-03, 0., 0., 0.,
          2.81731668e-03, 5.27336542e-03, 7.04547882e-01, 7.03948438e-01,
          1.39627245e-03, 3.51506780e-04, 0., 0., 0., 4.11799401e-02,
          1.37266489e-02, 7.03948438e-01, 6.98359847e-01, 1.21453412e-01,
          3.61334607e-02, 0., 0., 1.60988979e-02, 3.41863148e-02,
          1.14611769e-02, 6.98359847e-01, 4.47441429e-01, 4.47441429e-01,
          4.47441429e-01, 1.83793321e-01, 3.33524853e-01, 4.47441429e-01,
          1.45891324e-01, 3.01630534e-02, 1.65838391e-01 ]
      - [ 1.09927496e-02, 1.58690587e-02, 2.09584031e-02, 8.06354824e-03,
          6.92988396e-01, 6.92988396e-01, 1.78139567e-01, 1.94907258e-03,
          1.34344515e-03, 0., 4.79811337e-03, 1.43943401e-02,
          5.14824688e-02, 9.31401849e-01, 3.46862525e-01, 1.86411722e-03,
          6.21372426e-04, 0., 0., 3.00817541e-03, 9.02452786e-03,
          9.70171914e-02, 9.33251560e-01, 3.31898183e-01, 8.01775977e-03,
          2.67258636e-03, 0., 0., 6.41684223e-04, 2.06426501e-01,
          5.76105237e-01, 6.99345708e-01, 3.59682143e-01, 6.95139682e-03,
          2.31713196e-03, 0., 0., 4.67086304e-03, 5.74346185e-01,
          5.74346185e-01, 5.74346185e-01, 3.79316248e-02, 4.51490246e-02,
          3.38393897e-02, 0., 4.98464674e-01, 2.41797015e-01, 0.,
          1.59700975e-01, 4.98464674e-01, 4.98464674e-01, 3.43377590e-01,
          2.25886775e-04, 2.18499303e-01, 5.65802693e-01, 1.40370410e-02,
          0., 4.22848687e-02, 5.65802693e-01, 1.78793028e-01, 0., 0.,
          5.65802693e-01, 5.65503955e-01, 0., 0., 2.24081986e-02,
          5.65503955e-01, 1.85652390e-01, 0., 0., 5.65503955e-01,
          4.75116462e-01, 0., 2.07183599e-01, 3.98434490e-01,
          4.75116462e-01, 1.90476269e-01, 2.97269337e-02, 2.81438172e-01,
          4.75116462e-01, 2.64453292e-02, 2.67472528e-02, 5.64219356e-01,
          5.64219356e-01, 5.64219356e-01, 1.03065476e-01, 3.77068445e-02,
          1.44663393e-01, 7.03472942e-02, 4.06773955e-01, 4.06773955e-01,
          4.06773955e-01, 4.06773955e-01, 4.06773955e-01, 2.08937064e-01,
          2.73808897e-01, 9.15854424e-02, 2.03954116e-01, 5.67339599e-01,
          1.73454732e-02, 2.23782733e-02, 1.40149221e-01, 5.67339599e-01,
          9.09324065e-02, 0., 0., 5.67339599e-01, 5.72689652e-01, 0., 0.,
          3.68825905e-02, 5.72689652e-01, 9.48728547e-02, 0., 0.,
          5.72689652e-01, 4.28238600e-01, 0., 0., 7.66018331e-02,
          4.28238600e-01, 4.28238600e-01, 3.91021967e-01, 3.21563184e-01,
          4.28238600e-01, 4.03624535e-01, 4.03624535e-01, 4.03624535e-01,
          4.03624535e-01, 1.53973922e-01, 2.63365388e-01, 3.77329081e-01,
          3.08001429e-01, 1.18344329e-01, 4.20876414e-01, 7.76297897e-02,
          2.04583704e-01, 4.20876414e-01, 4.20876414e-01, 2.33447254e-01,
          2.48310864e-01, 4.20876414e-01, 3.51014346e-01, 3.59780788e-01,
          4.00015648e-04, 7.86940474e-03, 1.14312917e-01, 8.06868732e-01,
          1.78909943e-01, 0., 0., 4.07835692e-01, 3.11599165e-01, 0., 0.,
          2.04815343e-02, 7.47495234e-01, 2.33841375e-01, 0., 0.,
          5.30654967e-01, 4.98685688e-01, 2.90809900e-01, 7.11788461e-02,
          1.59356728e-01, 4.98685688e-01, 4.98685688e-01, 1.36147469e-01,
          7.90022686e-03, 3.39598358e-01, 6.17327988e-01, 6.17327988e-01,
          4.12698418e-01, 4.46300656e-02, 4.79642190e-02, 9.12903994e-02,
          1.77803844e-01, 5.90854548e-02, 1.16606303e-01, 6.11650646e-01,
          2.05948437e-03, 6.17845217e-03, 7.33406469e-02, 1.61748692e-01,
          5.93553521e-02, 1.13610476e-01, 4.44573432e-01, 6.11650646e-01,
          6.44466698e-01, 2.24090070e-02, 6.72270134e-02, 1.08424472e-02,
          3.96682113e-01, 1.88416298e-02, 6.01356011e-03, 2.00452004e-03,
          6.44466698e-01, 6.61556661e-01, 4.41118935e-03, 1.32335676e-02,
          0., 3.38339090e-01, 5.20790629e-02, 2.51141898e-02,
          8.37139692e-03, 6.61556661e-01, 6.44887865e-01, 3.19756091e-01,
          2.82749683e-02, 4.42095362e-02, 2.33717054e-01, 2.62661111e-02,
          3.66135165e-02, 1.22045064e-02, 6.44887865e-01, 6.39093280e-01,
          6.39093280e-01, 2.86626428e-01, 1.12304445e-02, 1.31600555e-02,
          1.86040287e-03, 2.02507764e-01, 1.89861879e-01, 1.31241888e-01 ]
      - [ 1.32336125e-01, 1.51674347e-02, 4.55023050e-02, 4.17083353e-02,
          6.13515317e-01, 6.13515317e-01, 3.39930683e-01, 3.52283344e-02,
          3.20508063e-01, 5.26554525e-01, 3.92543804e-03, 1.17763141e-02,
          1.41644269e-01, 6.61009729e-01, 1.39149562e-01, 2.47113276e-02,
          8.52596015e-03, 4.88819331e-01, 5.15708983e-01, 6.12136442e-03,
          1.83640923e-02, 1.13635309e-01, 6.78202629e-01, 9.32998732e-02,
          1.69144273e-02, 5.63814212e-03, 4.94979322e-01, 4.55013305e-01,
          1.50894076e-02, 2.08716523e-02, 2.55962014e-01, 6.61779940e-01,
          1.66194066e-01, 2.29472406e-02, 7.64908036e-03, 5.04002035e-01,
          3.47350128e-02, 7.97755793e-02, 4.72801536e-01, 6.12248361e-01,
          6.12248361e-01, 6.06806837e-02, 2.38112640e-02, 7.93708768e-03,
          9.36299786e-02, 4.00779963e-01, 4.00779963e-01, 4.00779963e-01,
          9.56059173e-02, 2.90752679e-01, 3.03818792e-01, 4.00779963e-01,
          8.30054283e-02, 4.00779963e-01, 6.75871670e-01, 4.81781811e-02,
          1.69297755e-02, 3.19796503e-02, 2.73570955e-01, 3.42937112e-02,
          0., 4.45506070e-04, 6.75871670e-01, 6.79160714e-01,
          6.36362005e-03, 0., 2.78825089e-02, 2.63938546e-01,
          1.48218898e-02, 0., 6.07214868e-04, 6.79160714e-01,
          6.60476804e-01, 1.13012632e-02, 0., 2.90388577e-02,
          2.48740762e-01, 3.28711905e-02, 7.26243705e-02, 2.27484852e-01,
          6.60476804e-01, 9.08747837e-02, 2.45943055e-01, 3.74552041e-01,
          3.74552041e-01, 3.70189279e-01, 3.16904366e-01, 3.59007508e-01,
          3.74552041e-01, 3.74552041e-01, 2.83407182e-01, 3.77875954e-01,
          3.77875954e-01, 3.77875954e-01, 3.77875954e-01, 1.65027939e-02,
          3.77875954e-01, 3.39814842e-01, 2.93611228e-01, 5.61535776e-01,
          3.72084230e-02, 2.13311184e-02, 1.56854212e-01, 6.44495606e-01,
          1.19065769e-01, 6.09914714e-04, 0., 4.71432626e-01,
          5.70164502e-01, 6.71766885e-03, 0., 1.51402041e-01,
          6.60334826e-01, 1.74395889e-02, 0., 6.40998129e-04,
          4.57171530e-01, 4.20576692e-01, 1.03798382e-04, 2.69754353e-04,
          9.58552212e-02, 5.39056897e-01, 4.52784240e-01, 8.72797146e-02,
          1.21439889e-01, 5.39056897e-01, 3.71766359e-01, 3.92212719e-01,
          3.21811765e-01, 1.14159539e-01, 2.80046523e-01, 3.92212719e-01,
          3.92212719e-01, 3.92212719e-01, 2.18006849e-01, 1.19916908e-01,
          2.61261947e-02, 7.90226236e-02, 4.64714378e-01, 4.93093938e-01,
          1.62946582e-02, 1.67684272e-01, 4.93093938e-01, 4.93093938e-01,
          5.64399302e-01, 1.13575570e-02, 6.04909426e-03, 9.43923220e-02,
          5.64399302e-01, 1.53999627e-01, 6.19259216e-02, 4.58045416e-02,
          5.64399302e-01, 5.68556428e-01, 2.82167140e-02, 2.83845118e-03,
          1.22227646e-01, 5.68556428e-01, 5.80460727e-02, 3.50845978e-02,
          6.48784116e-02, 5.68556428e-01, 5.11180222e-01, 1.43416762e-01,
          1.38000082e-02, 2.65715331e-01, 5.11180222e-01, 3.45709234e-01,
          9.98397730e-03, 1.01752125e-03, 5.11180222e-01, 6.27366304e-01,
          6.27366304e-01, 6.58888891e-02, 1.03593152e-02, 2.11143672e-01,
          3.24092567e-01, 7.03717843e-02, 8.94018337e-02, 1.98867410e-01,
          4.96584773e-01, 2.29489822e-02, 6.88469410e-02, 5.39672188e-03,
          2.30198763e-02, 0., 4.26253229e-02, 6.08148396e-01,
          6.08148396e-01, 7.03541398e-01, 1.20881721e-02, 2.71966811e-02,
          0., 2.30375119e-03, 1.22843049e-02, 3.79064269e-02,
          2.36040447e-02, 7.03541398e-01, 7.03025341e-01, 1.57805923e-02,
          1.89083721e-02, 2.00433051e-03, 8.23714584e-03, 1.73299983e-02,
          4.81766760e-02, 3.45426686e-02, 7.03025341e-01, 6.98622167e-01,
          9.81389135e-02, 2.02462710e-02, 5.23102283e-02, 6.02564551e-02,
          5.95523464e-03, 1.98725611e-02, 6.43937057e-03, 6.98622167e-01,
          6.39130890e-01, 6.39130890e-01, 1.00795709e-01, 2.90829223e-03,
          1.33692980e-01, 5.13851345e-02, 7.17382282e-02, 2.39127446e-02,
          3.74488622e-01 ]
      - [ 1.63583055e-01, 1.13071511e-02, 1.05275987e-02, 1.05092816e-01,
          6.86196983e-01, 6.86196983e-01, 7.74715394e-02, 1.72675978e-02,
          8.41104761e-02, 2.75457203e-01, 4.44093021e-03, 1.29108494e-02,
          1.17272094e-01, 8.16059530e-01, 2.82470554e-01, 7.48218410e-03,
          2.49406113e-03, 3.95266145e-01, 3.79478842e-01, 8.64222297e-04,
          2.59266677e-03, 3.14365327e-02, 8.02184045e-01, 2.50510693e-01,
          4.06116107e-03, 1.35372032e-03, 3.75128031e-01, 1.96226239e-01,
          2.31923419e-03, 2.17259135e-02, 5.18125653e-01, 6.44211292e-01,
          2.49826729e-01, 1.07795978e-02, 3.75515185e-02, 4.55174744e-01,
          1.47673925e-02, 8.49332511e-02, 5.97489059e-01, 5.97489059e-01,
          4.40289497e-01, 1.09657692e-02, 2.63624728e-01, 9.28964317e-02,
          2.26514954e-02, 4.45074230e-01, 4.45074230e-01, 1.20545715e-01,
          3.01465467e-02, 4.45074230e-01, 3.94374430e-01, 1.77019984e-01,
          2.97076162e-02, 4.45074230e-01, 5.95063031e-01, 2.93031312e-03,
          0., 3.05670612e-02, 5.31587362e-01, 4.82712574e-02, 0., 0.,
          5.95063031e-01, 5.92105806e-01, 0., 0., 8.42668675e-03,
          5.39689243e-01, 3.96703519e-02, 0., 0., 5.92105806e-01,
          4.96378571e-01, 0., 3.11257355e-02, 1.94513053e-01,
          4.21507597e-01, 4.18010987e-02, 1.94028646e-01, 4.96378571e-01,
          4.96378571e-01, 9.10486095e-03, 1.84306934e-01, 6.00287974e-01,
          6.00287974e-01, 4.57270592e-02, 3.72922164e-03, 2.22572923e-01,
          4.18977231e-01, 1.09897435e-01, 4.28689003e-01, 4.28689003e-01,
          4.28689003e-01, 4.28689003e-01, 4.28689003e-01, 3.14222388e-02,
          1.49183020e-01, 6.11255430e-02, 2.23309666e-01, 5.65468788e-01,
          3.81676829e-03, 1.60082581e-03, 6.91213384e-02, 5.65468788e-01,
          1.74050480e-01, 0., 0., 5.65468788e-01, 5.68111479e-01, 0., 0.,
          2.72849444e-02, 5.68111479e-01, 1.59155801e-01, 0., 0.,
          5.68111479e-01, 3.52960110e-01, 4.13772017e-02, 5.79613494e-03,
          8.64342134e-03, 4.38247830e-01, 4.38247830e-01, 3.65320355e-01,
          3.99473011e-01, 4.38247830e-01, 9.51414034e-02, 5.79105854e-01,
          5.79105854e-01, 1.00181155e-01, 3.64369042e-02, 2.26697087e-01,
          4.41114008e-01, 2.28576154e-01, 6.96724206e-02, 2.55506933e-01,
          0., 2.54433602e-01, 4.91915047e-01, 4.91915047e-01,
          8.34712684e-02, 5.08679263e-02, 3.59959006e-01, 4.91915047e-01,
          5.63160002e-01, 0., 4.00702615e-04, 8.78365785e-02,
          5.63160002e-01, 2.53411591e-01, 0., 0., 5.36791503e-01,
          5.69548726e-01, 0., 0., 3.36013883e-02, 5.69548726e-01,
          1.89283177e-01, 0., 0., 5.55503488e-01, 4.74798024e-01,
          2.62554348e-01, 3.18598468e-04, 1.64141469e-02, 4.74798024e-01,
          4.74798024e-01, 1.53313950e-01, 2.85573695e-02, 4.74798024e-01,
          5.61676979e-01, 5.61676979e-01, 5.61676979e-01, 1.88144054e-02,
          4.80248965e-02, 9.78260413e-02, 1.77429050e-01, 6.09656610e-02,
          2.28002407e-02, 6.74462438e-01, 6.61094161e-03, 1.98328234e-02,
          3.82709391e-02, 1.73740909e-01, 1.91998184e-02, 2.14484800e-02,
          2.24836096e-01, 6.74462438e-01, 6.73542321e-01, 7.26620993e-03,
          2.17986330e-02, 1.93373244e-02, 2.89165884e-01, 3.73092145e-02,
          6.48758421e-03, 2.16252822e-03, 6.73542321e-01, 6.96893930e-01,
          1.69146643e-03, 5.07439906e-03, 9.05964337e-03, 1.42484024e-01,
          2.80587897e-02, 2.16607358e-02, 7.22024543e-03, 6.96893930e-01,
          6.93405569e-01, 1.48976222e-01, 1.69425365e-02, 4.03779373e-03,
          3.32938209e-02, 7.17501482e-03, 8.07057396e-02, 3.58437672e-02,
          6.93405569e-01, 4.82722968e-01, 4.82722968e-01, 4.82722968e-01,
          1.18861981e-01, 2.87212036e-03, 0., 3.63848329e-01,
          3.81304324e-01, 6.48011938e-02 ]
      - [ 6.22506775e-02, 6.03178702e-03, 1.80953592e-02, 2.27005091e-02,
          6.99448764e-01, 6.99448764e-01, 7.25314096e-02, 1.47939995e-02,
          6.57770857e-02, 3.36029470e-01, 2.73607881e-03, 8.20823666e-03,
          1.22446269e-01, 8.29618156e-01, 2.98543215e-01, 7.42588472e-03,
          3.86163313e-03, 2.93722242e-01, 4.08686489e-01, 8.81837681e-04,
          2.64551304e-03, 1.77586786e-02, 8.27651918e-01, 1.25309080e-01,
          1.22024175e-02, 4.06747218e-03, 3.51450115e-01, 2.73222774e-01,
          3.69213824e-03, 1.10764150e-02, 2.80192256e-01, 7.95460939e-01,
          8.78783539e-02, 7.66214682e-03, 2.55404878e-03, 4.45219636e-01,
          1.71878468e-02, 4.06963518e-03, 2.97179788e-01, 6.72010422e-01,
          6.72010422e-01, 7.15947198e-03, 9.15824063e-03, 3.05274711e-03,
          3.63719910e-02, 4.50577468e-01, 4.50577468e-01, 7.02737123e-02,
          1.95395597e-03, 4.50577468e-01, 4.50577468e-01, 3.26415330e-01,
          7.51643777e-02, 2.57449776e-01, 5.74052334e-01, 5.48057817e-02,
          1.05640269e-03, 1.68999787e-02, 5.74052334e-01, 4.86420169e-02,
          0., 1.75539905e-03, 5.74052334e-01, 5.75576305e-01, 0., 0., 0.,
          5.75576305e-01, 1.97072458e-02, 0., 0., 5.75576305e-01,
          5.61875045e-01, 0., 0., 5.71528077e-02, 5.61875045e-01,
          7.91894644e-03, 8.66434053e-02, 1.90898731e-01, 5.61875045e-01,
          2.13908538e-01, 3.04712877e-02, 4.03823197e-01, 4.03823197e-01,
          4.03823197e-01, 0., 4.03823197e-01, 4.03823197e-01,
          3.65943402e-01, 4.05943692e-01, 4.05943692e-01, 4.05943692e-01,
          4.05943692e-01, 4.05943692e-01, 7.19674900e-02, 3.01981241e-01,
          2.63372570e-01, 7.90970773e-02, 5.87470293e-01, 4.61507030e-02,
          9.77586582e-03, 1.31261125e-01, 5.87470293e-01, 9.10883173e-02,
          0., 0., 5.25489450e-01, 5.84403396e-01, 0., 0., 2.77732108e-02,
          6.00720108e-01, 1.02935359e-01, 0., 0., 5.29379785e-01,
          3.65430415e-01, 0., 0., 3.26709636e-02, 5.22579610e-01,
          5.22579610e-01, 1.52133435e-01, 1.33272231e-01, 5.22579610e-01,
          2.29300812e-01, 3.94882709e-01, 3.94882709e-01, 9.11440998e-02,
          3.94882709e-01, 3.94882709e-01, 3.94882709e-01, 3.25949639e-01,
          2.21955121e-01, 4.46526349e-01, 0., 8.02283660e-02,
          4.29899454e-01, 4.46526349e-01, 4.10704240e-02, 7.11308271e-02,
          4.46526349e-01, 4.46526349e-01, 5.73613167e-01, 0.,
          2.56792852e-03, 6.11744560e-02, 5.73613167e-01, 5.85398041e-02,
          0., 0., 5.73613167e-01, 5.74605644e-01, 0., 0., 1.22802760e-02,
          5.74605644e-01, 5.99712655e-02, 0., 0., 5.74605644e-01,
          5.27697146e-01, 0., 0., 1.19179580e-02, 5.27697146e-01,
          3.98760378e-01, 1.36142951e-02, 0., 5.27697146e-01,
          5.54254711e-01, 5.54254711e-01, 2.02300586e-02, 0.,
          1.36777580e-01, 2.19126031e-01, 7.57398456e-02, 0.,
          5.54254711e-01, 6.85981572e-01, 1.00332340e-02, 3.00997011e-02,
          9.26931668e-03, 5.75779984e-03, 0., 1.85547825e-02,
          2.24812433e-01, 6.85981572e-01, 7.03935683e-01, 1.32668344e-02,
          3.98005061e-02, 0., 0., 0., 1.20751066e-02, 4.02503554e-03,
          7.03935683e-01, 7.02279270e-01, 4.09683175e-02, 3.08453018e-04,
          0., 0., 0., 6.65343031e-02, 2.21781004e-02, 7.02279270e-01,
          7.00727463e-01, 6.26948029e-02, 3.72974649e-02, 0., 0.,
          8.76693148e-03, 6.73827380e-02, 3.20659876e-02, 7.00727463e-01,
          6.35324121e-01, 3.89214039e-01, 1.38700873e-01, 0.,
          6.11793948e-03, 1.06376328e-01, 2.68624350e-02, 5.98586835e-02,
          6.35324121e-01 ]
      - [ 5.84431179e-03, 1.57692209e-02, 1.64513122e-02, 1.25877202e-01,
          6.98751390e-01, 6.98751390e-01, 1.02566620e-02, 3.41888750e-03,
          1.52744935e-03, 0., 2.94047571e-03, 8.82142782e-03,
          1.15845509e-01, 9.60112393e-01, 2.34729454e-01, 1.14100520e-03,
          3.80335026e-04, 0., 0., 2.61409977e-03, 7.84229953e-03,
          1.04722343e-01, 9.75532830e-01, 1.65869668e-01, 7.11320154e-03,
          2.37106695e-03, 0., 0., 1.03791570e-02, 3.11374702e-02,
          3.62571508e-01, 8.75459313e-01, 3.01617354e-01, 3.45587209e-02,
          1.15195727e-02, 0., 1.93699971e-01, 5.15779369e-02,
          2.48276472e-01, 6.32622838e-01, 6.32622838e-01, 2.46854424e-02,
          1.92784280e-01, 6.83093145e-02, 2.21354663e-01, 4.72112030e-01,
          4.72112030e-01, 5.00156358e-02, 7.45366588e-02, 4.72112030e-01,
          4.72112030e-01, 7.87067264e-02, 5.69949113e-03, 2.99066484e-01,
          5.72054565e-01, 4.62763663e-03, 0., 4.15329561e-02,
          5.72054565e-01, 1.03932753e-01, 0., 0., 5.72054565e-01,
          5.74936569e-01, 0., 0., 3.43311653e-02, 5.74936569e-01,
          3.77354585e-02, 0., 0., 5.74936569e-01, 5.26187599e-01, 0., 0.,
          1.73319399e-01, 5.26187599e-01, 7.22601563e-02, 3.96286137e-02,
          3.56782019e-01, 5.26187599e-01, 7.76550686e-03, 1.71874762e-02,
          5.13655066e-01, 5.13655066e-01, 4.33214694e-01, 4.66634966e-02,
          2.31229782e-01, 4.30599898e-01, 1.95180640e-01, 4.21504736e-01,
          4.21504736e-01, 4.21504736e-01, 4.21504736e-01, 4.21504736e-01,
          7.77172744e-02, 1.26250297e-01, 8.55467319e-02, 2.79572457e-01,
          5.71893990e-01, 3.43428971e-03, 9.89711145e-04, 4.32100967e-02,
          5.71893990e-01, 1.05929874e-01, 0., 0., 5.71893990e-01,
          5.71065664e-01, 0., 0., 5.60218059e-02, 5.71065664e-01,
          1.13185838e-01, 0., 0., 5.71065664e-01, 4.71326917e-01,
          3.11624230e-04, 0., 3.12108751e-02, 4.71326917e-01,
          4.71326917e-01, 1.25775322e-01, 2.99837023e-01, 4.71326917e-01,
          2.26221725e-01, 4.12134081e-01, 4.12134081e-01, 2.89172351e-01,
          7.93027803e-02, 4.12134081e-01, 4.12134081e-01, 4.12134081e-01,
          7.43275210e-02, 4.57015991e-01, 0., 2.40898088e-01,
          4.57015991e-01, 4.57015991e-01, 2.50641275e-02, 2.13291068e-02,
          3.17593187e-01, 4.57015991e-01, 5.72659731e-01, 0.,
          3.20297841e-04, 3.03790160e-02, 5.72659731e-01, 9.76789221e-02,
          0., 0., 5.72659731e-01, 5.74124098e-01, 0., 0., 6.31348640e-02,
          5.74124098e-01, 3.77559513e-02, 0., 0., 5.74124098e-01,
          4.98355478e-01, 2.21849363e-02, 0., 1.87913626e-02,
          4.98355478e-01, 4.98355478e-01, 2.72861347e-02, 0.,
          4.98355478e-01, 6.48597360e-01, 6.48597360e-01, 1.20005637e-01,
          0., 8.26380700e-02, 2.76722163e-01, 2.03418583e-01,
          5.58655849e-03, 1.13804989e-01, 6.93225801e-01, 4.21848781e-02,
          1.84523501e-02, 0., 2.81424052e-03, 1.47527484e-02,
          2.81771496e-02, 1.69752896e-01, 6.93225801e-01, 7.04557836e-01,
          4.00866428e-03, 1.20259915e-02, 0., 0., 0., 1.54933392e-03,
          5.16444619e-04, 7.04557836e-01, 7.04583824e-01, 5.64422051e-04,
          1.69326609e-03, 0., 0., 0., 8.83956533e-03, 2.94652139e-03,
          7.04583824e-01, 7.01376915e-01, 1.91858094e-02, 2.23623943e-02,
          0., 0., 3.06753995e-04, 8.21645111e-02, 3.89904864e-02,
          7.01376915e-01, 6.23845220e-01, 5.27426362e-01, 6.86485842e-02,
          0., 2.45840877e-01, 2.15180039e-01, 3.35724324e-01,
          7.55807981e-02, 3.10699016e-01 ]
      - [ 4.60953228e-02, 5.73466485e-03, 1.72039960e-02, 1.37866214e-02,
          6.06735826e-01, 6.06735826e-01, 4.65601087e-01, 1.01648532e-01,
          1.67106599e-01, 1.91168636e-01, 4.50844271e-03, 1.35253258e-02,
          1.22750297e-01, 7.21510112e-01, 4.51578170e-01, 6.00782689e-03,
          2.80176615e-03, 4.65229094e-01, 2.93881834e-01, 2.46711634e-03,
          7.40134949e-03, 6.04769811e-02, 7.86792397e-01, 2.80964613e-01,
          5.25681162e-03, 1.75227039e-03, 4.51717466e-01, 3.12294573e-01,
          3.67972963e-02, 5.70352376e-02, 3.48197281e-01, 6.70439899e-01,
          3.40391755e-01, 1.48038947e-04, 4.93463122e-05, 4.52299029e-01,
          6.17213622e-02, 1.73767686e-01, 5.53618133e-01, 5.53618133e-01,
          5.53618133e-01, 7.01329112e-03, 9.81766507e-02, 1.58419490e-01,
          7.87598491e-02, 4.22159642e-01, 4.22159642e-01, 2.02650893e-02,
          2.32869666e-02, 2.92925239e-01, 4.22159642e-01, 4.22159642e-01,
          1.33906603e-01, 4.22159642e-01, 6.14114225e-01, 1.54443160e-02,
          0., 1.76718216e-02, 4.82336372e-01, 7.99530745e-02,
          1.27311877e-03, 1.55237340e-03, 6.14114225e-01, 6.23094320e-01,
          8.20078421e-03, 0., 1.26640452e-02, 4.65007812e-01,
          2.87367869e-02, 0., 0., 6.23094320e-01, 5.81369162e-01,
          5.63502684e-02, 3.80606353e-02, 6.14206530e-02, 3.77156407e-01,
          8.24769214e-02, 1.48368284e-01, 3.72499079e-01, 5.81369162e-01,
          8.12778324e-02, 2.08109438e-01, 5.69160700e-01, 5.69160700e-01,
          1.80946037e-01, 7.58953243e-02, 2.42951453e-01, 3.50711942e-01,
          2.75657624e-01, 3.87137085e-01, 3.87137085e-01, 3.87137085e-01,
          3.87137085e-01, 3.87137085e-01, 1.12829134e-01, 3.87137085e-01,
          2.47078717e-01, 1.51998043e-01, 5.53832710e-01, 1.34564349e-02,
          3.16425762e-03, 7.45283440e-02, 5.53832710e-01, 2.61785656e-01,
          0., 0., 5.53832710e-01, 5.63110530e-01, 9.31287650e-03, 0.,
          7.52351135e-02, 5.63110530e-01, 1.93259731e-01, 0., 0.,
          5.63110530e-01, 3.59373361e-01, 3.00031547e-02, 5.85650466e-03,
          2.10565585e-03, 4.52698320e-01, 4.52698320e-01, 2.30839834e-01,
          4.44179803e-01, 4.52698320e-01, 2.95606881e-01, 4.84309286e-01,
          4.84309286e-01, 1.78231522e-01, 1.72493413e-01, 2.10457310e-01,
          4.05153662e-01, 4.04550701e-01, 7.10283220e-02, 4.10496920e-01,
          1.65681038e-02, 2.08562836e-01, 4.10496920e-01, 4.10496920e-01,
          1.87924549e-01, 2.72529185e-01, 4.10496920e-01, 4.10496920e-01,
          5.40051639e-01, 3.82646620e-02, 9.16321110e-03, 7.66098946e-02,
          5.40051639e-01, 3.34995717e-01, 0., 0., 5.40051639e-01,
          5.59335351e-01, 7.47732585e-03, 0., 1.50732458e-01,
          5.59335351e-01, 1.81852281e-01, 0., 0., 5.59335351e-01,
          4.90302175e-01, 1.69415206e-01, 1.48908449e-02, 3.92382545e-03,
          4.90302175e-01, 4.90302175e-01, 5.71603738e-02, 3.62213813e-02,
          4.90302175e-01, 6.34846032e-01, 6.34846032e-01, 3.40936542e-01,
          2.14424753e-03, 5.28757907e-02, 1.15104400e-01, 2.14675814e-01,
          8.74678642e-02, 3.97393405e-02, 5.64962924e-01, 1.20344013e-03,
          5.67228114e-03, 2.71557514e-02, 1.35017978e-02, 3.70553881e-02,
          1.85695022e-01, 5.64962924e-01, 5.64962924e-01, 7.04150677e-01,
          1.98231600e-02, 2.75924709e-02, 1.14582153e-02, 2.35039741e-04,
          7.62592361e-04, 5.04918490e-03, 1.68306159e-03, 7.04150677e-01,
          7.04351068e-01, 3.41627048e-03, 3.95680452e-03, 0., 0., 0.,
          2.54693944e-02, 8.48979875e-03, 7.04351068e-01, 6.94850624e-01,
          1.27369002e-01, 8.32836926e-02, 0., 0., 0., 6.19890429e-02,
          2.06630137e-02, 6.94850624e-01, 4.60114777e-01, 4.60114777e-01,
          4.60114777e-01, 1.94492251e-01, 1.12227634e-01, 8.55188891e-02,
          2.24899933e-01, 2.00663641e-01, 4.60114777e-01 ]
      - [ 2.06429753e-02, 6.48625791e-02, 3.33327889e-01, 5.40262878e-01,
          5.40262878e-01, 5.40262878e-01, 5.49637489e-02, 5.97548811e-03,
          1.24554327e-02, 2.22394347e-01, 5.63825481e-02, 4.87899065e-01,
          4.87899065e-01, 4.87899065e-01, 4.74134572e-02, 4.35427487e-01,
          1.69570684e-01, 8.80496427e-02, 5.33532441e-01, 1.65705115e-01,
          1.83866069e-01, 2.17647702e-01, 5.33532441e-01, 1.26003906e-01,
          1.09340720e-01, 6.50642812e-02, 5.33532441e-01, 2.13606492e-01,
          7.85573125e-02, 7.76849762e-02, 8.34449008e-02, 8.35084438e-01,
          1.96916997e-01, 1.21845476e-01, 2.60289997e-01, 3.28831166e-01,
          2.56177336e-01, 1.07894294e-01, 3.43963891e-01, 3.21346670e-01,
          6.47423565e-01, 4.52471405e-01, 1.20475940e-01, 1.38731837e-01,
          1.92470416e-01, 1.03464238e-02, 1.30312797e-02, 4.44154739e-01,
          4.44154739e-01, 4.44154739e-01, 4.44154739e-01, 4.44154739e-01,
          9.44129825e-02, 2.33728276e-03, 3.34655382e-02, 2.73434329e-04,
          3.35934162e-01, 5.26181459e-01, 5.50528407e-01, 5.47985137e-01,
          1.38131622e-02, 4.60438710e-03, 9.08005517e-03, 1.49848070e-02,
          4.16177372e-03, 1.30384287e-03, 3.98304723e-02, 7.03906059e-01,
          7.03906059e-01, 1.35878881e-03, 3.20872292e-03, 1.27896210e-02,
          1.40567720e-01, 4.88484055e-02, 0., 5.19580655e-02,
          7.50626266e-01, 6.28697038e-01, 1.22784171e-02, 3.10058594e-02,
          8.86046290e-02, 1.49724081e-01, 4.82239336e-01, 4.82239336e-01,
          4.82239336e-01, 4.82239336e-01, 2.05724612e-01, 1.20724679e-03,
          1.75903824e-05, 1.49338273e-02, 4.13157910e-01, 5.59762381e-02,
          3.23917389e-01, 3.98501813e-01, 1.35994926e-01, 2.88727641e-01,
          4.13157910e-01, 3.39199960e-01, 4.13157910e-01, 4.93945450e-01,
          3.03532705e-02, 7.10311010e-02, 2.39385396e-01, 4.93945450e-01,
          4.47043806e-01, 0., 0., 4.93945450e-01, 5.33232689e-01, 0., 0.,
          0., 5.33232689e-01, 3.76361251e-01, 1.48796872e-03,
          3.66012519e-03, 5.33232689e-01, 5.64219892e-01, 6.22596331e-02,
          0., 8.45467392e-03, 5.64219892e-01, 1.82943419e-01,
          1.61226708e-02, 4.07134965e-02, 5.64219892e-01, 4.79830980e-01,
          4.79830980e-01, 4.76276636e-01, 2.45564029e-01, 2.53688842e-01,
          3.91638763e-02, 1.04824491e-02, 9.81942168e-04, 4.26131666e-01,
          6.98854506e-01, 2.46077385e-02, 5.36176888e-03, 1.25193605e-02,
          2.20573787e-02, 1.67938862e-02, 2.94963364e-02, 1.17468603e-01,
          6.98854506e-01, 7.02212393e-01, 1.63484719e-02, 0.,
          3.48295271e-02, 6.01330139e-02, 2.57068798e-02, 7.05392798e-04,
          3.20625901e-02, 7.02212393e-01, 7.03468978e-01, 5.57434186e-03,
          0., 6.88036380e-04, 4.17684065e-03, 2.69230455e-03,
          2.76180077e-03, 5.63623086e-02, 7.03468978e-01, 6.95925772e-01,
          4.81536519e-03, 1.96608249e-03, 1.86757483e-02, 1.54976904e-01,
          3.04934243e-03, 4.31305543e-03, 2.43099639e-03, 6.95925772e-01,
          6.58937693e-01, 8.17668736e-02, 2.98476685e-02, 1.60891697e-01,
          1.81560099e-01, 2.37815216e-01, 4.29527573e-02, 1.39970481e-02,
          6.58937693e-01, 4.96277541e-01, 1.59251943e-01, 4.96277541e-01,
          3.09124410e-01, 1.86206087e-01, 1.96884751e-01, 2.06705347e-01,
          1.38155028e-01, 4.96277541e-01, 3.81592244e-01, 3.81592244e-01,
          3.81592244e-01, 3.39660943e-01, 3.81592244e-01, 2.59314984e-01,
          1.49627656e-01, 2.51241684e-01, 3.81592244e-01, 4.66099411e-01,
          3.38968933e-01, 8.85808691e-02, 1.22216577e-02, 3.41584384e-02,
          4.78236638e-02, 4.66099411e-01, 4.66099411e-01, 4.66099411e-01,
          2.28648692e-01, 1.46374032e-01, 2.89526403e-01, 2.27246001e-01,
          4.42020893e-01, 6.98769763e-02, 4.42020893e-01, 4.42020893e-01,
          4.42020893e-01, 2.78185725e-01, 3.57690871e-01, 3.57690871e-01,
          3.57690871e-01, 3.57690871e-01, 3.04194242e-01, 3.57690871e-01,
          3.57690871e-01, 2.42586866e-01 ]
      - [ 1.03659913e-04, 9.84246135e-02, 4.63585526e-01, 4.63585526e-01,
          4.63585526e-01, 4.63585526e-01, 3.54797781e-01, 1.24304136e-02,
          1.03659913e-04, 1.48414550e-02, 3.56597245e-01, 5.29104292e-01,
          5.29104292e-01, 5.29104292e-01, 1.04526997e-01, 5.62949590e-02,
          1.12815373e-01, 2.56454032e-02, 3.18012387e-01, 1.13286622e-01,
          2.62268722e-01, 2.64682341e-02, 7.30897129e-01, 4.64834213e-01,
          1.65450469e-01, 6.52795359e-02, 1.65337473e-01, 6.88982382e-02,
          2.51019597e-02, 2.88828406e-02, 3.27529311e-01, 7.20649958e-01,
          4.91130441e-01, 8.46528411e-02, 8.97377133e-02, 3.21800143e-01,
          1.44570574e-01, 8.27371404e-02, 1.08806193e-01, 4.83854383e-01,
          5.79859376e-01, 5.79859376e-01, 1.94108244e-02, 3.70068625e-02,
          2.15150908e-01, 0., 3.57563585e-01, 4.46818173e-01,
          4.46818173e-01, 2.51757562e-01, 4.46818173e-01, 4.46818173e-01,
          7.56129101e-02, 0., 1.12288340e-03, 3.24530564e-02,
          3.23206037e-01, 3.03331792e-01, 6.30939126e-01, 6.30939126e-01,
          0., 6.01663720e-04, 2.28005834e-03, 1.66244310e-04,
          5.11175860e-03, 1.53924134e-02, 1.73013080e-02, 8.97255540e-01,
          4.30558920e-01, 5.80098666e-03, 7.36116082e-04, 1.58201030e-03,
          0., 3.41095001e-05, 3.80581291e-03, 5.27715981e-02,
          8.11555386e-01, 5.74872851e-01, 7.88515492e-04, 0., 0., 0.,
          3.22413176e-01, 5.23988485e-01, 5.23988485e-01, 5.23988485e-01,
          2.59048969e-01, 0., 6.12388976e-05, 4.31000954e-03,
          3.88945192e-01, 1.95258215e-01, 3.88945192e-01, 3.88945192e-01,
          2.15962559e-01, 6.06527328e-02, 3.88945192e-01, 3.88945192e-01,
          3.88945192e-01, 4.87166256e-01, 8.56807083e-02, 1.42768487e-01,
          1.29479483e-01, 4.87166256e-01, 4.87166256e-01, 0.,
          3.63501385e-02, 4.87166256e-01, 5.61194599e-01, 0., 0.,
          2.28708312e-02, 5.61194599e-01, 2.21443698e-01, 0.,
          4.19267733e-03, 5.61194599e-01, 5.63134432e-01, 0.,
          5.39864833e-03, 1.30201355e-02, 5.63134432e-01, 2.06922308e-01,
          0., 0., 5.63134432e-01, 4.80434746e-01, 4.80434746e-01,
          4.80434746e-01, 2.62658447e-01, 2.81936556e-01, 5.22750653e-02,
          6.01196848e-03, 2.00398965e-03, 3.89227927e-01, 6.88181818e-01,
          2.11026184e-02, 5.41340262e-02, 2.41745744e-04, 1.05269335e-03,
          0., 6.92142248e-02, 1.94355860e-01, 6.88181818e-01,
          6.98421299e-01, 1.25207424e-01, 3.98277082e-02, 4.62711463e-03,
          8.16963334e-03, 0., 0., 9.60042048e-03, 6.98421299e-01,
          7.04554975e-01, 7.14144344e-03, 1.94762775e-03, 2.31278618e-03,
          1.03913993e-02, 1.15174148e-03, 1.64175217e-04, 1.35471474e-03,
          7.04554975e-01, 7.03184247e-01, 8.17603315e-04, 7.67561214e-05,
          2.40497775e-02, 2.54780743e-02, 5.29769436e-02, 3.12531716e-03,
          0., 7.03184247e-01, 5.33610880e-01, 5.33610880e-01,
          4.99364827e-03, 1.06462054e-02, 2.09314507e-02, 3.70184749e-01,
          3.89252827e-02, 3.63460109e-02, 5.33610880e-01, 5.07771254e-01,
          3.94756421e-02, 1.74302161e-01, 4.01704162e-01, 9.81311053e-02,
          5.07771254e-01, 1.30785152e-01, 3.73288430e-02, 5.07771254e-01,
          5.19936085e-01, 1.37369111e-01, 2.06464216e-01, 5.04947007e-01,
          2.33843863e-01, 1.84367105e-01, 2.21132785e-01, 9.86098591e-03,
          5.19936085e-01, 5.03226042e-01, 6.00190461e-02, 1.12857550e-01,
          5.03226042e-01, 4.63522077e-01, 5.23431227e-02, 3.52204666e-02,
          9.62140970e-03, 5.03226042e-01, 4.05161053e-01, 5.34455888e-02,
          1.40529200e-01, 3.49655569e-01, 4.05161053e-01, 4.05161053e-01,
          3.49371493e-01, 2.69084066e-01, 4.05161053e-01, 4.05169815e-01,
          4.05169815e-01, 2.59155035e-01, 1.29953057e-01, 3.62806141e-01,
          4.05169815e-01, 4.05169815e-01, 1.47789463e-01, 3.19034308e-01 ]
      - [ 7.34131131e-03, 1.68164179e-01, 4.86077279e-01, 4.86077279e-01,
          4.86077279e-01, 4.86077279e-01, 1.42669156e-01, 2.54589785e-02,
          2.69264821e-02, 2.62783349e-01, 4.03896779e-01, 4.03896779e-01,
          4.03896779e-01, 3.08243752e-01, 7.85174072e-02, 1.00338005e-01,
          4.03896779e-01, 4.03896779e-01, 4.35085386e-01, 4.35085386e-01,
          4.35085386e-01, 9.01333392e-02, 3.58143300e-02, 6.15721345e-02,
          1.89630523e-01, 4.35085386e-01, 4.35085386e-01, 4.20606852e-01,
          2.50878662e-01, 2.03632414e-01, 2.91422099e-01, 4.20606852e-01,
          3.41906309e-01, 1.33860216e-01, 3.75388414e-01, 4.20606852e-01,
          3.73406470e-01, 3.02439630e-01, 3.55443269e-01, 3.73406470e-01,
          3.73406470e-01, 3.73406470e-01, 3.73406470e-01, 1.73754886e-01,
          2.26068810e-01, 2.22032843e-03, 4.10117298e-01, 4.10117298e-01,
          4.10117298e-01, 4.10117298e-01, 3.89576763e-01, 4.10117298e-01,
          5.60708158e-02, 1.72574376e-03, 2.30924636e-02, 3.62130851e-01,
          4.62275833e-01, 4.39218730e-01, 4.62275833e-01, 4.62275833e-01,
          1.71887502e-02, 1.47942036e-01, 8.67088959e-02, 1.47955626e-01,
          7.34896883e-02, 3.18150446e-02, 2.59967417e-01, 8.32489789e-01,
          4.44018275e-01, 5.01913205e-03, 4.34130430e-02, 6.08626828e-02,
          1.06462456e-01, 2.75539290e-02, 0., 6.28630072e-02,
          8.06317806e-01, 4.85786855e-01, 1.10307075e-02, 5.00345305e-02,
          2.95203954e-01, 1.13618203e-01, 4.04264368e-02, 3.46151441e-01,
          5.42120755e-01, 5.42120755e-01, 4.89129215e-01, 1.48801193e-01,
          7.30806217e-02, 7.55126178e-02, 2.61155032e-02, 4.35592979e-01,
          4.35592979e-01, 4.35592979e-01, 4.35592979e-01, 2.03950897e-01,
          4.35592979e-01, 6.50369003e-02, 2.08501276e-02, 8.12925845e-02,
          6.87725842e-02, 9.49855074e-02, 3.57578665e-01, 8.00723016e-01,
          4.35706735e-01, 0., 0., 1.13084629e-01, 1.41012846e-02,
          3.25241573e-02, 9.29110567e-04, 1.59390777e-01, 8.02614629e-01,
          5.66556156e-01, 4.30431450e-03, 4.07879893e-03, 1.07512372e-02,
          5.57411276e-02, 3.67107731e-03, 0., 1.42303228e-01,
          6.85748041e-01, 6.85748041e-01, 3.76782119e-02, 5.76622821e-02,
          1.56646669e-01, 9.90332365e-02, 4.62745398e-01, 4.62745398e-01,
          4.62745398e-01, 4.62745398e-01, 3.29550475e-01, 0.,
          2.97335926e-02, 1.39819652e-01, 5.60428143e-01, 5.16219318e-01,
          1.37739182e-01, 1.60003826e-01, 1.03298776e-01, 1.64053403e-02,
          1.60794228e-01, 1.35624468e-01, 5.60428143e-01, 5.96720755e-01,
          5.21899872e-02, 9.61392839e-03, 5.03688604e-02, 5.24295449e-01,
          4.06386815e-02, 0., 0., 5.96720755e-01, 6.47327125e-01,
          4.33193855e-02, 1.23749557e-03, 4.22617234e-02, 3.85065258e-01,
          5.89127466e-02, 5.73297823e-03, 5.43261040e-03, 6.47327125e-01,
          6.87313497e-01, 5.07050287e-03, 0., 3.18985768e-02,
          1.52195543e-01, 1.22804426e-01, 5.20412624e-02, 7.96433240e-02,
          6.87313497e-01, 4.95400250e-01, 4.95400250e-01, 4.95400250e-01,
          5.90065233e-02, 5.37122115e-02, 6.92890882e-02, 4.03325865e-03,
          4.67174761e-02, 4.95400250e-01, 6.88412547e-01, 1.95405141e-01,
          3.54048349e-02, 0., 4.66170277e-05, 0., 2.65181419e-02,
          7.18627200e-02, 6.88412547e-01, 6.92439020e-01, 1.67250857e-01,
          7.21468702e-02, 0., 0., 1.20485888e-03, 3.03596091e-02,
          6.54287171e-03, 6.92439020e-01, 6.94442034e-01, 2.97448952e-02,
          8.16046447e-02, 0., 0., 1.07596144e-02, 1.43713430e-01,
          1.59612168e-02, 6.94442034e-01, 6.85641706e-01, 1.56239755e-02,
          1.42086342e-01, 1.69046178e-01, 5.02252094e-02, 6.10328000e-03,
          3.52072939e-02, 1.17357653e-02, 6.85641706e-01, 5.57397485e-01,
          5.06866515e-01, 4.23540995e-02, 3.87321301e-02, 1.96508750e-01,
          2.40226224e-01, 3.17605473e-02, 1.24536060e-01, 5.57397485e-01 ]
      - [ 3.76889594e-02, 5.96968345e-02, 4.08638358e-01, 5.21084905e-01,
          5.21084905e-01, 5.21084905e-01, 8.92764106e-02, 1.08521944e-02,
          1.22537958e-02, 3.47533464e-01, 3.47533464e-01, 3.47533464e-01,
          3.47533464e-01, 3.47533464e-01, 1.74045339e-01, 3.47533464e-01,
          3.47533464e-01, 3.47533464e-01, 3.71667743e-01, 3.71667743e-01,
          3.71667743e-01, 3.71667743e-01, 2.77966738e-01, 5.24396002e-02,
          3.71667743e-01, 2.95719206e-01, 3.71667743e-01, 3.88866186e-01,
          3.51765662e-01, 3.17133844e-01, 3.19240212e-01, 3.88866186e-01,
          3.43902051e-01, 2.43529990e-01, 1.96625486e-01, 3.88866186e-01,
          3.51272702e-01, 3.51272702e-01, 3.51272702e-01, 9.66967195e-02,
          3.51272702e-01, 3.51272702e-01, 3.51272702e-01, 3.51272702e-01,
          3.51272702e-01, 1.02828462e-02, 3.50549579e-01, 4.17737156e-01,
          4.17737156e-01, 4.17737156e-01, 4.17737156e-01, 4.17737156e-01,
          6.36343975e-05, 1.77414361e-02, 2.07403794e-01, 1.66864276e-01,
          5.36106884e-01, 5.48516691e-01, 5.48516691e-01, 1.12230413e-01,
          2.12901421e-02, 8.44957307e-02, 1.19675480e-01, 2.15491891e-01,
          1.11078843e-01, 6.99311048e-02, 6.53011382e-01, 6.61854208e-01,
          1.87293291e-01, 1.42958928e-02, 9.05765891e-02, 1.47528321e-01,
          4.08507794e-01, 2.51874812e-02, 2.17446196e-03, 1.29790753e-01,
          7.07935393e-01, 8.09391215e-03, 4.33450425e-03, 1.08668497e-02,
          5.54251671e-01, 3.87296408e-01, 3.53934132e-02, 8.46063569e-02,
          8.15713182e-02, 6.32106006e-01, 1.17136136e-01, 1.14457436e-01,
          5.18494807e-02, 6.32106006e-01, 4.14948076e-01, 1.83828846e-01,
          4.14948076e-01, 4.14948076e-01, 1.88444063e-01, 7.51877055e-02,
          3.00078958e-01, 3.76991302e-01, 4.14948076e-01, 4.20746297e-01,
          6.81836298e-03, 7.67174438e-02, 5.13846755e-01, 5.13846755e-01,
          1.40688226e-01, 0., 0., 5.13846755e-01, 4.52031463e-01,
          3.46379098e-03, 0., 3.41129512e-01, 5.94522774e-01,
          2.44971916e-01, 2.27195836e-04, 2.42009223e-03, 5.09779632e-01,
          3.51992249e-01, 4.78110131e-04, 0., 1.68714479e-01,
          7.23617077e-01, 8.65094829e-03, 3.75836862e-06, 9.62547492e-05,
          5.62776208e-01, 1.01936013e-01, 3.22050720e-01, 4.22886312e-01,
          5.60598135e-01, 5.60598135e-01, 2.74004098e-02, 3.00030988e-02,
          2.40895757e-03, 2.66953737e-01, 6.93987966e-01, 2.16454715e-02,
          5.11853583e-02, 4.27790098e-02, 1.25174196e-02, 7.46440084e-04,
          6.52290555e-03, 1.57210946e-01, 6.93987966e-01, 6.65852189e-01,
          1.25764031e-03, 7.86312297e-03, 3.52031589e-02, 3.21283013e-01,
          4.57731858e-02, 0., 3.69958812e-03, 6.65852189e-01,
          6.10129535e-01, 0., 0., 1.09107783e-02, 4.92434919e-01,
          8.23443756e-02, 0., 0., 6.10129535e-01, 5.75293601e-01, 0., 0.,
          3.68974507e-02, 5.75293601e-01, 2.42383522e-03, 0., 0.,
          5.75293601e-01, 4.36744988e-01, 4.36744988e-01, 4.18441087e-01,
          3.84887010e-01, 3.16413999e-01, 3.39719772e-05, 6.70513185e-03,
          2.23504403e-03, 4.36744988e-01, 5.42521358e-01, 5.27389906e-03,
          2.53841989e-02, 3.00738603e-01, 5.42521358e-01, 7.50184059e-02,
          8.19702819e-02, 9.01732519e-02, 5.42521358e-01, 5.99217355e-01,
          3.50592169e-03, 1.05177648e-02, 5.86389638e-02, 5.19245684e-01,
          2.71095764e-02, 3.32249030e-02, 2.96275523e-02, 5.99217355e-01,
          6.36609077e-01, 7.36890407e-03, 2.66836993e-02, 8.12830403e-02,
          4.15912360e-01, 5.22345342e-02, 3.91572574e-03, 1.30524172e-03,
          6.36609077e-01, 6.88082397e-01, 1.20225372e-02, 7.61068165e-02,
          9.03685391e-02, 1.18418440e-01, 1.21958748e-01, 5.57783693e-02,
          1.02432733e-02, 6.88082397e-01, 6.30243540e-01, 3.09780359e-01,
          7.10048452e-02, 1.00938611e-01, 3.57756652e-02, 1.78606555e-01,
          2.31401429e-01, 3.70484963e-02, 6.30243540e-01 ]
      - [ 3.57201020e-03, 3.53882276e-02, 3.37092370e-01, 5.92735648e-01,
          5.92735648e-01, 4.19505030e-01, 2.28548236e-02, 1.38788263e-03,
          2.31968937e-03, 5.54317236e-02, 4.84488547e-01, 4.84488547e-01,
          4.84488547e-01, 4.84488547e-01, 4.81148530e-03, 2.19622940e-01,
          7.01025650e-02, 0., 3.98699760e-01, 3.98699760e-01,
          3.98699760e-01, 3.98699760e-01, 3.98699760e-01, 3.23074579e-01,
          2.91883424e-02, 1.00318680e-03, 3.09805602e-01, 3.81382525e-01,
          4.17103678e-01, 3.20746034e-01, 2.26887807e-01, 3.36455111e-03,
          1.05517283e-02, 4.17103678e-01, 4.17103678e-01, 4.17103678e-01,
          5.07755458e-01, 3.29543084e-01, 2.68931538e-01, 2.85248552e-02,
          8.58908147e-03, 3.07795824e-03, 4.09314007e-01, 3.60471964e-01,
          5.07755458e-01, 6.39843270e-02, 9.35695097e-02, 4.74038035e-01,
          4.74038035e-01, 4.74038035e-01, 4.74038035e-01, 2.86197960e-01,
          4.01241258e-02, 6.97342958e-03, 1.94269014e-04, 8.85793492e-02,
          5.51088393e-01, 5.54072678e-01, 5.74839294e-01, 2.12787405e-01,
          0., 0., 0., 2.85214512e-03, 1.20088253e-02, 1.95267200e-02,
          3.70282292e-01, 9.23604608e-01, 9.78308916e-03, 3.29391944e-04,
          0., 1.19131466e-03, 2.59870943e-02, 4.00074199e-02,
          3.02794036e-02, 3.01893562e-01, 9.42973316e-01, 7.16696382e-02,
          2.32595392e-02, 1.85589511e-02, 3.22371311e-02, 3.25916797e-01,
          5.35429409e-03, 2.13006496e-01, 6.26205862e-01, 6.26205862e-01,
          1.80229634e-01, 1.06785879e-01, 3.55147906e-02, 1.12742625e-01,
          5.34693182e-01, 1.26085088e-01, 5.06743371e-01, 2.13885114e-01,
          1.51001945e-01, 5.76599389e-02, 2.00710103e-01, 1.94994316e-01,
          5.34693182e-01, 5.39093792e-01, 1.95975974e-03, 1.00314543e-01,
          2.52852231e-01, 5.39093792e-01, 2.20791399e-01, 0., 0.,
          5.39093792e-01, 5.66187561e-01, 0., 0., 1.80656925e-01,
          5.66187561e-01, 2.09069578e-03, 0., 0., 5.66187561e-01,
          5.67896068e-01, 0., 0., 1.62629753e-01, 5.67896068e-01,
          1.80921108e-02, 4.68929484e-03, 3.68218031e-03, 5.67896068e-01,
          4.05929148e-01, 4.05929148e-01, 4.05929148e-01, 4.05929148e-01,
          4.05929148e-01, 6.50972426e-02, 4.33387384e-02, 3.40309255e-02,
          4.05929148e-01, 6.94762826e-01, 4.16331068e-02, 6.24758191e-02,
          1.29201218e-01, 1.36290174e-02, 3.07856482e-02, 1.25556262e-02,
          6.36634156e-02, 6.94762826e-01, 7.03216553e-01, 4.00081481e-04,
          3.06709968e-02, 4.30584736e-02, 2.56908927e-02, 1.67642031e-02,
          1.47330118e-02, 0., 7.03216553e-01, 7.04186857e-01,
          4.93181928e-04, 2.35873857e-03, 2.80670021e-02, 2.04418190e-02,
          9.45318083e-04, 2.63385940e-04, 0., 7.04186857e-01,
          7.03065038e-01, 4.74185124e-02, 1.32530602e-02, 5.27366297e-03,
          4.29071561e-02, 9.03679617e-03, 1.93968846e-03, 1.52310368e-03,
          7.03065038e-01, 5.58551252e-01, 5.03084242e-01, 3.36726874e-01,
          1.62456520e-02, 2.87119411e-02, 3.10424436e-02, 4.13392372e-02,
          1.49522461e-02, 5.58551252e-01, 3.81875515e-01, 3.81875515e-01,
          3.81875515e-01, 3.81875515e-01, 1.13499321e-01, 1.83549568e-01,
          2.73201168e-01, 3.81875515e-01, 3.81875515e-01, 4.63000625e-01,
          7.76963010e-02, 4.63000625e-01, 4.63000625e-01, 3.23499560e-01,
          1.13617979e-01, 1.04786851e-01, 5.76104820e-02, 4.63000625e-01,
          5.32548428e-01, 5.33985458e-02, 1.86357453e-01, 4.34991658e-01,
          4.46780950e-01, 8.75225943e-03, 2.99004354e-02, 9.15395562e-03,
          5.32548428e-01, 4.66414928e-01, 4.66414928e-01, 4.66414928e-01,
          1.19232655e-01, 3.02515954e-01, 6.17080741e-02, 5.68058304e-02,
          1.11366890e-01, 4.66414928e-01, 4.48805243e-01, 3.99738997e-01,
          4.48805243e-01, 2.95352787e-02, 1.33059800e-01, 1.99097916e-01,
          2.90290624e-01, 2.98264146e-01, 4.48805243e-01 ]
      - [ 4.02428450e-05, 3.66830200e-01, 4.15016472e-01, 4.15016472e-01,
          4.15016472e-01, 4.15016472e-01, 4.15016472e-01, 9.81652271e-03,
          4.02428450e-05, 1.60397351e-01, 3.99364769e-01, 3.99364769e-01,
          3.99364769e-01, 3.90490204e-01, 3.99364769e-01, 1.28213853e-01,
          6.24536909e-02, 3.99364769e-01, 3.93668532e-01, 2.87197828e-01,
          3.93668532e-01, 3.61614525e-01, 3.93668532e-01, 3.93668532e-01,
          8.32977146e-02, 3.17249373e-02, 3.93668532e-01, 3.68500084e-01,
          3.68500084e-01, 3.68500084e-01, 2.08493471e-01, 3.68500084e-01,
          4.79864962e-02, 3.68500084e-01, 3.68500084e-01, 3.68500084e-01,
          3.61863583e-01, 3.61863583e-01, 2.64734924e-01, 9.84046385e-02,
          3.61863583e-01, 3.61863583e-01, 3.61863583e-01, 3.61863583e-01,
          3.61863583e-01, 0., 4.46061820e-01, 4.46061820e-01,
          3.86730939e-01, 2.23826095e-01, 4.46061820e-01, 4.46061820e-01,
          1.00481312e-03, 0., 8.14612657e-02, 3.02221477e-01,
          3.52026045e-01, 4.54604119e-01, 6.99158430e-01, 1.83699355e-01,
          3.13508417e-03, 0., 2.04650387e-01, 1.89588770e-01,
          6.68618381e-02, 8.89515430e-02, 1.05434753e-01, 9.03604150e-01,
          2.16197386e-01, 4.82494914e-04, 0., 2.61341035e-01,
          6.26002997e-02, 7.59964138e-02, 6.28987327e-02, 1.06924862e-01,
          9.59469736e-01, 2.04693466e-01, 3.95902880e-02, 3.09184566e-02,
          1.84340794e-02, 2.34831553e-02, 7.47442096e-02, 2.03846350e-01,
          6.42328680e-01, 6.42328680e-01, 2.54066527e-01, 1.37678698e-01,
          1.26387954e-01, 1.45753399e-01, 3.57270092e-01, 3.57270092e-01,
          3.57270092e-01, 3.57270092e-01, 2.44955063e-01, 2.11840078e-01,
          3.57270092e-01, 3.54541630e-01, 3.57270092e-01, 5.54613054e-01,
          1.44592589e-02, 1.02228843e-01, 1.65724352e-01, 5.54613054e-01,
          1.83162272e-01, 1.37191464e-03, 0., 5.54613054e-01,
          5.49747884e-01, 0., 0., 2.94349454e-02, 5.49747884e-01,
          2.93692917e-01, 2.68308409e-02, 0., 5.49747884e-01,
          5.56737125e-01, 2.88907601e-03, 2.71224766e-04, 2.27968693e-02,
          5.56737125e-01, 2.53068358e-01, 2.15314853e-04, 0.,
          5.56737125e-01, 4.29554373e-01, 4.29554373e-01, 4.29554373e-01,
          4.29554373e-01, 4.29554373e-01, 1.22285984e-01, 0.,
          1.04389153e-02, 2.40959242e-01, 6.71812057e-01, 1.59086064e-01,
          9.16269869e-02, 1.84315685e-02, 1.78455580e-02, 0.,
          9.20521840e-02, 2.18620107e-01, 6.71812057e-01, 7.00233698e-01,
          2.14072429e-02, 1.76812652e-02, 9.67431534e-03, 1.04540721e-01,
          2.27059312e-02, 5.16059226e-04, 6.80898549e-03, 7.00233698e-01,
          7.02500165e-01, 0., 0., 0., 1.92065239e-02, 7.41337389e-02,
          1.04555395e-02, 5.41314308e-04, 7.02500165e-01, 7.01978087e-01,
          2.12002378e-02, 1.04797742e-04, 0., 5.75418510e-02,
          6.07104264e-02, 8.31948564e-05, 0., 7.01978087e-01,
          5.60916245e-01, 4.91722018e-01, 3.50629389e-01, 2.96375109e-03,
          4.20771400e-03, 1.53961917e-02, 3.24388943e-03, 1.17928879e-02,
          5.60916245e-01, 6.71008289e-01, 2.85249084e-01, 9.93876085e-02,
          0., 0., 0., 1.03280600e-02, 3.80197242e-02, 6.71008289e-01,
          6.67518079e-01, 2.01098382e-01, 4.77926135e-02, 0., 0., 0.,
          2.00531930e-01, 1.38699397e-01, 6.67518079e-01, 6.66416466e-01,
          3.22658330e-01, 2.07136776e-02, 0., 0., 0., 2.17244308e-02,
          1.07624326e-02, 6.66416466e-01, 6.91321492e-01, 1.60374478e-01,
          2.97088381e-02, 1.35986805e-02, 5.33117577e-02, 3.95792685e-02,
          6.49513677e-02, 4.28148434e-02, 6.91321492e-01, 5.14743745e-01,
          2.10722029e-01, 2.49318302e-01, 2.14778353e-02, 4.26489949e-01,
          3.86186689e-01, 1.60328642e-01, 3.42516899e-02, 5.14743745e-01 ]
      - [ 4.27177968e-03, 1.88200161e-01, 3.61931175e-01, 4.69300121e-01,
          4.69300121e-01, 4.69300121e-01, 4.09686714e-01, 1.75345130e-02,
          1.52047421e-03, 2.91029196e-02, 4.89168882e-01, 4.89168882e-01,
          4.89168882e-01, 4.89168882e-01, 1.53712884e-01, 8.29647332e-02,
          8.12629014e-02, 2.85492325e-03, 4.60069239e-01, 2.08052680e-01,
          1.83440343e-01, 8.18390101e-02, 4.60069239e-01, 2.22075492e-01,
          1.25691876e-01, 4.60069239e-01, 4.60069239e-01, 4.34418648e-01,
          5.92228398e-02, 5.22759110e-02, 1.83061242e-01, 4.34418648e-01,
          3.02688867e-01, 4.05481994e-01, 3.65669519e-01, 4.34418648e-01,
          4.07174170e-01, 2.76529223e-01, 4.07174170e-01, 4.07174170e-01,
          4.07174170e-01, 1.60274819e-01, 2.33938321e-01, 1.00472905e-01,
          4.07174170e-01, 8.15896667e-04, 4.09242749e-01, 4.27125454e-01,
          4.27125454e-01, 3.11593026e-01, 4.27125454e-01, 4.27125454e-01,
          3.59389149e-02, 1.12496940e-02, 2.72255810e-03, 4.05897528e-01,
          4.20679927e-01, 5.40179133e-01, 5.40179133e-01, 2.63223737e-01,
          0., 0., 1.80852425e-04, 2.63352767e-02, 1.03200721e-02,
          6.48692204e-03, 1.47582572e-02, 9.33667481e-01, 3.42841744e-01,
          0., 8.86026130e-04, 1.86758041e-02, 2.92746909e-02, 0., 0.,
          9.06652436e-02, 9.80317712e-01, 1.39371350e-01, 0.,
          5.50133642e-03, 2.58089639e-02, 3.35697383e-02, 1.36033267e-01,
          4.78428930e-01, 6.00022435e-01, 6.00022435e-01, 1.41752079e-01,
          4.88640442e-02, 1.57157350e-02, 5.19661419e-02, 4.05981302e-01,
          2.61043757e-01, 4.05981302e-01, 2.95260936e-01, 2.41947904e-01,
          2.14374989e-01, 4.05981302e-01, 2.77205229e-01, 4.05981302e-01,
          5.30218959e-01, 9.16343704e-02, 9.79181081e-02, 1.55142516e-01,
          5.30218959e-01, 3.30536604e-01, 0., 0., 5.30218959e-01,
          5.66356122e-01, 0., 0., 1.16305170e-03, 5.66356122e-01,
          1.79068029e-01, 0., 0., 5.66356122e-01, 5.74138343e-01, 0., 0.,
          4.97135334e-02, 5.74138343e-01, 5.37682101e-02, 0., 0.,
          5.74138343e-01, 4.07322168e-01, 4.07322168e-01, 4.07322168e-01,
          4.07322168e-01, 4.07322168e-01, 1.91637184e-02, 0.,
          9.76983178e-03, 4.07322168e-01, 6.78435028e-01, 3.10244467e-02,
          2.61841081e-02, 1.27615005e-01, 1.93391979e-01, 4.81704110e-03,
          4.34604548e-02, 1.24229036e-01, 6.78435028e-01, 6.90612137e-01,
          3.18919793e-02, 1.56975184e-02, 6.81371614e-03, 1.30899608e-01,
          1.43567681e-01, 1.26241846e-02, 0., 6.90612137e-01,
          7.00606763e-01, 0., 0., 1.47353318e-02, 1.05187081e-01,
          5.00536105e-03, 0., 0., 7.00606763e-01, 6.90288961e-01, 0., 0.,
          1.44901779e-02, 1.95983678e-01, 3.86247747e-02, 0., 0.,
          6.90288961e-01, 5.35385728e-01, 5.31991661e-01, 3.20946127e-01,
          1.24851212e-01, 5.75096831e-02, 2.73027550e-02, 0.,
          1.25361472e-01, 5.35385728e-01, 4.29644823e-01, 4.80214469e-02,
          2.33170480e-01, 4.29644823e-01, 4.29644823e-01, 2.20648609e-02,
          4.29644823e-01, 1.24793544e-01, 4.29644823e-01, 4.34501946e-01,
          4.07900102e-02, 1.27558827e-01, 4.34501946e-01, 4.34501946e-01,
          4.34501946e-01, 1.80939794e-01, 3.20287980e-02, 4.34501946e-01,
          4.88340199e-01, 2.49175485e-02, 7.47526363e-02, 1.64181769e-01,
          4.88340199e-01, 4.30888802e-01, 2.34954923e-01, 7.52362981e-02,
          4.88340199e-01, 4.45571333e-01, 3.27759571e-02, 4.70469072e-02,
          4.39401239e-01, 4.45571333e-01, 4.45571333e-01, 6.74349591e-02,
          2.24783197e-02, 4.45571333e-01, 3.76967847e-01, 3.16864341e-01,
          3.76967847e-01, 3.76967847e-01, 3.76967847e-01, 1.73016891e-01,
          1.15184739e-01, 3.76967847e-01, 3.76967847e-01 ]
      - [ 1.51023164e-03, 1.65641919e-01, 4.43624645e-01, 4.43624645e-01,
          4.43624645e-01, 4.43624645e-01, 4.25165653e-01, 1.23168519e-02,
          4.53006709e-04, 3.60053420e-01, 3.99919927e-01, 3.99919927e-01,
          3.99919927e-01, 3.53513986e-01, 1.08237222e-01, 2.85893679e-01,
          9.05533433e-02, 3.99919927e-01, 4.61749047e-01, 2.77875781e-01,
          1.64931238e-01, 3.12316626e-01, 4.61749047e-01, 3.25020701e-01,
          1.36293828e-01, 1.71982095e-01, 4.61749047e-01, 4.33937013e-02,
          9.80027318e-02, 1.29487976e-01, 2.10191712e-01, 6.47294402e-01,
          5.73923886e-01, 2.91594177e-01, 2.51536071e-01, 1.56288877e-01,
          4.30305712e-02, 1.11026444e-01, 4.67877060e-01, 4.67877060e-01,
          4.67877060e-01, 4.67877060e-01, 3.24420810e-01, 1.59949251e-02,
          2.79592094e-03, 1.19325006e-03, 1.31593525e-01, 4.42326456e-01,
          4.42326456e-01, 4.42326456e-01, 4.42326456e-01, 4.42326456e-01,
          0., 1.78916904e-04, 1.99349504e-02, 8.66102353e-02,
          2.39938393e-01, 2.29239300e-01, 6.61561072e-01, 6.61561072e-01,
          0., 0., 7.03906175e-03, 1.50629189e-02, 1.35636209e-02,
          2.89263041e-03, 1.04161151e-01, 7.18486190e-01, 6.81203902e-01,
          7.69740855e-03, 7.15543330e-03, 3.44644748e-02, 7.90513679e-02,
          1.27049005e-02, 2.60632169e-02, 9.14440751e-02, 6.90883398e-01,
          6.90883398e-01, 1.72825456e-02, 2.02994402e-02, 1.49334490e-01,
          2.19639480e-01, 4.35019493e-01, 4.35019493e-01, 4.35019493e-01,
          4.35019493e-01, 4.34375882e-01, 2.32410599e-02, 9.00857849e-04,
          3.49541530e-02, 3.61476153e-01, 2.02780589e-01, 3.61476153e-01,
          3.61476153e-01, 3.61476153e-01, 2.01528236e-01, 3.61476153e-01,
          3.61476153e-01, 3.61476153e-01, 4.97502536e-01, 2.38070395e-02,
          2.05381438e-02, 6.20438047e-02, 4.97502536e-01, 4.97502536e-01,
          1.19252559e-02, 3.97508545e-03, 4.97502536e-01, 5.60546577e-01,
          4.00420919e-04, 2.35151267e-03, 3.40537727e-02, 5.60546577e-01,
          2.24943429e-01, 0., 0., 5.60546577e-01, 5.66778779e-01,
          1.60698164e-02, 2.70757694e-02, 8.07173848e-02, 5.66778779e-01,
          1.51966274e-01, 0., 5.04875369e-03, 5.66778779e-01,
          4.74940926e-01, 4.74940926e-01, 4.54244167e-01, 2.62471795e-01,
          2.00866267e-01, 3.81092094e-02, 0., 3.89973484e-02,
          4.74940926e-01, 6.73635364e-01, 1.59359068e-01, 2.74337362e-02,
          1.89545751e-02, 1.62908237e-03, 0., 5.22298254e-02,
          2.37629935e-01, 6.73635364e-01, 6.98383451e-01, 1.60606951e-02,
          1.95290539e-02, 6.99758828e-02, 9.61687192e-02, 5.14793843e-02,
          1.05805090e-02, 1.77929271e-03, 6.98383451e-01, 7.03550637e-01,
          2.25299387e-04, 9.50925925e-04, 6.80337753e-03, 5.63451368e-03,
          5.08767292e-02, 1.84900314e-02, 8.12425511e-04, 7.03550637e-01,
          6.88141227e-01, 2.96766963e-03, 1.23104162e-03, 1.41863320e-02,
          1.69680774e-01, 1.25884086e-01, 3.16562317e-02, 1.42053794e-02,
          6.88141227e-01, 5.97471535e-01, 1.78423002e-01, 2.82257888e-02,
          3.15646172e-01, 1.67666137e-01, 1.10963039e-01, 1.39792979e-01,
          2.96409994e-01, 5.97471535e-01, 4.84565884e-01, 4.84565884e-01,
          4.15803760e-01, 5.27167022e-02, 1.36880241e-02, 2.72436067e-03,
          1.78201780e-01, 2.88315058e-01, 4.84565884e-01, 4.14030612e-01,
          5.93461767e-02, 1.91351578e-01, 4.14030612e-01, 4.14030612e-01,
          4.14030612e-01, 2.77317584e-01, 1.47359371e-01, 4.14030612e-01,
          3.81539196e-01, 1.16241612e-02, 3.81539196e-01, 3.81539196e-01,
          3.41209054e-01, 3.81539196e-01, 3.81539196e-01, 7.87189752e-02,
          3.81539196e-01, 1.10734284e-01, 9.67050865e-02, 2.18978316e-01,
          8.03733170e-02, 5.21414936e-01, 5.21414936e-01, 5.21414936e-01,
          2.92608678e-01, 1.32388890e-01, 3.04253735e-02, 3.76948923e-01,
          3.76948923e-01, 3.05712402e-01, 3.42321098e-01, 3.76948923e-01,
          3.76948923e-01, 3.76948923e-01, 2.72419184e-01 ]
      - [ 1.45626534e-03, 4.36460257e-01, 4.36460257e-01, 4.28014636e-01,
          4.36460257e-01, 4.36460257e-01, 2.24505484e-01, 5.29618585e-04,
          6.94586197e-03, 4.02594218e-03, 4.54613060e-01, 4.54613060e-01,
          4.54613060e-01, 4.54613060e-01, 3.50530952e-01, 5.99381700e-02,
          1.94305331e-01, 6.73162192e-02, 2.14719415e-01, 1.45333093e-02,
          4.35999259e-02, 1.51800856e-01, 5.79418302e-01, 5.67153454e-01,
          3.76798436e-02, 1.63514186e-02, 5.13691068e-01, 4.12673026e-01,
          9.56557319e-03, 1.13953082e-02, 4.53109257e-02, 5.86493134e-01,
          3.62875253e-01, 4.18231636e-02, 1.39410570e-02, 5.86493134e-01,
          3.92846197e-01, 2.64977157e-01, 3.92846197e-01, 2.12756261e-01,
          3.92846197e-01, 3.92846197e-01, 3.92846197e-01, 1.95166275e-01,
          2.66208261e-01, 2.08090097e-02, 4.14952427e-01, 4.14952427e-01,
          3.57874990e-01, 4.11819905e-01, 4.14952427e-01, 4.14952427e-01,
          9.49116349e-02, 1.12493383e-03, 4.04682651e-04, 1.49775475e-01,
          2.99193144e-01, 2.02868357e-01, 6.48181617e-01, 6.48181617e-01,
          0., 9.96694248e-03, 6.76654186e-03, 1.88620109e-02, 0., 0.,
          5.52122407e-02, 9.45452690e-01, 3.02070022e-01, 0.,
          1.89442391e-04, 4.51251566e-02, 3.55789289e-02, 4.97218338e-04,
          0., 5.24134263e-02, 9.59237218e-01, 2.50131428e-01, 0., 0.,
          6.09542802e-02, 4.25998867e-02, 1.78733528e-01, 5.52470624e-01,
          5.52470624e-01, 5.52470624e-01, 1.77695602e-01, 1.12625480e-01,
          1.45785986e-02, 2.40481421e-02, 3.74934644e-01, 1.68258116e-01,
          3.74934644e-01, 3.74934644e-01, 3.51146489e-01, 3.44035514e-02,
          3.74934644e-01, 3.74934644e-01, 3.74934644e-01, 5.09831548e-01,
          3.21866898e-03, 6.06970415e-02, 9.56616104e-02, 5.09831548e-01,
          4.49753284e-01, 0., 0., 5.09831548e-01, 5.59103251e-01, 0., 0.,
          0., 5.59103251e-01, 2.37964794e-01, 0., 0., 5.59103251e-01,
          5.66299081e-01, 8.10955465e-03, 0., 2.73301098e-02,
          5.66299081e-01, 1.77336961e-01, 0., 0., 5.66299081e-01,
          4.07348454e-01, 4.07348454e-01, 4.07348454e-01, 4.07348454e-01,
          4.07348454e-01, 1.82768647e-02, 0., 0., 4.07348454e-01,
          6.94055676e-01, 1.29725998e-02, 2.45457590e-02, 5.11544850e-03,
          3.74495448e-03, 0., 1.03918128e-01, 1.34294793e-01,
          6.94055676e-01, 7.04485357e-01, 2.35285354e-03, 8.92800558e-03,
          6.86874846e-03, 0., 0., 0., 1.53593142e-02, 7.04485357e-01,
          7.04553485e-01, 1.32476529e-02, 0., 0., 0., 0., 4.20771394e-04,
          1.40257122e-04, 7.04553485e-01, 7.02580154e-01, 2.79699755e-03,
          0., 0., 1.20293524e-03, 5.70272841e-02, 4.87158932e-02,
          1.06792543e-02, 7.02580154e-01, 5.28383851e-01, 5.28383851e-01,
          3.59604269e-01, 2.50702165e-02, 5.87442257e-02, 8.51502344e-02,
          4.96539511e-02, 1.18507184e-01, 5.28383851e-01, 5.59476733e-01,
          3.90370823e-02, 2.87639648e-02, 2.00079769e-01, 5.59476733e-01,
          1.04442112e-01, 3.00451834e-02, 3.43003087e-02, 5.59476733e-01,
          5.37931800e-01, 2.16865689e-02, 3.93332541e-02, 1.35801360e-01,
          5.37931800e-01, 3.13434243e-01, 3.39822806e-02, 8.16148147e-02,
          5.37931800e-01, 4.60508198e-01, 1.64797604e-01, 3.17599744e-01,
          4.60508198e-01, 4.60508198e-01, 7.88671151e-02, 9.80276167e-02,
          5.71985431e-02, 4.60508198e-01, 4.15991843e-01, 3.69779915e-02,
          1.78469673e-01, 2.29232639e-01, 2.11735427e-01, 4.15991843e-01,
          4.15991843e-01, 4.15991843e-01, 4.15991843e-01, 3.89439464e-01,
          2.21368372e-01, 3.89439464e-01, 4.04484533e-02, 3.28546762e-01,
          3.89439464e-01, 3.89439464e-01, 2.81444371e-01, 3.89439464e-01 ]
      - [ 8.94955592e-05, 1.71663351e-02, 3.27658981e-01, 4.32865053e-01,
          5.75365245e-01, 5.75365245e-01, 1.92685723e-01, 2.70092557e-03,
          1.44545850e-03, 1.47375569e-01, 4.49107230e-01, 4.49107230e-01,
          4.49107230e-01, 4.49107230e-01, 2.89695919e-01, 1.06441356e-01,
          2.26195343e-02, 2.66908377e-01, 2.48179823e-01, 1.82654336e-02,
          4.38687861e-01, 3.77737433e-01, 4.38687861e-01, 4.38687861e-01,
          1.40961051e-01, 3.67054529e-02, 4.38687861e-01, 0.,
          9.37495828e-02, 3.55474621e-01, 4.83306646e-01, 4.83306646e-01,
          4.83306646e-01, 3.74091119e-01, 1.22795500e-01, 6.51362613e-02,
          4.92123738e-02, 4.54872884e-02, 1.18001057e-02, 9.30983573e-02,
          3.19083989e-01, 4.99148935e-01, 4.99148935e-01, 4.99148935e-01,
          3.63941759e-01, 1.48749864e-03, 3.69911455e-03, 4.46209013e-01,
          4.46209013e-01, 4.46209013e-01, 4.46209013e-01, 4.46209013e-01,
          3.53232725e-03, 1.48749864e-03, 1.26600722e-02, 3.96967642e-02,
          5.06857693e-01, 6.04297400e-01, 6.04297400e-01, 6.67001605e-02,
          0., 0., 2.29283553e-02, 1.34120556e-02, 3.90018358e-05,
          1.46920339e-03, 7.33420178e-02, 9.26567733e-01, 3.54164332e-01,
          1.06395700e-03, 0., 3.51172462e-02, 0., 3.90846562e-03,
          1.48167135e-02, 2.51597494e-01, 9.31878507e-01, 2.42412388e-01,
          1.82106323e-05, 4.48786624e-04, 2.28475197e-03, 9.27809393e-04,
          4.06916859e-03, 1.69340387e-01, 5.31924427e-01, 5.31924427e-01,
          5.31924427e-01, 3.33952188e-01, 7.18537569e-02, 2.18307097e-02,
          3.86873096e-01, 2.97065854e-01, 3.18327338e-01, 3.57258946e-01,
          1.18606634e-01, 2.57235050e-01, 3.86873096e-01, 3.86873096e-01,
          3.86873096e-01, 5.21239460e-01, 1.44398525e-01, 7.73614272e-02,
          3.66524190e-01, 5.21239460e-01, 1.36186525e-01, 0., 0.,
          5.21239460e-01, 5.38969398e-01, 0., 0., 4.16007638e-02,
          5.89669883e-01, 8.04509893e-02, 0., 0., 5.89669883e-01,
          5.26828587e-01, 0., 5.98359853e-04, 1.57950878e-01,
          5.59283018e-01, 2.57425874e-01, 7.39316037e-03, 0.,
          5.59283018e-01, 4.29601490e-01, 4.29601490e-01, 4.29601490e-01,
          4.29601490e-01, 4.29601490e-01, 2.22868085e-01, 1.89909190e-02,
          1.77787468e-02, 1.50248632e-01, 6.50003612e-01, 7.91172609e-02,
          3.57887032e-03, 4.19808639e-04, 1.54495717e-03, 0.,
          7.12122396e-02, 3.70344549e-01, 6.50003612e-01, 7.03892708e-01,
          3.98255885e-02, 4.05086204e-03, 0., 1.10853966e-02,
          1.78377498e-02, 0., 1.24604368e-04, 7.03892708e-01,
          7.03154981e-01, 4.10375142e-05, 0., 0., 6.37718290e-02,
          7.76510499e-03, 0., 0., 7.03154981e-01, 6.98130965e-01, 0.,
          1.64029087e-04, 1.96698736e-02, 7.07134753e-02, 3.81845236e-02,
          1.96421854e-02, 1.05005011e-01, 6.98130965e-01, 5.29460013e-01,
          5.29460013e-01, 2.58388817e-01, 3.50599289e-02, 3.30847339e-03,
          3.96594144e-02, 2.22069845e-01, 1.86643884e-01, 5.29460013e-01,
          6.53397024e-01, 2.01401487e-02, 6.42452613e-02, 7.12505579e-02,
          1.98221624e-01, 3.66879143e-02, 2.75878638e-01, 1.15173005e-01,
          6.53397024e-01, 5.58647811e-01, 9.88739431e-02, 4.07755256e-01,
          1.41325653e-01, 3.38468291e-02, 7.37311877e-03, 2.96856761e-01,
          2.91392297e-01, 5.58647811e-01, 6.06693685e-01, 1.24427779e-02,
          8.14045519e-02, 7.81652555e-02, 3.04837734e-01, 3.80507857e-01,
          7.93340504e-02, 2.98396759e-02, 6.06693685e-01, 4.67492729e-01,
          1.17235060e-03, 3.51705193e-03, 1.03371345e-01, 4.21506822e-01,
          4.26415890e-01, 1.54783770e-01, 4.05062497e-01, 4.67492729e-01,
          4.38168347e-01, 2.69993348e-03, 8.09980091e-03, 5.41399010e-02,
          1.80724904e-01, 4.38168347e-01, 4.38168347e-01, 4.38168347e-01,
          4.38168347e-01 ]
      - [ 6.43505540e-04, 7.73398280e-02, 4.89396542e-01, 4.89396542e-01,
          4.89396542e-01, 4.89396542e-01, 1.76175594e-01, 7.48744607e-03,
          6.43505540e-04, 3.52743775e-01, 4.38667029e-01, 4.38667029e-01,
          4.38667029e-01, 4.38667029e-01, 3.06673110e-01, 7.09526613e-02,
          1.60844121e-02, 4.61915396e-02, 2.44937301e-01, 2.00030327e-01,
          1.43471181e-01, 2.44475946e-01, 6.15003884e-01, 6.15003884e-01,
          1.40316725e-01, 1.18010364e-01, 1.53055057e-01, 1.16775520e-01,
          1.53278857e-02, 2.89509036e-02, 5.91179803e-02, 7.37426817e-01,
          6.22451961e-01, 4.44705933e-02, 2.47608908e-02, 2.01492921e-01,
          1.25967294e-01, 1.58724740e-01, 3.16261470e-01, 5.56339443e-01,
          5.56339443e-01, 4.81954962e-01, 2.73152348e-02, 3.00595574e-02,
          2.01086011e-02, 0., 7.65273497e-02, 4.42804188e-01,
          4.42804188e-01, 4.42804188e-01, 4.42804188e-01, 4.42804188e-01,
          9.66579989e-02, 0., 1.20292623e-02, 4.80554774e-02,
          2.59769678e-01, 2.40320235e-01, 6.57928765e-01, 6.57928765e-01,
          1.09847635e-03, 0., 1.35234080e-03, 6.38862979e-03,
          8.13797954e-03, 4.40370245e-03, 3.73499021e-02, 7.04076946e-01,
          7.04076946e-01, 1.27805761e-04, 0., 1.30024820e-03,
          5.92812756e-03, 4.13700065e-04, 2.56167306e-03, 2.00068019e-02,
          7.04458177e-01, 7.04458177e-01, 0., 0., 1.73238723e-03,
          1.50149539e-01, 3.25019002e-01, 4.83928174e-01, 4.83928174e-01,
          4.83928174e-01, 4.04734194e-01, 0., 0., 2.48056203e-02,
          3.72941107e-01, 6.94102272e-02, 3.72941107e-01, 3.72941107e-01,
          3.72941107e-01, 1.33644432e-01, 3.72941107e-01, 3.72941107e-01,
          3.72941107e-01, 4.94158030e-01, 1.11623993e-03, 3.52111049e-02,
          1.26094192e-01, 4.94158030e-01, 4.94158030e-01, 0.,
          3.39869484e-02, 4.94158030e-01, 5.52092075e-01, 0., 0.,
          7.42486585e-03, 5.52092075e-01, 2.82835841e-01, 0.,
          4.29905904e-03, 5.52092075e-01, 5.54469287e-01, 0.,
          3.34599055e-03, 2.07335018e-02, 5.54469287e-01, 2.67794043e-01,
          0., 0., 5.54469287e-01, 4.91761744e-01, 4.91761744e-01,
          4.87676382e-01, 2.27391392e-01, 1.83996990e-01, 6.01065680e-02,
          0., 0., 4.29449022e-01, 6.04390204e-01, 1.56717151e-02, 0.,
          3.72805335e-02, 4.53024544e-02, 0., 9.17116255e-02,
          5.01289785e-01, 6.04390204e-01, 7.03091621e-01, 5.56800812e-02,
          0., 1.35496687e-02, 2.88721863e-02, 0., 0., 1.37213189e-02,
          7.03091621e-01, 7.04278171e-01, 1.88750692e-03, 0., 0.,
          2.43084021e-02, 1.87465493e-02, 2.28397921e-03, 1.70051178e-03,
          7.04278171e-01, 7.02555060e-01, 4.56337770e-03, 0.,
          1.05543085e-03, 1.07262656e-02, 2.40541138e-02, 7.11952746e-02,
          5.94319915e-03, 7.02555060e-01, 6.27813637e-01, 3.52275580e-01,
          8.88288245e-02, 2.26265043e-01, 6.81392625e-02, 6.05252944e-03,
          1.01222494e-03, 1.32539243e-01, 6.27813637e-01, 6.46688640e-01,
          9.83795524e-02, 1.25350565e-01, 5.62061183e-03, 2.50449121e-01,
          1.80144727e-01, 1.18768901e-01, 1.49751171e-01, 6.46688640e-01,
          5.31981051e-01, 3.33439201e-01, 7.54841268e-02, 7.29740113e-02,
          5.31981051e-01, 3.76440212e-02, 1.39148563e-01, 5.18808886e-02,
          5.31981051e-01, 4.90546674e-01, 6.31687418e-02, 1.60496354e-01,
          4.86636162e-02, 4.90546674e-01, 4.90546674e-01, 2.09360998e-02,
          7.32070301e-04, 4.90546674e-01, 4.14157778e-01, 4.14157778e-01,
          4.14157778e-01, 5.98108396e-02, 2.18436182e-01, 2.41882220e-01,
          4.14157778e-01, 1.68614298e-01, 4.14157778e-01, 3.57180417e-01,
          3.35369259e-01, 3.53827000e-01, 3.57180417e-01, 3.57180417e-01,
          2.16980368e-01, 3.57180417e-01, 3.57180417e-01, 2.71653473e-01 ]
      - [ 6.07907865e-03, 3.80669758e-02, 2.78606355e-01, 5.34149826e-01,
          5.34149826e-01, 5.34149826e-01, 2.42874280e-01, 8.20385106e-03,
          2.35515218e-02, 4.20280188e-01, 3.54766995e-01, 4.20280188e-01,
          4.20280188e-01, 3.66287470e-01, 1.87482625e-01, 1.02738880e-01,
          3.06057930e-01, 2.57862180e-01, 4.41686064e-01, 4.41686064e-01,
          4.41686064e-01, 2.07491830e-01, 1.72115505e-01, 4.56741489e-02,
          2.43265972e-01, 2.85132468e-01, 4.41686064e-01, 3.90423238e-01,
          3.90423238e-01, 3.90423238e-01, 3.90423238e-01, 3.90423238e-01,
          3.68721671e-02, 2.03672685e-02, 2.82388747e-01, 3.90423238e-01,
          4.18036938e-01, 4.18036938e-01, 4.18036938e-01, 2.41221413e-01,
          1.43010318e-02, 0., 2.52304047e-01, 4.18036938e-01,
          4.18036938e-01, 1.62754871e-03, 3.52842897e-01, 4.26296920e-01,
          3.74395281e-01, 4.26296920e-01, 4.26296920e-01, 4.26296920e-01,
          6.44210801e-02, 1.62754871e-03, 6.70822486e-02, 3.79935950e-01,
          5.26637971e-01, 5.26637971e-01, 5.26637971e-01, 9.69448835e-02,
          3.26896552e-04, 6.61453828e-02, 8.53157602e-03, 6.94747344e-02,
          4.61979695e-02, 4.17207070e-02, 6.29206151e-02, 8.63892078e-01,
          4.77414370e-01, 6.56303819e-05, 3.60303409e-02, 5.64521290e-02,
          3.25689763e-02, 3.03871688e-02, 8.09342787e-03, 5.39930344e-01,
          8.24152946e-01, 1.28430545e-01, 0., 7.07345596e-03,
          4.92794327e-02, 4.13103998e-02, 7.95507729e-02, 2.07896233e-01,
          6.75421417e-01, 6.75421417e-01, 3.70081365e-02, 1.21928146e-02,
          1.53876469e-01, 6.64609671e-02, 6.69350557e-04, 2.03885943e-01,
          4.80128855e-01, 4.65657502e-01, 4.15458173e-01, 1.45803422e-01,
          4.80128855e-01, 2.82424927e-01, 4.60677333e-02, 2.34317183e-02,
          8.94873962e-02, 2.69256473e-01, 5.39332092e-01, 7.57532060e-01,
          2.15978265e-01, 0., 7.04189180e-04, 1.35530159e-03,
          4.69756573e-01, 3.13713402e-02, 7.68778287e-03, 4.95092310e-02,
          8.32122147e-01, 2.49169514e-01, 0., 0., 1.14094481e-01,
          6.21771872e-01, 9.97641007e-04, 1.34515604e-02, 2.81890094e-01,
          6.33034408e-01, 5.69448434e-02, 0., 0., 3.51369143e-01,
          4.52771634e-01, 4.16448087e-01, 4.52771634e-01, 4.52771634e-01,
          4.52771634e-01, 8.78317095e-03, 0., 0., 4.43039984e-02,
          5.00156879e-01, 3.63036916e-02, 4.26805764e-02, 7.45626539e-02,
          9.78312418e-02, 2.99521796e-02, 5.00156879e-01, 4.74728078e-01,
          5.00156879e-01, 5.74470937e-01, 4.70228940e-02, 1.04038499e-01,
          1.91407740e-01, 5.31832516e-01, 4.13672104e-02, 0.,
          8.34643433e-04, 5.74470937e-01, 6.53983355e-01, 3.57277915e-02,
          8.75536446e-03, 8.25411733e-03, 3.69652897e-01, 4.21485910e-03,
          0., 0., 6.53983355e-01, 6.89400434e-01, 9.69916489e-03,
          3.69218038e-03, 4.26093340e-02, 2.01543614e-01, 5.37830824e-03,
          0., 0., 6.89400434e-01, 5.88985085e-01, 5.88985085e-01,
          2.64769584e-01, 9.84279811e-02, 2.10207235e-02, 7.69704115e-04,
          0., 1.94394179e-02, 4.68722433e-01, 6.81547880e-01,
          7.53486007e-02, 7.53335282e-02, 0., 4.09535738e-03, 0.,
          6.85240403e-02, 2.19354436e-01, 6.81547880e-01, 6.88882530e-01,
          2.05395177e-01, 2.47171149e-02, 0., 0., 0., 1.14479521e-02,
          3.28013785e-02, 6.88882530e-01, 6.77213609e-01, 1.67065769e-01,
          7.22784474e-02, 0., 0., 0., 1.70077667e-01, 1.18072480e-01,
          6.77213609e-01, 5.69150388e-01, 1.43110976e-01, 5.69150388e-01,
          0., 1.73575599e-02, 3.71469446e-02, 1.63088385e-02,
          9.60767735e-03, 5.69150388e-01, 4.71273571e-01, 3.06443453e-01,
          4.71273571e-01, 2.27030322e-01, 4.71273571e-01, 9.64291245e-02,
          2.30380185e-02, 8.28431696e-02, 4.08477336e-01 ]
      - [ 1.43861882e-02, 1.68693408e-01, 4.79711205e-01, 4.79711205e-01,
          4.79711205e-01, 4.79711205e-01, 2.14339212e-01, 1.03836833e-02,
          1.96804712e-03, 3.80273372e-01, 3.80273372e-01, 3.80273372e-01,
          2.73486733e-01, 1.87646374e-01, 3.80273372e-01, 3.80273372e-01,
          3.80273372e-01, 1.36190206e-01, 3.67379189e-01, 1.93148121e-01,
          3.67379189e-01, 3.67379189e-01, 2.64150202e-01, 3.67379189e-01,
          2.81857073e-01, 3.67379189e-01, 3.67379189e-01, 3.72309417e-01,
          3.72309417e-01, 3.72309417e-01, 8.01078826e-02, 3.72309417e-01,
          1.39868602e-01, 3.72309417e-01, 3.72309417e-01, 3.72309417e-01,
          3.19200277e-01, 4.96249646e-01, 4.96249646e-01, 1.69014037e-01,
          3.51586312e-01, 1.48987263e-01, 2.65765518e-01, 2.26512641e-01,
          3.22974384e-01, 5.49655072e-02, 2.67250866e-01, 4.25881237e-01,
          4.25881237e-01, 4.25881237e-01, 3.93368214e-01, 4.25881237e-01,
          1.95195451e-01, 5.44290692e-02, 4.91609387e-02, 7.55062252e-02,
          2.21046731e-01, 5.99941254e-01, 7.51408517e-01, 2.13356577e-02,
          2.19703373e-02, 9.26865190e-02, 3.80454138e-02, 1.75903171e-01,
          3.10105947e-03, 2.06570458e-02, 3.27868313e-01, 9.11061108e-01,
          3.70493531e-02, 1.61856273e-03, 2.01517493e-02, 1.42199114e-01,
          5.97582273e-02, 1.33503780e-01, 4.77417186e-03, 2.26657003e-01,
          9.43927884e-01, 1.10729247e-01, 1.17847393e-03, 5.12176491e-02,
          1.09119162e-01, 1.17760323e-01, 4.44285125e-01, 4.05509681e-01,
          5.24065435e-01, 5.24065435e-01, 2.37509221e-01, 1.81852821e-02,
          4.58002426e-02, 1.04610465e-01, 4.08069849e-01, 1.63380072e-01,
          3.82829934e-01, 4.08069849e-01, 3.08040559e-01, 0.,
          2.48391986e-01, 4.08069849e-01, 4.08069849e-01, 5.37213087e-01,
          3.23126763e-02, 2.96569988e-02, 3.30104738e-01, 5.41253686e-01,
          9.58803147e-02, 0., 0., 5.41253686e-01, 4.74499494e-01, 0., 0.,
          1.58862919e-01, 6.06008470e-01, 9.52330977e-02, 0., 0.,
          6.06008470e-01, 3.66274774e-01, 9.99169052e-03, 0.,
          3.44037801e-01, 6.08361661e-01, 3.31477560e-02, 0., 0.,
          6.08361661e-01, 1.88792154e-01, 4.84996319e-01, 4.84996319e-01,
          4.84996319e-01, 4.84996319e-01, 2.32363995e-02, 0., 0.,
          1.34490773e-01, 6.79113328e-01, 4.96406518e-02, 3.14647108e-02,
          3.26384082e-02, 2.19523944e-02, 7.75875617e-03, 1.73176322e-02,
          2.55869508e-01, 6.79113328e-01, 6.97507560e-01, 1.17777856e-02,
          6.35448890e-03, 1.53332595e-02, 1.32023290e-01, 4.35636044e-02,
          1.53424079e-02, 5.11413673e-03, 6.97507560e-01, 6.79097950e-01,
          0., 0., 6.78864261e-03, 2.64057934e-01, 3.31638902e-02,
          2.38749737e-04, 7.95832457e-05, 6.79097950e-01, 6.60052001e-01,
          1.68874357e-02, 0., 7.75156394e-02, 3.40192914e-01,
          6.94512576e-03, 0., 0., 6.60052001e-01, 4.67996508e-01,
          4.67996508e-01, 4.67996508e-01, 3.16518337e-01, 1.36363745e-01,
          2.15342399e-02, 0., 0., 4.67996508e-01, 4.72073406e-01,
          4.30094711e-02, 2.50538170e-01, 4.44600463e-01, 4.72073406e-01,
          2.24551141e-01, 1.12301834e-01, 3.74339409e-02, 4.72073406e-01,
          6.04316354e-01, 1.65704489e-02, 1.09502681e-01, 2.02940553e-01,
          3.34167033e-01, 2.49090374e-01, 1.86727911e-01, 3.92215401e-02,
          6.04316354e-01, 6.50885284e-01, 1.24250427e-02, 4.39301543e-02,
          8.35931376e-02, 3.22831273e-01, 8.09599310e-02, 1.60794839e-01,
          2.22954247e-02, 6.50885284e-01, 5.73721588e-01, 6.48042932e-02,
          1.94412887e-01, 4.05691057e-01, 2.78227091e-01, 9.44570266e-03,
          9.89565477e-02, 2.05146283e-01, 5.73721588e-01, 4.41365063e-01,
          4.41365063e-01, 3.62469912e-01, 4.41365063e-01, 1.21218778e-01,
          1.78114191e-01, 1.41364053e-01, 1.36352256e-01, 4.41365063e-01 ]
      - [ 1.55877806e-02, 1.36531904e-01, 4.72745717e-01, 4.72745717e-01,
          4.72745717e-01, 4.72745717e-01, 2.87051409e-01, 5.90918446e-03,
          2.61167786e-03, 3.95123929e-01, 3.95123929e-01, 3.95123929e-01,
          3.95123929e-01, 3.58027250e-01, 6.98582828e-02, 2.91140318e-01,
          2.12742880e-01, 3.29355925e-01, 5.32442629e-01, 2.50206530e-01,
          1.44188628e-01, 3.75225879e-02, 0., 7.59643316e-02,
          2.31571063e-01, 5.32442629e-01, 5.32442629e-01, 4.44105119e-01,
          4.44105119e-01, 4.44105119e-01, 4.44105119e-01, 0.,
          1.79660037e-01, 2.82414794e-01, 2.23743454e-01, 2.11067542e-01,
          1.31674096e-01, 5.39437607e-02, 4.04938720e-02, 4.86777117e-03,
          1.41704649e-01, 4.88142580e-01, 4.88142580e-01, 4.88142580e-01,
          4.88142580e-01, 5.56002092e-03, 4.09414500e-01, 4.15648133e-01,
          4.15648133e-01, 3.68415743e-01, 4.15648133e-01, 4.15648133e-01,
          3.75787243e-02, 9.61878861e-04, 1.80188090e-01, 1.93420008e-01,
          5.08404016e-01, 1.70074001e-01, 7.19443500e-01, 3.34660977e-01,
          0., 0., 7.70886168e-02, 1.16599701e-01, 1.65702943e-02, 0.,
          4.35730331e-02, 9.57365036e-01, 1.39851302e-01, 1.27352439e-04,
          5.90797029e-02, 1.87307060e-01, 1.36058539e-01, 1.00304782e-01,
          7.55311847e-02, 4.40626666e-02, 9.48945045e-01, 2.29300499e-01,
          3.02474480e-02, 1.08891912e-02, 1.43072223e-02, 1.15521606e-02,
          4.58873762e-03, 1.69039369e-01, 5.84799707e-01, 5.84799707e-01,
          2.34164402e-01, 4.08507109e-01, 1.86519831e-01, 1.57954484e-01,
          3.74185503e-01, 2.13182181e-01, 3.74185503e-01, 3.74185503e-01,
          3.15446496e-01, 1.05923630e-01, 3.74185503e-01, 3.74185503e-01,
          3.74185503e-01, 4.95039761e-01, 8.74049775e-03, 9.08218399e-02,
          8.04575607e-02, 4.95039761e-01, 4.95039761e-01, 0., 0.,
          4.95039761e-01, 5.79663455e-01, 0., 0., 6.60604089e-02,
          5.79663455e-01, 6.87227324e-02, 0., 0., 5.59558451e-01,
          5.66692531e-01, 2.34049885e-03, 1.37569904e-02, 6.98998794e-02,
          5.66692531e-01, 1.60745502e-01, 0., 0., 5.66692531e-01,
          4.36005890e-01, 4.36005890e-01, 4.36005890e-01, 4.36005890e-01,
          4.36005890e-01, 1.30933985e-01, 4.44115959e-02, 5.38698733e-02,
          1.52055278e-01, 6.53574824e-01, 2.38291174e-02, 4.10149507e-02,
          3.69125009e-02, 3.52510363e-02, 1.35968961e-02, 6.47884756e-02,
          3.60440493e-01, 6.53574824e-01, 6.92344844e-01, 4.30636224e-04,
          5.43467235e-03, 5.42346295e-03, 1.43785179e-01, 1.16929248e-01,
          0., 0., 6.92344844e-01, 6.94709957e-01, 0., 0., 1.90560780e-02,
          1.65450752e-01, 9.10227094e-03, 0., 1.10012933e-03,
          6.94709957e-01, 6.95741773e-01, 8.79618165e-04, 5.17022191e-03,
          1.36429099e-02, 1.53686449e-01, 2.29830872e-02, 0.,
          2.40875408e-02, 6.95741773e-01, 4.92168248e-01, 4.92168248e-01,
          4.92168248e-01, 0., 2.68363860e-02, 7.72173852e-02,
          1.37637168e-01, 2.32225209e-02, 4.92168248e-01, 5.54597855e-01,
          1.71872079e-02, 7.92206600e-02, 2.33862728e-01, 5.54597855e-01,
          4.22796384e-02, 8.11384693e-02, 4.57293801e-02, 5.54597855e-01,
          5.51408231e-01, 8.27041548e-03, 2.48112492e-02, 2.99293622e-02,
          5.51408231e-01, 2.75285870e-01, 6.69370666e-02, 2.23123562e-02,
          5.51408231e-01, 5.72896898e-01, 2.67367493e-02, 8.02102461e-02,
          4.84643318e-02, 5.72896898e-01, 4.63764230e-03, 8.28900002e-03,
          7.69074960e-03, 5.72896898e-01, 5.44654250e-01, 1.76425222e-02,
          5.29275611e-02, 2.71558434e-01, 5.44654250e-01, 9.35066864e-02,
          6.25500828e-02, 1.22896813e-01, 5.44654250e-01, 4.89032269e-01,
          1.19950801e-01, 5.81864901e-02, 2.89102420e-02, 5.11594452e-02,
          4.48745698e-01, 4.89032269e-01, 2.34645218e-01, 4.89032269e-01 ]
      - [ 1.78218074e-02, 5.47109284e-02, 4.80261147e-01, 4.80261147e-01,
          4.80261147e-01, 4.80261147e-01, 2.59474367e-01, 4.24347669e-02,
          1.27047682e-02, 3.71673346e-01, 2.66428798e-01, 3.71673346e-01,
          3.71673346e-01, 1.21223472e-01, 2.85938472e-01, 3.71673346e-01,
          3.71673346e-01, 3.71673346e-01, 3.51738900e-01, 8.19976851e-02,
          3.51738900e-01, 3.51738900e-01, 3.51738900e-01, 3.51738900e-01,
          3.51738900e-01, 3.51738900e-01, 3.51738900e-01, 3.35275978e-01,
          3.30144644e-01, 3.48200053e-01, 3.48200053e-01, 3.48200053e-01,
          3.48200053e-01, 2.18302861e-01, 3.48200053e-01, 3.48200053e-01,
          3.85787040e-01, 2.36934319e-01, 1.78538471e-01, 1.23054348e-01,
          3.85787040e-01, 3.85787040e-01, 3.85787040e-01, 3.85787040e-01,
          3.85787040e-01, 1.77017623e-03, 7.28269399e-04, 4.65227097e-01,
          4.65227097e-01, 4.65227097e-01, 4.65227097e-01, 3.59977216e-01,
          4.49592993e-03, 9.10698378e-04, 2.55341809e-02, 1.64308713e-03,
          5.22226512e-01, 5.39252520e-01, 5.39252520e-01, 3.52419406e-01,
          8.25453028e-02, 8.44030157e-02, 3.89367566e-02, 1.39871478e-01,
          1.68992265e-03, 4.85432195e-03, 3.47890742e-02, 7.12768018e-01,
          6.77250803e-01, 1.57439467e-02, 3.93948965e-02, 5.98143898e-02,
          1.66668352e-02, 8.71340651e-03, 2.57893335e-02, 1.09077461e-01,
          7.00028539e-01, 7.00028539e-01, 1.28500652e-03, 3.04329884e-03,
          2.13619880e-03, 4.00334224e-02, 7.00465031e-03, 5.22816420e-01,
          5.22816420e-01, 5.22816420e-01, 3.92381012e-01, 8.18376392e-02,
          1.08042374e-01, 2.79742870e-02, 3.53748083e-01, 0.,
          3.53748083e-01, 3.53748083e-01, 3.47133577e-01, 3.53748083e-01,
          3.53748083e-01, 3.53748083e-01, 3.53748083e-01, 5.36567807e-01,
          0., 8.01397339e-02, 5.36567807e-01, 5.36567807e-01,
          2.21895441e-01, 0., 1.58876833e-03, 2.74343133e-01,
          5.51110327e-01, 9.32902191e-03, 0., 6.62995577e-02,
          5.51110327e-01, 5.46731353e-01, 0., 0., 2.89229095e-01,
          4.98387247e-01, 9.76382662e-03, 0., 3.69813219e-02,
          4.98387247e-01, 4.98387247e-01, 0., 0., 4.98387247e-01,
          4.05901104e-01, 4.05901104e-01, 4.05901104e-01, 4.05901104e-01,
          4.05901104e-01, 8.42252374e-02, 1.39427623e-02, 1.10746389e-02,
          4.05901104e-01, 6.06136203e-01, 0., 0., 1.03894472e-01,
          4.50281017e-02, 0., 7.90814310e-02, 4.89969552e-01,
          6.06136203e-01, 6.20583653e-01, 1.44764613e-02, 0.,
          9.22625437e-02, 4.63495046e-01, 2.42541707e-03, 0.,
          5.82534121e-04, 6.20583653e-01, 6.93455935e-01, 1.91181321e-02,
          2.35919331e-04, 2.58072373e-02, 1.74022317e-01, 5.58924803e-05,
          0., 0., 6.93455935e-01, 7.00728893e-01, 6.30792649e-03,
          3.41033417e-04, 3.04004457e-02, 9.98490006e-02, 5.40072145e-03,
          0., 0., 7.00728893e-01, 5.67872643e-01, 5.67872643e-01,
          8.56433287e-02, 1.86643731e-02, 6.43132627e-02, 2.19525527e-02,
          7.86117166e-02, 9.17077735e-02, 5.67872643e-01, 7.01326489e-01,
          8.13110918e-03, 2.43933275e-02, 0., 0., 0., 1.77192278e-02,
          9.11394358e-02, 7.01326489e-01, 7.01917052e-01, 6.66928515e-02,
          9.35734657e-04, 0., 0., 0., 4.99111153e-02, 2.60418821e-02,
          7.01917052e-01, 6.04029059e-01, 1.18767731e-01, 3.47524993e-02,
          2.26162039e-02, 9.63364553e-04, 0., 4.91129048e-02,
          4.96012896e-01, 6.04029059e-01, 4.11514491e-01, 1.83823779e-01,
          1.43596068e-01, 3.05479079e-01, 4.11514491e-01, 3.79444957e-02,
          4.11514491e-01, 4.11514491e-01, 4.11514491e-01, 3.70266765e-01,
          1.86076656e-01, 3.70266765e-01, 3.70266765e-01, 3.70266765e-01,
          4.46537621e-02, 3.70266765e-01, 3.70266765e-01, 3.70266765e-01 ]
      - [ 8.15601572e-02, 1.86283886e-02, 1.17904201e-01, 3.90611351e-01,
          6.39736950e-01, 6.39736950e-01, 3.15289721e-02, 1.70604661e-02,
          1.79842543e-02, 1.57688886e-01, 4.04655069e-01, 4.04655069e-01,
          4.04655069e-01, 4.04655069e-01, 3.95160913e-01, 3.44400316e-01,
          1.87850341e-01, 7.78303072e-02, 3.79709125e-01, 2.36656561e-01,
          4.39417847e-02, 3.50214064e-01, 3.79709125e-01, 3.79709125e-01,
          3.79709125e-01, 3.07773113e-01, 3.79709125e-01, 4.84324455e-01,
          1.28403157e-01, 1.91964265e-02, 1.88573137e-01, 6.41458929e-02,
          1.87478960e-02, 4.84324455e-01, 4.84324455e-01, 4.84324455e-01,
          4.42163438e-01, 1.15112074e-01, 4.42163438e-01, 6.83000460e-02,
          1.11834155e-02, 0., 4.42163438e-01, 4.42163438e-01,
          4.42163438e-01, 2.86582927e-03, 7.53326789e-02, 4.87762123e-01,
          4.87762123e-01, 4.87762123e-01, 4.87762123e-01, 1.94356114e-01,
          4.35591768e-03, 2.06925930e-03, 1.30560011e-01, 4.20944363e-01,
          5.15077472e-01, 5.15077472e-01, 5.15077472e-01, 3.49168666e-02,
          1.14839384e-03, 2.99041495e-02, 5.08604087e-02, 2.15556532e-01,
          4.93880063e-02, 5.56461804e-04, 7.31379241e-02, 6.76146269e-01,
          6.76146269e-01, 1.58646777e-02, 9.50422604e-03, 1.55907393e-01,
          2.94980109e-01, 2.16275360e-02, 0., 1.63764805e-01,
          7.77759790e-01, 5.08649588e-01, 1.41596980e-02, 5.26521355e-02,
          1.06443286e-01, 5.02173044e-02, 2.10997695e-03, 5.37884422e-02,
          5.42315602e-01, 5.47260940e-01, 5.21601140e-01, 2.74462163e-01,
          1.89627603e-01, 1.10267378e-01, 3.18065971e-01, 7.47799724e-02,
          3.72777373e-01, 3.72777373e-01, 3.72777373e-01, 3.72777373e-01,
          3.72777373e-01, 3.54638100e-01, 2.62554497e-01, 2.83543378e-01,
          4.55948561e-02, 1.21171340e-01, 3.67233008e-01, 6.32698059e-01,
          4.98326927e-01, 0., 0., 3.36196870e-01, 3.91580790e-01,
          2.07749358e-03, 0., 8.04377906e-03, 6.22453570e-01,
          5.18536091e-01, 0., 0., 4.29013461e-01, 5.45267344e-01, 0., 0.,
          3.02664991e-02, 5.62676609e-01, 4.02403951e-01, 0., 0.,
          4.66492087e-01, 4.17233676e-01, 4.17233676e-01, 4.17233676e-01,
          4.17233676e-01, 4.17233676e-01, 3.07516634e-01, 4.03929763e-02,
          3.31183188e-02, 1.67682797e-01, 5.90450764e-01, 5.11449017e-02,
          5.34015223e-02, 1.51702479e-01, 6.62302151e-02, 5.37937181e-03,
          1.20326385e-01, 4.99464750e-01, 5.90450764e-01, 5.80480158e-01,
          1.08488835e-02, 1.37724867e-03, 2.76709311e-02, 5.42457700e-01,
