%YAML:1.0
---
opencv_ml_svm:
   format: 3
   svmType: C_SVC
   kernel:
      type: RBF
      gamma: 5.0000000000000000e-01
   C: 1.2500000000000000e+01
   term_criteria: { epsilon:1.1920928955078125e-07, iterations:1000 }
   var_count: 225
   class_count: 26
   class_labels: !!opencv-matrix
      rows: 26
      cols: 1
      dt: i
      data: [ 0, 1, 2, 3, 4, 5, 6, 7, 8, 9, 10, 11, 12, 13, 14, 15, 16,
          18, 19, 20, 21, 22, 23, 24, 25, 26 ]
   sv_total: 406
   support_vectors:
      - [ 4.74455982e-01, 1.81859247e-02, 3.18189641e-03, 2.06950363e-02,
          5.97183704e-01, 5.97183704e-01, 1.96874544e-01, 2.61717960e-02,
          1.24330975e-01, 4.97631997e-01, 3.33870295e-04, 5.84155387e-05,
          3.79934412e-04, 4.97631997e-01, 4.97631997e-01, 6.48908839e-02,
          1.63823813e-02, 4.97631997e-01, 4.97559220e-01, 3.53725161e-03,
          0., 0., 4.97559220e-01, 4.97559220e-01, 6.79424927e-02,
          1.18841296e-02, 4.97559220e-01, 5.60589373e-01, 3.95995341e-02,
          3.17658740e-03, 1.81476958e-02, 5.60589373e-01, 1.78046167e-01,
          4.14593928e-02, 1.27647519e-01, 5.60589373e-01, 2.29937267e-02,
          3.72709073e-02, 5.06336868e-01, 5.06336868e-01, 5.06336868e-01,
          8.96188840e-02, 3.71110975e-03, 2.18652695e-01, 4.09926683e-01,
          5.66922188e-01, 5.66922188e-01, 7.49779050e-04, 5.23922732e-03,
          2.13429734e-01, 2.32672557e-01, 1.85559258e-01, 1.20217362e-02,
          4.66094196e-01, 7.01830447e-01, 4.92136367e-03, 0.,
          9.03685941e-05, 4.11252491e-02, 7.83110186e-02, 3.74469790e-03,
          0., 7.01830447e-01, 7.03165948e-01, 8.66768241e-04, 0., 0.,
          1.43789803e-03, 6.34866804e-02, 7.91237038e-03, 0.,
          7.03165948e-01, 6.86371207e-01, 8.17383174e-03, 0., 0.,
          1.23763410e-03, 3.46020889e-03, 6.01741262e-02, 2.17338696e-01,
          6.86371207e-01, 7.39191994e-02, 1.13467770e-02, 4.44248974e-01,
          4.44248974e-01, 5.34254834e-02, 1.81576852e-02, 4.44248974e-01,
          4.44248974e-01, 4.44248974e-01, 4.39901918e-01, 4.39901918e-01,
          4.39901918e-01, 4.39901918e-01, 4.39901918e-01, 1.76731367e-02,
          9.96742025e-02, 1.27390921e-02, 1.32769212e-01, 5.10394931e-01,
          6.55193347e-03, 9.89588909e-03, 1.04791783e-01, 5.10394931e-01,
          4.49745923e-01, 0., 0., 5.10394931e-01, 5.07007301e-01, 0., 0.,
          4.89200838e-03, 5.07007301e-01, 4.73015159e-01, 0., 0.,
          5.07007301e-01, 5.15629470e-01, 0., 0., 7.12586641e-02,
          5.15629470e-01, 5.15629470e-01, 1.16177641e-01, 1.13774329e-01,
          4.07074541e-01, 3.04351412e-02, 3.77445787e-01, 4.09826308e-01,
          3.16157825e-02, 1.68817177e-01, 4.59537834e-01, 4.59537834e-01,
          4.59537834e-01, 1.45041093e-01, 3.63416597e-03, 3.28231864e-02,
          4.99223024e-01, 5.78713477e-01, 5.78713477e-01, 5.78671396e-02,
          6.89824149e-02, 2.39734173e-01, 9.22437832e-02, 0.,
          8.21808644e-05, 2.27616052e-03, 6.34449720e-02, 8.91133249e-01,
          4.39271748e-01, 0., 0., 0., 0., 0., 0., 1.14501396e-03,
          7.14082658e-01, 6.94508791e-01, 7.28956051e-03, 2.23998800e-02,
          7.69797899e-03, 5.15093990e-02, 0., 0., 1.96592696e-02,
          6.92981303e-01, 6.92981303e-01, 1.29861338e-02, 5.17745726e-02,
          1.63545310e-01, 5.04568934e-01, 5.04568934e-01, 9.37022939e-02,
          1.71682957e-04, 3.45955551e-01, 5.04568934e-01, 3.14279556e-01,
          2.57051317e-04, 6.28837198e-02, 2.79491007e-01, 1.06913289e-02,
          3.20739821e-02, 2.93879241e-01, 4.96836990e-01, 7.48590529e-02,
          2.88564801e-01, 4.96836990e-01, 4.96836990e-01, 5.65557837e-01,
          1.55976200e-02, 4.67928648e-02, 7.09871529e-03, 5.65557837e-01,
          1.79726332e-01, 8.02167458e-04, 2.67389172e-04, 5.65557837e-01,
          5.58027148e-01, 3.54652293e-02, 1.06395699e-01, 0.,
          5.58027148e-01, 2.10594565e-01, 1.78219639e-02, 5.47645949e-02,
          5.58027148e-01, 5.64312518e-01, 1.18101230e-02, 3.54303680e-02,
          0., 5.64312518e-01, 1.61801338e-01, 2.04701605e-03,
          1.06958851e-01, 5.64312518e-01, 6.45397127e-01, 6.45397127e-01,
          1.96828678e-01, 0., 4.68372069e-02, 8.56509432e-02, 0.,
          3.50712915e-04, 3.34977746e-01 ]
      - [ 4.99338835e-01, 1.51295364e-01, 2.17904337e-03, 7.87387602e-03,
          4.99338835e-01, 4.99338835e-01, 3.71012002e-01, 4.01257873e-02,
          2.91166961e-01, 5.66091478e-01, 2.30035884e-03, 3.04806419e-03,
          1.77167524e-02, 5.66091478e-01, 1.75491512e-01, 3.87474410e-02,
          1.84831973e-02, 5.66091478e-01, 5.74595869e-01, 1.36354545e-04,
          4.09063621e-04, 2.14533135e-02, 5.74595869e-01, 5.23192808e-02,
          2.29113474e-02, 7.63711613e-03, 5.74595869e-01, 5.72207630e-01,
          1.43866241e-03, 4.31598676e-03, 3.67725194e-02, 5.72207630e-01,
          8.08417574e-02, 1.72189455e-02, 6.17772825e-02, 5.72207630e-01,
          7.35480338e-02, 5.36860414e-02, 4.42766190e-01, 4.42766190e-01,
          4.42766190e-01, 8.40574205e-02, 3.23693780e-03, 4.42766190e-01,
          4.42766190e-01, 5.79627514e-01, 5.79627514e-01, 1.57007292e-01,
          0., 6.75417203e-03, 1.41829774e-01, 2.19398454e-01,
          1.24421958e-02, 4.78720188e-01, 7.04545617e-01, 1.40260672e-02,
          4.79174159e-05, 0., 0., 0., 0., 1.14288798e-03, 7.04545617e-01,
          7.04615593e-01, 0., 0., 0., 0., 0., 0., 0., 7.04615593e-01,
          6.99055791e-01, 0., 0., 0., 0., 0., 4.25235964e-02,
          1.17709689e-01, 6.99055791e-01, 1.19549602e-01, 4.40443270e-02,
          4.65368420e-01, 3.34594816e-01, 2.99139954e-02, 0.,
          4.65368420e-01, 4.65368420e-01, 4.65368420e-01, 4.40842927e-01,
          4.40842927e-01, 4.40842927e-01, 4.40842927e-01, 4.40842927e-01,
          5.18798316e-03, 1.17570825e-01, 3.72656770e-02, 9.29814652e-02,
          5.70246935e-01, 1.72555856e-02, 7.38400733e-03, 8.65999460e-02,
          5.70246935e-01, 1.04446903e-01, 0., 0., 5.70246935e-01,
          5.53867936e-01, 0., 0., 4.84640896e-03, 5.53867936e-01,
          2.72280216e-01, 0., 0., 5.53867936e-01, 4.81845230e-01, 0., 0.,
          5.37309982e-03, 5.12180746e-01, 5.12180746e-01, 7.15940595e-02,
          5.67755327e-02, 4.79242772e-01, 2.74165794e-02, 4.02210474e-01,
          3.01325023e-01, 0., 2.84327686e-01, 4.63213533e-01,
          4.63213533e-01, 4.63213533e-01, 1.32321134e-01, 4.40362282e-03,
          0., 4.45636421e-01, 5.68508387e-01, 5.68508387e-01,
          4.24506888e-02, 1.02020822e-01, 3.21149081e-01, 1.84285462e-01,
          0., 0., 2.00499152e-03, 1.69858888e-01, 9.54626262e-01,
          2.24296406e-01, 4.06242878e-04, 0., 0., 5.83857438e-03,
          8.66967021e-04, 0., 5.22724725e-03, 8.48435581e-01,
          5.21179557e-01, 0., 0., 5.09652018e-04, 5.36668561e-02,
          9.38728102e-04, 0., 1.78936739e-02, 7.01783895e-01,
          7.01783895e-01, 4.53502964e-03, 0., 6.90768212e-02,
          5.07345855e-01, 5.07345855e-01, 9.90761220e-02, 0.,
          4.11871880e-01, 5.07345855e-01, 1.80596963e-01, 0.,
          1.03266083e-01, 3.20238709e-01, 2.34957086e-03, 7.04871351e-03,
          2.39242703e-01, 5.04552901e-01, 4.49149795e-02, 2.63396382e-01,
          5.04552901e-01, 5.04552901e-01, 5.62927067e-01, 5.74833574e-03,
          1.72450077e-02, 1.60039693e-01, 5.62927067e-01, 1.29021093e-01,
          3.15394923e-02, 1.15678366e-02, 5.62927067e-01, 5.56598246e-01,
          2.45658047e-02, 6.77505881e-02, 1.06434023e-03, 5.56598246e-01,
          2.44558424e-01, 5.48754167e-03, 1.82918052e-03, 5.56598246e-01,
          5.68762481e-01, 2.26369463e-02, 6.14826381e-02, 6.88969530e-03,
          5.68762481e-01, 1.39595717e-01, 4.38793749e-03, 1.46264583e-03,
          5.68762481e-01, 6.54925048e-01, 6.54925048e-01, 2.41790801e-01,
          0., 3.16620357e-02, 1.06377088e-01, 4.65675366e-05,
          1.55225116e-05, 2.54610479e-01 ]
      - [ 4.30115819e-01, 2.23287996e-02, 0., 1.16000272e-01,
          6.20246053e-01, 6.20246053e-01, 1.36490107e-01, 3.68631370e-02,
          7.38534406e-02, 4.95164126e-01, 9.30461194e-03, 0.,
          8.56159776e-02, 4.95164126e-01, 4.95164126e-01, 7.81299695e-02,
          2.79923454e-02, 4.95164126e-01, 5.27383924e-01, 8.52258224e-03,
          0., 6.06307806e-03, 5.27383924e-01, 3.69901270e-01,
          5.23302890e-02, 1.43725097e-01, 5.27383924e-01, 5.44319272e-01,
          9.74912867e-02, 8.89911726e-02, 1.97351918e-01, 5.44319272e-01,
          2.17602387e-01, 4.08835448e-02, 1.78862512e-02, 5.44319272e-01,
          1.89313069e-01, 1.43988594e-01, 5.36836565e-01, 5.36836565e-01,
          5.36836565e-01, 1.49935647e-03, 1.20224049e-02, 4.00746847e-03,
          2.70783037e-01, 5.73328614e-01, 5.73328614e-01, 6.84490651e-02,
          3.01893409e-02, 2.56587118e-01, 3.84662807e-01, 1.03609242e-01,
          1.29457684e-02, 3.26438397e-01, 7.02657402e-01, 7.21500348e-03,
          0., 1.85772590e-02, 3.03127151e-02, 6.49210289e-02, 0.,
          4.22905781e-04, 7.02657402e-01, 7.04394996e-01, 1.67924725e-03,
          0., 1.19463902e-03, 4.61086485e-04, 4.83751850e-04, 0.,
          2.48819124e-02, 7.04394996e-01, 6.87934637e-01, 1.90164503e-02,
          1.04695270e-02, 2.94368918e-04, 0., 0., 6.32695854e-02,
          2.05304608e-01, 6.87934637e-01, 2.38253593e-01, 6.74881861e-02,
          3.94079685e-01, 3.94079685e-01, 3.94079685e-01, 5.43215014e-02,
          3.94079685e-01, 3.94079685e-01, 3.94079685e-01, 4.64284390e-01,
          4.64284390e-01, 4.64284390e-01, 4.64284390e-01, 3.18781316e-01,
          9.46325809e-03, 7.87930638e-02, 5.94711117e-02, 1.47195414e-01,
          5.33483744e-01, 3.03440187e-02, 9.03262477e-03, 3.61351483e-02,
          5.33483744e-01, 3.72222215e-01, 0., 0., 5.33483744e-01,
          5.45846164e-01, 0., 0., 2.49271914e-02, 5.45846164e-01,
          3.16360116e-01, 0., 0., 5.45846164e-01, 4.83082831e-01, 0., 0.,
          1.61850993e-02, 4.83082831e-01, 4.83082831e-01, 1.44400045e-01,
          2.01458842e-01, 4.83082831e-01, 8.28124061e-02, 4.79890317e-01,
          3.07684302e-01, 2.57185623e-02, 1.82504073e-01, 4.79890317e-01,
          4.79890317e-01, 3.98954093e-01, 9.82941538e-02, 7.37885060e-03,
          1.74036741e-01, 5.48107803e-01, 5.48107803e-01, 5.48107803e-01,
          6.08328693e-02, 6.11099042e-02, 2.28169754e-01, 5.84840775e-02,
          0., 4.95213876e-03, 1.76613883e-03, 5.96561059e-02,
          7.40628541e-01, 6.63693786e-01, 8.55828286e-04, 2.85276095e-04,
          0., 2.20001284e-02, 0., 0., 6.35271054e-03, 8.73009145e-01,
          4.77251917e-01, 9.73200891e-03, 1.75619256e-02, 2.11458933e-02,
          1.81471139e-01, 0., 0., 4.32509743e-03, 6.85068071e-01,
          6.85068071e-01, 1.30732069e-02, 2.28543824e-04, 1.46298319e-01,
          5.26861727e-01, 5.26861727e-01, 6.71621934e-02, 0.,
          2.17254013e-01, 5.26861727e-01, 3.26223820e-01, 0.,
          6.21008873e-02, 4.34367001e-01, 1.90824624e-02, 5.72473854e-02,
          4.34367001e-01, 4.34367001e-01, 3.24797928e-02, 2.18154043e-01,
          4.34367001e-01, 4.34367001e-01, 5.16623557e-01, 1.88392494e-02,
          5.65177388e-02, 4.20374647e-02, 5.16623557e-01, 4.34114307e-01,
          1.82282999e-02, 6.07609982e-03, 5.16623557e-01, 5.70987642e-01,
          1.63040701e-02, 4.89122048e-02, 0., 5.70987642e-01,
          1.08719900e-01, 2.02150699e-02, 3.64791639e-02, 5.70987642e-01,
          5.65770507e-01, 3.37937400e-02, 1.01381212e-01, 0.,
          5.65770507e-01, 1.50470048e-01, 0., 4.02658188e-04,
          5.65770507e-01, 6.66536748e-01, 6.66536748e-01, 2.49944106e-01,
          0., 2.28236578e-02, 7.38177598e-02, 0., 0., 1.90686643e-01 ]
      - [ 5.51770031e-01, 3.13386023e-02, 6.81033544e-03, 8.37172791e-02,
          5.51770031e-01, 5.51770031e-01, 1.97447717e-01, 2.81583499e-02,
          1.82548136e-01, 5.60777187e-01, 3.42934945e-04, 2.86520412e-03,
          2.71713957e-02, 5.60777187e-01, 2.19725698e-01, 4.20096070e-02,
          1.40032023e-02, 5.60777187e-01, 5.56413770e-01, 0., 0., 0.,
          5.56413770e-01, 2.50419915e-01, 5.14794141e-02, 1.71598047e-02,
          5.56413770e-01, 5.71289539e-01, 1.91499712e-03, 5.74499136e-03,
          1.71462726e-02, 5.71289539e-01, 1.16916873e-01, 2.55709421e-02,
          2.29315776e-02, 5.71289539e-01, 6.88017681e-02, 5.05889319e-02,
          4.82664794e-01, 4.82664794e-01, 4.82664794e-01, 6.34881388e-03,
          4.42614808e-04, 2.36610845e-01, 4.82664794e-01, 5.96608341e-01,
          5.96608341e-01, 1.09644867e-01, 2.01067179e-02, 8.21866393e-02,
          1.88309357e-01, 1.70020938e-01, 6.60986314e-03, 4.45609361e-01,
          7.04498887e-01, 1.68892443e-02, 7.31370121e-04, 5.81474835e-03,
          3.25478450e-03, 0., 0., 0., 7.04498887e-01, 7.04615593e-01,
          3.76716518e-04, 0., 0., 0., 0., 0., 0., 7.04615593e-01,
          6.94673598e-01, 3.59691260e-03, 0., 3.08720525e-02,
          1.50884287e-02, 5.11776172e-02, 9.64309275e-02, 1.21699460e-01,
          6.94673598e-01, 1.35499224e-01, 4.99130152e-02, 4.41112816e-01,
          4.41112816e-01, 3.50045785e-02, 2.47902870e-02, 4.41112816e-01,
          4.41112816e-01, 4.41112816e-01, 4.40858215e-01, 4.40858215e-01,
          4.40858215e-01, 4.40858215e-01, 4.40858215e-01, 3.71848159e-02,
          1.06659964e-01, 1.48303704e-02, 1.04102992e-01, 5.39484441e-01,
          1.89901125e-02, 5.96896093e-03, 4.07559462e-02, 5.39484441e-01,
          3.45578879e-01, 0., 0., 5.39484441e-01, 4.59603786e-01,
          5.35473460e-04, 0., 0., 6.16415262e-01, 3.94275695e-01, 0., 0.,
          4.97180492e-01, 3.50585282e-01, 4.88054240e-03, 0.,
          4.18893546e-02, 6.08274341e-01, 6.08274341e-01, 1.37943119e-01,
          3.07610985e-02, 3.30557197e-01, 1.00132391e-01, 4.54718977e-01,
          3.14482868e-01, 2.06824467e-02, 2.80155063e-01, 4.54718977e-01,
          4.54718977e-01, 4.19148356e-01, 1.07815392e-01, 9.16267484e-02,
          7.59296939e-02, 4.29291308e-01, 5.85307240e-01, 5.85307240e-01,
          5.09734266e-02, 1.08581878e-01, 1.99771777e-01, 2.37144381e-01,
          1.41193122e-01, 4.18546470e-03, 1.66885706e-03, 5.41215017e-02,
          7.78454840e-01, 5.86533070e-01, 0., 0., 1.39042005e-01,
          3.62066180e-01, 0., 0., 0., 6.91898465e-01, 5.60484648e-01, 0.,
          0., 2.62934595e-01, 4.96283084e-01, 0., 0., 0., 5.19856811e-01,
          5.19856811e-01, 8.48292932e-03, 0., 4.56001163e-01,
          5.50019443e-01, 5.50019443e-01, 5.16022407e-02, 0.,
          2.33048558e-01, 5.50019443e-01, 1.42135113e-01, 0.,
          9.88245159e-02, 5.47062516e-01, 1.37006864e-01, 6.04703240e-02,
          2.93770820e-01, 3.39410782e-01, 6.62001083e-03, 1.53702572e-01,
          3.85207891e-01, 5.47062516e-01, 5.72181642e-01, 1.62261315e-02,
          2.58074533e-02, 9.50683467e-03, 5.72181642e-01, 9.97831747e-02,
          3.19528691e-02, 1.06509561e-02, 5.72181642e-01, 6.26016080e-01,
          5.56004383e-02, 1.66801304e-01, 0., 4.15158778e-01,
          8.17711726e-02, 2.99968786e-04, 9.99895929e-05, 6.26016080e-01,
          6.86747968e-01, 1.63974836e-02, 4.91924509e-02, 0.,
          1.94199055e-01, 9.74243060e-02, 2.29516765e-03, 0.,
          6.86747968e-01, 6.61425769e-01, 6.61425769e-01, 1.10048756e-01,
          0., 3.97663377e-03, 1.29552539e-02, 2.12824484e-03, 0.,
          3.25775355e-01 ]
      - [ 2.95409292e-01, 1.29028961e-01, 4.24980335e-02, 3.45020294e-02,
          6.62694931e-01, 6.62694931e-01, 8.17594975e-02, 1.13001605e-02,
          3.64815481e-02, 5.18266857e-01, 2.17362843e-03, 0.,
          2.57193693e-03, 5.18266857e-01, 5.18266857e-01, 5.36040813e-02,
          1.65852159e-02, 4.31117713e-01, 4.94332373e-01, 0., 0., 0.,
          4.94332373e-01, 4.94332373e-01, 1.11853205e-01, 7.13700578e-02,
          4.94332373e-01, 5.58278799e-01, 1.17357925e-03, 3.52073763e-03,
          1.96362659e-02, 5.58278799e-01, 2.39080384e-01, 3.93308960e-02,
          1.71356276e-02, 5.58278799e-01, 2.39291757e-01, 7.07528591e-02,
          4.27691609e-01, 4.86064762e-01, 4.86064762e-01, 7.85139296e-03,
          1.83268683e-03, 2.02772334e-01, 4.86064762e-01, 5.53006887e-01,
          5.53006887e-01, 5.09547032e-02, 2.40309630e-02, 3.39915752e-01,
          3.68684947e-01, 1.24990314e-01, 1.38014359e-02, 3.35240215e-01,
          6.91814005e-01, 5.91659546e-03, 0., 7.44572957e-04,
          1.67805701e-01, 8.76649618e-02, 1.11411780e-03, 0.,
          6.91814005e-01, 7.04312325e-01, 0., 0., 0., 3.36367590e-03,
          2.47299355e-02, 1.01436907e-02, 1.14823068e-02, 7.04312325e-01,
          7.03587353e-01, 0., 0., 4.97556152e-03, 2.29602717e-02,
          3.40519063e-02, 1.97724644e-02, 2.83501465e-02, 7.03587353e-01,
          2.21150115e-01, 4.69502881e-02, 3.48834038e-01, 2.60698646e-01,
          3.50435972e-02, 2.61176378e-01, 4.77851242e-01, 4.77851242e-01,
          4.77851242e-01, 4.37152594e-01, 4.37152594e-01, 4.37152594e-01,
          4.37152594e-01, 4.37152594e-01, 2.99037155e-02, 9.14312527e-02,
          3.91367041e-02, 1.71277031e-01, 5.13146996e-01, 1.46635519e-02,
          2.16107769e-03, 2.09711175e-02, 5.13146996e-01, 4.51947004e-01,
          0., 0., 5.13146996e-01, 5.74739397e-01, 0., 0., 0.,
          5.74739397e-01, 3.50333869e-01, 0., 0., 4.59212780e-01,
          3.90294969e-01, 0., 0., 7.15423888e-03, 6.06600285e-01,
          6.06600285e-01, 2.84303501e-02, 7.17263343e-03, 3.23688477e-01,
          5.57190329e-02, 4.56363648e-01, 1.36817589e-01, 7.94558669e-04,
          3.81105453e-01, 5.05229652e-01, 5.05229652e-01, 3.05383325e-01,
          1.25888214e-01, 3.44220437e-02, 1.62999988e-01, 4.42566723e-01,
          6.05465829e-01, 6.05465829e-01, 1.08538143e-01, 9.38550234e-02,
          1.06585853e-01, 7.21662268e-02, 7.81832170e-03, 2.79070181e-03,
          4.74105356e-04, 1.39006861e-02, 7.04198301e-01, 7.04198301e-01,
          6.46743225e-03, 0., 2.95940302e-02, 1.63291305e-01, 0., 0.,
          1.01402439e-02, 7.64860451e-01, 5.59324622e-01, 1.12832386e-04,
          0., 2.60275930e-01, 4.83860523e-01, 4.02071886e-03, 0.,
          1.06956540e-02, 5.96572578e-01, 5.96572578e-01, 0., 0.,
          2.19075501e-01, 5.38999796e-01, 5.38999796e-01, 1.68764777e-02,
          0., 3.47371519e-01, 5.38999796e-01, 2.87145004e-02, 0.,
          3.57592441e-02, 5.16108215e-01, 3.17413248e-02, 4.07263637e-04,
          3.10497165e-01, 5.16108215e-01, 4.73577157e-02, 1.64347589e-01,
          2.62818515e-01, 5.16108215e-01, 5.37454426e-01, 3.38578373e-02,
          1.01573519e-01, 4.31758491e-03, 5.37454426e-01, 3.40307385e-01,
          2.74596382e-02, 3.94850643e-03, 5.37454426e-01, 5.70780218e-01,
          2.49757841e-02, 7.49273524e-02, 3.76587454e-03, 5.70780218e-01,
          1.03335157e-01, 1.99777656e-04, 0., 5.70780218e-01,
          6.46013498e-01, 3.56896818e-02, 7.88130090e-02, 3.98828043e-03,
          3.78127515e-01, 9.16616842e-02, 0., 0., 6.46013498e-01,
          7.66342342e-01, 6.23416007e-01, 1.00163601e-01, 0.,
          2.37157941e-02, 1.01554031e-02, 3.05869058e-03, 1.01956353e-03,
          7.55945966e-02 ]
      - [ 4.85168904e-01, 3.11498940e-01, 6.32155687e-02, 9.24043134e-02,
          4.85168904e-01, 4.85168904e-01, 1.92143917e-01, 3.88363302e-02,
          3.75491410e-01, 5.70791841e-01, 2.65092077e-03, 0.,
          6.27386523e-03, 5.70791841e-01, 1.28024712e-01, 2.02038791e-02,
          6.73462730e-03, 5.70791841e-01, 5.73367834e-01, 3.90621135e-03,
          1.17186345e-02, 8.34651068e-02, 5.73367834e-01, 2.63651833e-02,
          1.36913937e-02, 4.56379727e-03, 5.73367834e-01, 5.64938247e-01,
          1.51170539e-02, 4.53511663e-02, 5.63938543e-02, 5.64938247e-01,
          5.80282435e-02, 4.21111137e-02, 1.62132397e-01, 5.64938247e-01,
          1.96599066e-02, 5.13660051e-02, 4.01239842e-01, 5.73912740e-01,
          5.73912740e-01, 3.54515649e-02, 2.80134846e-02, 1.33886591e-01,
          3.89271080e-01, 5.54852068e-01, 5.54852068e-01, 2.45351285e-01,
          1.18999388e-02, 5.25846705e-03, 6.68510199e-02, 7.05698952e-02,
          3.25725637e-02, 5.54852068e-01, 7.04600871e-01, 6.44414406e-03,
          3.62604042e-04, 0., 0., 0., 0., 0., 7.04600871e-01,
          7.04615593e-01, 0., 0., 0., 0., 0., 0., 0., 7.04615593e-01,
          6.97729051e-01, 0., 0., 0., 2.32387381e-03, 6.71983347e-04,
          9.48885363e-03, 1.38878852e-01, 6.97729051e-01, 6.53296635e-02,
          3.30260992e-02, 4.83980149e-01, 4.83980149e-01, 9.09665897e-02,
          6.16313610e-03, 2.11062357e-01, 4.83980149e-01, 4.83980149e-01,
          4.40711826e-01, 4.40711826e-01, 4.40711826e-01, 4.40711826e-01,
          4.40711826e-01, 5.50055085e-03, 6.32272065e-02, 3.92481238e-02,
          1.37458369e-01, 5.61098695e-01, 6.20834017e-03, 2.07107840e-03,
          2.00592890e-01, 5.61098695e-01, 9.80885997e-02, 0., 0.,
          5.61098695e-01, 5.70930898e-01, 0., 0., 1.21392511e-01,
          5.70930898e-01, 4.09446210e-02, 0., 0., 5.70930898e-01,
          5.33236265e-01, 0., 0., 5.32815866e-02, 5.33236265e-01,
          3.50533724e-01, 5.86730465e-02, 1.11787893e-01, 5.33236265e-01,
          2.29672845e-02, 1.71175107e-01, 3.63331527e-01, 8.14027060e-03,
          1.83087006e-01, 4.83969420e-01, 4.83969420e-01, 4.83969420e-01,
          3.11547101e-01, 2.52931505e-01, 2.42085177e-02, 2.20068753e-01,
          5.68444610e-01, 5.68444610e-01, 5.70182782e-03, 3.45245637e-02,
          3.21523130e-01, 3.61210167e-01, 1.82391986e-01, 8.15350679e-04,
          4.57354938e-04, 1.64623812e-01, 9.24078882e-01, 2.06536129e-01,
          0., 0., 1.83937296e-01, 1.69257686e-01, 0., 0., 2.60472506e-01,
          9.32817101e-01, 7.69555643e-02, 0., 0., 1.34645760e-01,
          4.13657762e-02, 0., 0., 1.10416293e-01, 8.98190439e-01,
          3.83505881e-01, 4.13703099e-02, 4.85646911e-02, 1.38717920e-01,
          4.41489190e-01, 4.41489190e-01, 7.81091228e-02, 2.76568509e-03,
          4.41489190e-01, 4.41489190e-01, 4.41489190e-01, 4.24073152e-02,
          1.14540584e-01, 5.57827771e-01, 4.05887365e-02, 1.09108342e-02,
          1.96797669e-01, 2.95975238e-01, 0., 1.77404448e-01,
          4.60995018e-01, 5.57827771e-01, 5.74646354e-01, 9.13461670e-03,
          2.29099728e-02, 1.56703480e-02, 5.74646354e-01, 3.99384424e-02,
          3.22790630e-02, 1.07596871e-02, 5.74646354e-01, 5.73953569e-01,
          3.63436149e-04, 1.09030842e-03, 5.95535599e-02, 5.73953569e-01,
          1.78843178e-02, 4.38106097e-02, 1.46035366e-02, 5.73953569e-01,
          5.65894842e-01, 1.50659364e-02, 4.51978110e-02, 2.87076570e-02,
          5.65894842e-01, 6.87341243e-02, 1.07271321e-01, 1.19635299e-01,
          5.65894842e-01, 6.00988805e-01, 6.00988805e-01, 2.10973978e-01,
          7.73293199e-04, 1.48581848e-01, 1.56026408e-01, 2.13687457e-02,
          3.97011153e-02, 4.22681719e-01 ]
      - [ 4.64629173e-01, 4.64629173e-01, 4.51284414e-03, 9.71505865e-02,
          4.64629173e-01, 4.64629173e-01, 2.47865260e-01, 5.45750856e-02,
          2.40756720e-01, 5.72960436e-01, 1.63545515e-02, 8.29904992e-03,
          8.50427672e-02, 5.72960436e-01, 3.78503166e-02, 1.95912998e-02,
          6.53043389e-03, 5.72960436e-01, 5.75377166e-01, 6.58582617e-03,
          1.97574794e-02, 1.69889592e-02, 5.75377166e-01, 1.86074488e-02,
          2.88955122e-03, 9.63183818e-04, 5.75377166e-01, 5.70673823e-01,
          6.23042090e-03, 1.86912622e-02, 3.22301202e-02, 5.70673823e-01,
          2.73969509e-02, 1.12771206e-02, 1.22437805e-01, 5.70673823e-01,
          1.50145758e-02, 3.42169888e-02, 2.97607452e-01, 5.43403208e-01,
          5.43403208e-01, 3.97529192e-02, 7.74877220e-02, 2.33616278e-01,
          5.01868248e-01, 5.72193563e-01, 5.72193563e-01, 4.48424011e-01,
          2.02726889e-02, 1.45404851e-02, 9.24385041e-02, 1.57317281e-01,
          2.77162734e-02, 3.22035789e-01, 7.04179287e-01, 3.47372219e-02,
          2.57356791e-03, 0., 0., 0., 0., 4.51295776e-03, 7.04179287e-01,
          7.04615474e-01, 0., 0., 0., 0., 0., 0., 6.35604549e-04,
          7.04615474e-01, 6.89914465e-01, 0., 0., 0., 0., 7.31543463e-04,
          9.86932125e-03, 2.02610061e-01, 6.89914465e-01, 3.18758637e-02,
          2.67624855e-02, 4.04832840e-01, 4.69794899e-01, 2.67961007e-02,
          1.97182652e-02, 4.07991618e-01, 4.69794899e-01, 4.69794899e-01,
          2.92920381e-01, 4.73388255e-01, 4.73388255e-01, 4.73388255e-01,
          4.73388255e-01, 3.11265537e-03, 1.04099907e-01, 2.14385223e-02,
          4.21614647e-02, 3.82423490e-01, 3.74441035e-02, 5.17389970e-03,
          1.24524407e-01, 7.50650108e-01, 1.33124948e-01, 0.,
          7.35010812e-03, 4.98069078e-01, 4.89573419e-01, 0., 0.,
          6.15158081e-02, 7.22049415e-01, 3.86553258e-02, 0.,
          9.50247573e-04, 4.75894809e-01, 3.56486827e-01, 0., 0.,
          5.17097339e-02, 6.22353613e-01, 2.60916352e-01, 4.44980636e-02,
          1.39010057e-01, 6.22353613e-01, 8.21349211e-03, 2.13754237e-01,
          3.16392720e-01, 3.30828428e-02, 2.61836290e-01, 4.90724623e-01,
          4.90724623e-01, 4.90724623e-01, 2.39063531e-01, 3.32416296e-01,
          0., 4.03240085e-01, 4.71883029e-01, 4.71883029e-01,
          4.46899934e-03, 3.63240503e-02, 2.29833379e-01, 4.71883029e-01,
          2.01091707e-01, 0., 5.36567240e-04, 1.51704505e-01,
          8.79069984e-01, 2.51184434e-01, 0., 0., 3.03180873e-01,
          8.93221200e-02, 0., 0., 5.05546555e-02, 9.12081540e-01,
          1.80474848e-01, 0., 0., 3.40443760e-01, 1.34844109e-01, 0., 0.,
          7.64455870e-02, 9.14000452e-01, 3.05875689e-01, 9.45858750e-03,
          1.84046533e-02, 1.93569228e-01, 4.39016014e-01, 4.39016014e-01,
          1.03339680e-01, 2.95928922e-02, 4.39016014e-01, 4.39016014e-01,
          4.39016014e-01, 3.22190002e-02, 1.39091164e-01, 6.61378741e-01,
          0., 6.51224107e-02, 1.92566067e-01, 1.37773886e-01, 0.,
          1.17156804e-01, 2.11005896e-01, 6.61378741e-01, 5.79747081e-01,
          0., 9.52097180e-05, 2.42709965e-02, 5.61542273e-01,
          4.11506258e-02, 6.28240556e-02, 2.09413487e-02, 5.79747081e-01,
          5.73966444e-01, 8.96608341e-04, 2.68982514e-03, 1.85141305e-03,
          5.73966444e-01, 5.08044884e-02, 5.50216325e-02, 1.83405466e-02,
          5.73966444e-01, 5.74389160e-01, 9.20028239e-03, 2.76008472e-02,
          5.74220018e-03, 5.74389160e-01, 4.60593812e-02, 1.28522031e-02,
          3.64625938e-02, 5.74389160e-01, 5.49734354e-01, 5.49734354e-01,
          2.22686380e-01, 0., 1.04018047e-01, 1.60150662e-01,
          2.14862656e-02, 3.69840749e-02, 5.49734354e-01 ]
      - [ 4.81793165e-01, 4.81793165e-01, 2.15414926e-01, 1.29708186e-01,
          4.81793165e-01, 4.81793165e-01, 3.34092639e-02, 1.09824473e-02,
          4.71666194e-02, 5.63764989e-01, 1.00214906e-01, 2.73677539e-02,
          1.68171138e-01, 5.63764989e-01, 4.21627685e-02, 4.87150671e-03,
          1.62383576e-03, 5.63764989e-01, 5.66038787e-01, 4.38940059e-03,
          1.31682018e-02, 1.80464923e-01, 5.66038787e-01, 1.54818827e-02,
          3.43527668e-03, 1.16710588e-02, 5.66038787e-01, 5.41113794e-01,
          7.22200004e-03, 2.16660015e-02, 5.74271418e-02, 5.41113794e-01,
          1.93916500e-01, 1.01129539e-01, 2.54034251e-01, 5.41113794e-01,
          2.98402533e-02, 4.30995449e-02, 4.69645500e-01, 5.61898887e-01,
          5.61898887e-01, 4.22604792e-02, 1.83227491e-02, 1.24943271e-01,
          3.49114478e-01, 5.55033386e-01, 5.55033386e-01, 5.55033386e-01,
          1.97913498e-02, 1.79980278e-01, 1.61398858e-01, 8.83325934e-03,
          0., 1.06579386e-01, 7.00355709e-01, 1.09210454e-01,
          9.23363958e-03, 4.30776010e-04, 0., 0., 0., 0., 7.00355709e-01,
          7.04497159e-01, 1.81709304e-02, 0., 0., 0., 0., 0.,
          2.20433017e-03, 7.04497159e-01, 6.94196880e-01, 0., 0., 0.,
          3.51248612e-03, 1.29656598e-03, 1.42136831e-02, 1.70398235e-01,
          6.94196880e-01, 8.21577460e-02, 8.93372810e-04, 4.90331024e-01,
          4.90331024e-01, 9.42811891e-02, 1.08386520e-02, 1.32844076e-01,
          4.90331024e-01, 4.90331024e-01, 2.25757629e-01, 5.34806550e-01,
          5.34806550e-01, 5.34806550e-01, 2.90178865e-01, 1.60474777e-02,
          7.73924263e-03, 2.09701844e-02, 2.60293633e-02, 6.18631065e-01,
          8.65306929e-02, 4.27718833e-02, 2.87530333e-01, 6.18631065e-01,
          8.16508234e-02, 0., 0., 3.60217929e-01, 5.79710960e-01,
          2.63353214e-02, 0., 2.79451191e-01, 5.79710960e-01,
          1.29103113e-03, 0., 0., 4.93248105e-01, 4.92696136e-01, 0., 0.,
          4.54357594e-01, 4.92696136e-01, 2.00600579e-01, 6.05591461e-02,
          1.28381819e-01, 4.92696136e-01, 2.54082736e-02, 1.39013603e-01,
          3.82922500e-01, 6.37689307e-02, 1.42350838e-01, 4.89125729e-01,
          4.89125729e-01, 4.89125729e-01, 2.94028401e-01, 2.33050853e-01,
          1.30937964e-01, 5.22646666e-01, 5.22646666e-01, 5.22646666e-01,
          6.84068911e-03, 0., 1.10675447e-01, 3.02569687e-01,
          1.00959487e-01, 4.28287685e-02, 1.91370454e-02, 4.05643106e-01,
          8.98488343e-01, 8.22013319e-02, 0., 0., 7.55758351e-03,
          4.77104858e-02, 1.05226517e-03, 0., 4.46754247e-01,
          8.87449384e-01, 1.13634989e-02, 1.56540168e-03, 0.,
          3.97524871e-02, 1.14194809e-05, 0., 0., 6.41094863e-01,
          6.94777668e-01, 3.14593941e-01, 1.88048091e-02, 4.76276129e-03,
          2.81140645e-04, 3.41444135e-01, 4.84336913e-01, 1.12661496e-01,
          3.06906365e-02, 3.89046043e-01, 4.84336913e-01, 4.84336913e-01,
          9.33476463e-02, 3.35630476e-02, 5.93531311e-01, 2.71189779e-01,
          1.84578344e-01, 3.92084032e-01, 1.45150408e-01, 0., 0.,
          8.42804238e-02, 5.93531311e-01, 5.68962276e-01, 1.05116040e-01,
          8.23627859e-02, 7.29624629e-02, 5.68962276e-01, 0.,
          2.63965479e-03, 8.79885047e-04, 5.68962276e-01, 5.70084155e-01,
          7.35118613e-03, 1.52057009e-02, 1.31725907e-01, 5.70084155e-01,
          2.38221809e-02, 3.20029333e-02, 9.53573175e-03, 5.70084155e-01,
          5.31711519e-01, 1.36843920e-02, 4.10531797e-02, 3.45344514e-01,
          5.31711519e-01, 1.56520382e-01, 2.51442865e-02, 1.64977480e-02,
          5.31711519e-01, 5.31909049e-01, 5.31909049e-01, 2.04401895e-01,
          7.13098422e-03, 8.63877684e-02, 4.09427494e-01, 7.28995502e-02,
          7.28648379e-02, 4.48648125e-01 ]
      - [ 1.30654916e-01, 6.72477111e-02, 1.63724534e-02, 0.,
          6.96241856e-01, 6.96241856e-01, 3.73114310e-02, 8.82776361e-03,
          1.46006625e-02, 4.59518582e-01, 7.83364754e-03, 2.54706451e-04,
          0., 5.74208856e-01, 5.74208856e-01, 3.75647992e-02,
          1.25216022e-02, 3.49353820e-01, 4.97407496e-01, 3.15220356e-02,
          0., 3.01166736e-02, 4.97407496e-01, 4.97407496e-01,
          5.59213012e-02, 1.86404362e-02, 4.97407496e-01, 5.61005831e-01,
          6.59075193e-03, 3.32052889e-03, 8.49728845e-03, 5.61005831e-01,
          1.94490343e-01, 4.65587340e-02, 1.00470103e-01, 5.61005831e-01,
          6.40527830e-02, 3.64101790e-02, 4.42588896e-01, 4.53416198e-01,
          4.53416198e-01, 4.08361256e-02, 4.54874290e-03, 4.19178635e-01,
          4.53416198e-01, 4.94152874e-01, 4.94152874e-01, 2.00549308e-02,
          0., 4.94152874e-01, 4.94152874e-01, 8.94160420e-02,
          7.77418353e-03, 9.92902219e-02, 6.65824234e-01, 2.19164230e-02,
          3.83634528e-04, 0., 3.22031260e-01, 5.02442233e-02, 0., 0.,
          6.65824234e-01, 7.02606738e-01, 8.13908409e-03, 0.,
          7.77621614e-03, 7.30388388e-02, 1.45759694e-02, 0., 0.,
          7.02606738e-01, 7.01168418e-01, 1.33758353e-03, 0.,
          1.53156841e-04, 2.83256435e-04, 0., 4.53035422e-02,
          8.75899270e-02, 7.01168418e-01, 1.21631630e-01, 2.29240302e-02,
          4.53968048e-01, 3.90409261e-01, 5.81232756e-02, 0.,
          4.53968048e-01, 4.53968048e-01, 4.53968048e-01, 4.71189022e-01,
          4.71189022e-01, 4.71189022e-01, 4.71189022e-01, 2.86405087e-01,
          4.66266274e-02, 1.35555327e-01, 4.22517024e-02, 5.34297042e-02,
          5.33813298e-01, 2.88539585e-02, 6.16050623e-02, 1.96258605e-01,
          5.33813298e-01, 3.10892254e-01, 0., 0., 5.33813298e-01,
          5.11749268e-01, 0., 0., 1.03720231e-03, 5.11749268e-01,
          4.57412392e-01, 0., 0., 5.11749268e-01, 3.78615260e-01, 0., 0.,
          0., 5.72277665e-01, 5.72277665e-01, 5.26032113e-02,
          2.72548571e-02, 4.38660026e-01, 4.39375266e-02, 4.15565610e-01,
          1.95385560e-01, 6.72485726e-03, 4.16733712e-01, 4.43035126e-01,
          4.43035126e-01, 4.43035126e-01, 1.42200977e-01, 2.81943344e-02,
          1.40752152e-01, 5.39855242e-01, 5.39855242e-01, 5.39855242e-01,
          4.87648211e-02, 1.02253832e-01, 2.48081118e-01, 1.59039751e-01,
          7.17626289e-02, 4.06079367e-03, 1.51096079e-02, 1.06219158e-01,
          7.87427962e-01, 5.83013475e-01, 2.53456389e-03, 6.23455364e-03,
          1.24383442e-01, 3.58299702e-01, 0., 0., 2.75177474e-04,
          6.62376761e-01, 6.15528941e-01, 0., 0., 2.17691913e-01,
          5.39747477e-01, 0., 0., 0., 5.39747477e-01, 5.39747477e-01,
          2.21783910e-02, 8.22424050e-03, 3.46508861e-01, 5.03217936e-01,
          5.03217936e-01, 1.88721810e-02, 0., 4.08549219e-01,
          5.03217936e-01, 1.38526112e-01, 8.16874877e-02, 2.05325097e-01,
          4.63983357e-01, 6.39179768e-03, 1.06160097e-01, 4.63983357e-01,
          3.72070581e-01, 1.12066222e-02, 1.59759060e-01, 4.17286456e-01,
          4.63983357e-01, 5.65890253e-01, 4.06028256e-02, 1.23646259e-01,
          5.15126139e-02, 5.65890253e-01, 1.17892101e-01, 5.13838371e-03,
          1.17573645e-02, 5.65890253e-01, 6.03842914e-01, 2.58558355e-02,
          7.75675103e-02, 0., 5.02034903e-01, 7.74209052e-02, 0., 0.,
          6.03842914e-01, 6.86021566e-01, 1.15715135e-02, 3.47145386e-02,
          0., 2.21428961e-01, 3.72334309e-02, 1.13029554e-02,
          4.08077287e-03, 6.86021566e-01, 6.63955390e-01, 5.31476915e-01,
          1.94317456e-02, 0., 6.73157675e-03, 8.89373012e-03,
          3.10874525e-02, 3.22242007e-02, 5.17262161e-01 ]
      - [ 2.49156468e-02, 3.26022282e-02, 0., 2.15671174e-02,
          7.03743875e-01, 7.03743875e-01, 1.70827452e-02, 4.45860857e-03,
          1.95309159e-03, 3.00494075e-01, 1.06592886e-02, 0.,
          4.44756268e-04, 8.01746547e-01, 4.96252120e-01, 3.39702554e-02,
          1.13234185e-02, 1.06028937e-01, 5.53053379e-01, 0., 0., 0.,
          5.53053379e-01, 5.53053379e-01, 7.61560872e-02, 2.98943501e-02,
          2.64914364e-01, 4.91025686e-01, 5.26101282e-03, 9.62920580e-03,
          4.57946919e-02, 4.91025686e-01, 4.91025686e-01, 1.14166230e-01,
          1.24174841e-01, 4.91025686e-01, 9.28786248e-02, 6.15512617e-02,
          4.30687904e-01, 5.11400521e-01, 5.11400521e-01, 9.22251679e-03,
          2.41582165e-03, 1.10919826e-01, 5.11400521e-01, 4.80985612e-01,
          4.80985612e-01, 0., 2.89480686e-02, 4.80985612e-01,
          4.80985612e-01, 8.84662345e-02, 1.49272587e-02, 2.46820331e-01,
          6.02849841e-01, 1.88086536e-02, 0., 5.30861958e-04,
          5.14212012e-01, 4.85462099e-02, 0., 0., 6.02849841e-01,
          6.89024806e-01, 0., 0., 0., 1.99009851e-01, 6.32712692e-02,
          1.00347539e-03, 1.43273000e-03, 6.89024806e-01, 7.01412141e-01,
          5.32823382e-04, 2.16611530e-04, 0., 1.80547440e-03,
          1.32424552e-02, 2.50162054e-02, 9.07501057e-02, 7.01412141e-01,
          1.88024387e-01, 2.67990902e-02, 4.15196270e-01, 4.43062365e-01,
          4.35664766e-02, 0., 4.43062365e-01, 4.43062365e-01,
          4.43062365e-01, 4.80778366e-01, 4.80778366e-01, 4.25426334e-01,
          4.80778366e-01, 2.66290158e-01, 5.06935008e-02, 1.15269676e-01,
          4.05140929e-02, 1.79883897e-01, 5.67044199e-01, 4.45879325e-02,
          3.33416648e-03, 4.57893535e-02, 5.67044199e-01, 1.60076499e-01,
          0., 0., 5.67044199e-01, 4.98750925e-01, 3.50008399e-04,
          3.28585847e-05, 2.94497423e-03, 4.98750925e-01, 4.98750925e-01,
          0., 0., 4.98750925e-01, 4.59116280e-01, 0., 0., 0.,
          5.13805151e-01, 5.13805151e-01, 2.77129728e-02, 5.23697920e-02,
          5.02572060e-01, 3.82095575e-02, 3.44972849e-01, 2.40535572e-01,
          6.23026211e-03, 3.34325880e-01, 4.73270565e-01, 4.73270565e-01,
          4.73270565e-01, 1.82157874e-01, 3.67943458e-02, 2.95031339e-01,
          4.74397540e-01, 5.65877378e-01, 5.65877378e-01, 4.01555933e-02,
          9.69891995e-02, 1.39256090e-01, 1.00264899e-01, 2.34540440e-02,
          8.85656383e-03, 7.73531734e-04, 4.60008681e-02, 8.83202970e-01,
          4.56450552e-01, 0., 0., 6.91004423e-03, 1.49186030e-01,
          2.42964234e-02, 8.95730045e-06, 1.31310206e-02, 6.96415365e-01,
          6.96415365e-01, 0., 0., 6.32812548e-03, 5.17043889e-01,
          6.45994442e-04, 0., 0., 5.63411474e-01, 5.63411474e-01,
          1.59590244e-02, 8.35569110e-03, 3.03066969e-01, 5.26911855e-01,
          5.26911855e-01, 8.59585926e-02, 0., 3.24395537e-01,
          5.26911855e-01, 5.69953583e-02, 7.84780905e-02, 1.99501872e-01,
          4.48393553e-01, 3.61353271e-02, 6.90023080e-02, 4.48393553e-01,
          4.48393553e-01, 8.34977627e-03, 2.34322384e-01, 3.60901892e-01,
          4.48393553e-01, 5.48444569e-01, 5.99862821e-02, 1.79958835e-01,
          1.90233774e-02, 5.48444569e-01, 2.35829979e-01, 1.29965562e-02,
          4.33218572e-03, 5.48444569e-01, 5.56502223e-01, 8.52387920e-02,
          1.26921713e-01, 2.18697265e-02, 5.56502223e-01, 2.03729063e-01,
          0., 0., 5.56502223e-01, 6.76294446e-01, 2.71220952e-02,
          7.78017864e-02, 0., 2.56064892e-01, 6.87765032e-02,
          3.52820642e-02, 1.29319569e-02, 6.76294446e-01, 8.16271484e-01,
          4.77335572e-01, 3.30370814e-02, 0., 7.96841271e-03,
          1.98170617e-02, 1.52722280e-02, 3.07390150e-02, 3.08187813e-01 ]
      - [ 5.86578483e-03, 3.05936788e-03, 8.10339451e-02, 1.16722152e-01,
          6.89400077e-01, 6.89400077e-01, 5.10506965e-02, 9.52561572e-02,
          1.03241563e-01, 4.85790640e-01, 2.35758792e-03, 7.97530264e-03,
          4.44675155e-04, 5.83583176e-01, 5.83583176e-01, 1.77038088e-02,
          2.94243395e-02, 2.75305271e-01, 4.97984499e-01, 0., 0., 0.,
          4.97984499e-01, 4.97984499e-01, 5.16685210e-02, 2.00625435e-02,
          4.97984499e-01, 5.29281914e-01, 3.09177837e-03, 9.27533582e-03,
          1.18348459e-02, 5.29281914e-01, 3.81837964e-01, 7.25709945e-02,
          5.47160879e-02, 5.29281914e-01, 2.23534971e-01, 3.58843654e-02,
          3.87796670e-01, 5.00805795e-01, 5.00805795e-01, 4.80140336e-02,
          1.96965579e-02, 1.95560053e-01, 5.00805795e-01, 4.31623667e-01,
          4.31623667e-01, 7.67546594e-02, 1.24679774e-01, 4.31623667e-01,
          4.31623667e-01, 1.81916773e-01, 9.83032286e-02, 4.31623667e-01,
          6.43556476e-01, 7.59721501e-03, 1.32601813e-03, 6.53320982e-04,
          3.84176642e-01, 1.28058523e-01, 0., 3.45603190e-02,
          6.43556476e-01, 7.01030076e-01, 0., 0., 0., 8.56774375e-02,
          5.24147227e-02, 4.71087499e-03, 2.39948649e-03, 7.01030076e-01,
          7.03714848e-01, 0., 0., 0., 4.80496325e-03, 3.02006188e-03,
          2.34983377e-02, 4.42910343e-02, 7.03714848e-01, 2.95929104e-01,
          2.55040247e-02, 3.43271732e-01, 3.79292697e-01, 3.08625605e-02,
          5.94223151e-03, 4.63486731e-01, 4.63486731e-01, 4.63486731e-01,
          4.58193600e-01, 4.58193600e-01, 4.58193600e-01, 4.58193600e-01,
          1.82632357e-01, 5.67965396e-02, 1.24941781e-01, 7.26181967e-03,
          3.21580887e-01, 5.47625422e-01, 1.54505884e-02, 3.79135902e-03,
          1.80695299e-02, 5.47625422e-01, 3.07035625e-01, 0., 0.,
          5.47625422e-01, 5.26479542e-01, 0., 0., 1.74947418e-02,
          5.26479542e-01, 4.03601259e-01, 0., 0., 5.26479542e-01,
          4.54466105e-01, 0., 0., 1.62602868e-03, 5.24761021e-01,
          5.24761021e-01, 2.84189619e-02, 1.87721532e-02, 4.86116052e-01,
          4.57263775e-02, 3.14144552e-01, 1.74506888e-01, 8.10174271e-03,
          4.60573882e-01, 4.60573882e-01, 4.60573882e-01, 4.60573882e-01,
          1.24861844e-01, 2.40609068e-02, 1.31602645e-01, 5.59553564e-01,
          5.59553564e-01, 5.59553564e-01, 2.19362415e-02, 4.33620326e-02,
          1.49572939e-01, 1.11714996e-01, 1.66441277e-02, 1.37503550e-03,
          9.78145865e-04, 1.23737007e-01, 8.06291223e-01, 5.68888366e-01,
          6.61566446e-04, 0., 5.12129255e-02, 5.17279608e-04, 0., 0.,
          1.78799294e-02, 6.99372709e-01, 6.99372709e-01, 6.87698927e-03,
          4.08082791e-02, 1.12878114e-01, 4.84329462e-01, 0., 0.,
          3.65248503e-04, 5.62985599e-01, 5.62985599e-01, 0.,
          2.85074096e-02, 3.53672862e-01, 4.86582816e-01, 4.86582816e-01,
          2.70724390e-02, 0., 4.86582816e-01, 4.86582816e-01,
          1.45840824e-01, 4.44446951e-02, 1.55276880e-01, 4.47171271e-01,
          7.46806501e-04, 5.89291528e-02, 4.47171271e-01, 4.47171271e-01,
          2.19896156e-03, 1.08782090e-01, 4.24703598e-01, 4.47171271e-01,
          5.61477602e-01, 4.22900915e-02, 1.26870260e-01, 1.42762244e-01,
          5.61477602e-01, 1.01634450e-01, 5.01716556e-03, 1.31848769e-03,
          5.61477602e-01, 5.60001791e-01, 1.40649341e-02, 4.21948060e-02,
          2.57002506e-02, 5.60001791e-01, 2.12401241e-01, 1.83729939e-02,
          7.42381141e-02, 5.60001791e-01, 6.52400911e-01, 1.06452294e-02,
          3.19356844e-02, 0., 2.56872594e-01, 2.71082193e-01,
          7.46358783e-05, 4.03777920e-02, 6.52400911e-01, 6.58420384e-01,
          3.73795122e-01, 2.10783966e-02, 0., 8.76224693e-03,
          2.67138891e-02, 2.15907767e-02, 2.06121523e-02, 6.46576285e-01 ]
      - [ 4.37069029e-01, 7.84475543e-03, 7.97276758e-03, 1.06705176e-02,
          4.37069029e-01, 4.37069029e-01, 4.37069029e-01, 2.00619936e-01,
          4.37069029e-01, 5.48374653e-01, 7.98637569e-02, 1.35952100e-01,
          2.51991808e-01, 5.48374653e-01, 6.32135868e-02, 1.76601097e-04,
          4.71892674e-03, 5.48374653e-01, 3.58413815e-01, 2.31113490e-02,
          7.00564906e-02, 4.45675939e-01, 5.74166179e-01, 4.90247607e-02,
          0., 0., 5.74166179e-01, 2.08071038e-01, 8.16186704e-03,
          2.44856030e-02, 5.33819377e-01, 7.30115712e-01, 0.,
          2.78749620e-03, 9.02442727e-03, 3.61429274e-01, 5.67870634e-03,
          5.82841970e-03, 2.30671659e-01, 6.85288548e-01, 6.85288548e-01,
          0., 1.23043135e-02, 1.32792732e-02, 1.77465826e-02,
          5.36270559e-01, 4.43243593e-01, 4.04200464e-01, 2.24275906e-02,
          5.16969105e-03, 4.98091765e-02, 2.16780677e-01, 9.81058031e-02,
          5.36270559e-01, 7.04029739e-01, 1.61362216e-02, 2.18251031e-02,
          6.30904548e-03, 2.67252419e-02, 1.28339520e-02, 0.,
          9.99972108e-04, 7.04029739e-01, 6.81082785e-01, 0.,
          2.02450567e-04, 1.53977843e-02, 2.55004525e-01, 1.37382261e-02,
          0., 0., 6.81082785e-01, 6.29009485e-01, 0., 0., 9.30119753e-02,
          4.12268341e-01, 0., 3.66591685e-03, 1.54220939e-01,
          6.29009485e-01, 1.64086111e-02, 2.82772072e-02, 4.83376473e-01,
          4.83376473e-01, 2.43873507e-01, 0., 4.20325110e-03,
          4.83376473e-01, 4.83376473e-01, 4.58956838e-01, 2.76693404e-01,
          4.69851345e-01, 4.69851345e-01, 4.69851345e-01, 1.50255514e-02,
          1.25911936e-01, 2.68721078e-02, 1.70363709e-01, 5.09786487e-01,
          2.91331741e-03, 2.79692770e-03, 4.63945717e-01, 5.09786487e-01,
          0., 0., 0., 5.09786487e-01, 5.56672096e-01, 0., 1.21562078e-03,
          2.50717729e-01, 5.56672096e-01, 4.39165123e-02, 0., 0.,
          5.56672096e-01, 5.07352710e-01, 2.67351177e-02, 1.18786758e-02,
          1.58499449e-01, 5.07352710e-01, 1.39970198e-01, 4.93746214e-02,
          4.17977661e-01, 5.07352710e-01, 1.69870153e-01, 2.03900591e-01,
          4.51872677e-01, 1.88319325e-01, 9.12620202e-02, 2.53981143e-01,
          4.51872677e-01, 4.51872677e-01, 4.51872677e-01, 6.40750900e-02,
          0., 2.94552650e-02, 4.94927615e-01, 4.94927615e-01,
          1.58958305e-02, 1.00087166e-01, 4.94927615e-01, 4.94927615e-01,
          5.09300120e-02, 0., 0., 7.02912152e-01, 7.02912152e-01,
          1.40736587e-02, 1.05231814e-03, 4.00250964e-03, 4.47563753e-02,
          0., 0., 2.72462697e-04, 5.35382926e-01, 8.39149594e-01,
          2.86200754e-02, 1.55619724e-04, 6.72899259e-05, 4.04151178e-05,
          3.63470963e-03, 6.05168799e-03, 2.68882420e-03, 3.76616299e-01,
          8.90706360e-01, 2.27810085e-01, 2.33137216e-02, 5.83475679e-02,
          3.55459168e-03, 1.31825417e-01, 4.23998266e-01, 2.34590605e-01,
          1.55296728e-01, 4.23998266e-01, 4.23998266e-01, 4.23998266e-01,
          4.23998266e-01, 1.90805327e-02, 3.14483345e-01, 0., 0.,
          8.18039030e-02, 1.20097019e-01, 0., 1.59435168e-01,
          6.46848857e-01, 6.55445218e-01, 5.63112140e-01, 0., 0.,
          1.56081304e-01, 5.63112140e-01, 3.17659341e-02, 1.23596348e-01,
          4.94411886e-02, 5.63112140e-01, 5.62580287e-01, 0., 0.,
          1.60895601e-01, 5.62580287e-01, 4.00179774e-02, 1.25142470e-01,
          4.17470112e-02, 5.62580287e-01, 5.62727392e-01, 2.62534320e-02,
          2.19228063e-02, 1.92479968e-01, 5.62727392e-01, 3.82992402e-02,
          6.51002079e-02, 2.17000712e-02, 5.62727392e-01, 5.07183075e-01,
          5.07183075e-01, 4.47316319e-01, 2.01163217e-01, 4.60549951e-01,
          1.61906257e-01, 4.64882440e-04, 1.54960813e-04, 3.98332924e-02 ]
      - [ 5.28498828e-01, 2.57279336e-01, 1.98688172e-02, 8.87633339e-02,
          5.28498828e-01, 5.28498828e-01, 1.78551823e-01, 3.06538381e-02,
          2.22490951e-01, 5.58767200e-01, 1.54753281e-02, 2.84058843e-02,
          2.37312794e-01, 5.58767200e-01, 1.57532245e-02, 1.14595145e-02,
          3.81983817e-03, 5.58767200e-01, 3.87799799e-01, 1.05482442e-02,
          3.16447355e-02, 3.09893519e-01, 6.10886753e-01, 2.00444658e-04,
          1.15489514e-04, 3.84965024e-05, 6.10886753e-01, 2.71327585e-01,
          9.04615503e-03, 2.71384642e-02, 3.43445659e-01, 7.73848951e-01,
          1.37511007e-02, 2.11358839e-03, 8.68429244e-03, 4.48077500e-01,
          1.23024834e-02, 1.55343190e-02, 1.70928508e-01, 6.89973295e-01,
          6.89973295e-01, 1.36769004e-02, 2.10218341e-03, 6.69250339e-02,
          8.18919092e-02, 4.81834024e-01, 4.81834024e-01, 4.24738169e-01,
          5.56037005e-04, 3.13583799e-02, 3.13675374e-01, 1.36530682e-01,
          1.66207999e-02, 4.81834024e-01, 7.03125715e-01, 2.74711270e-02,
          5.48498146e-03, 2.59793624e-02, 5.24389856e-02, 1.39116106e-04,
          0., 0., 7.03125715e-01, 6.89362764e-01, 0., 0., 2.54528709e-02,
          2.05008388e-01, 0., 0., 0., 6.89362764e-01, 6.56389892e-01, 0.,
          0., 2.67047677e-02, 3.56694788e-01, 3.28709907e-03, 0.,
          6.16154410e-02, 6.56389892e-01, 1.17176689e-01, 2.13572700e-02,
          4.22181249e-01, 4.42530394e-01, 4.42530394e-01, 3.90112284e-03,
          1.40741780e-01, 4.42530394e-01, 4.42530394e-01, 2.89024651e-01,
          4.67636675e-01, 4.67636675e-01, 4.67636675e-01, 4.67636675e-01,
          5.05342288e-03, 9.91086438e-02, 1.17871299e-01, 1.15393989e-01,
          5.62134326e-01, 2.48146765e-02, 8.99952557e-03, 1.93453491e-01,
          5.62134326e-01, 9.09970403e-02, 0., 0., 5.62134326e-01,
          5.39582431e-01, 0., 0., 3.48085493e-01, 5.39582431e-01,
          6.12874865e-04, 0., 0., 5.39582431e-01, 5.36264420e-01, 0.,
          1.08632976e-02, 2.97291905e-01, 5.36264420e-01, 1.06402799e-01,
          9.28023309e-02, 1.53204158e-01, 5.36264420e-01, 3.75146084e-02,
          1.15198754e-01, 4.07748371e-01, 6.26607388e-02, 1.42498627e-01,
          4.01272416e-01, 4.59107935e-01, 4.59107935e-01, 4.55703229e-01,
          1.59213275e-01, 0., 3.45901668e-01, 4.60888386e-01,
          4.60888386e-01, 4.22449131e-03, 2.66351644e-02, 4.60888386e-01,
          4.60888386e-01, 3.33796263e-01, 0., 1.51721656e-03,
          2.76554048e-01, 8.56582582e-01, 1.18504584e-01, 0.,
          1.41677388e-03, 2.36154988e-01, 2.40933038e-02, 0., 0.,
          3.58569533e-01, 9.08273339e-01, 1.10354007e-03, 0.,
          2.47711428e-02, 1.90289214e-01, 4.92364867e-03, 0.,
          2.65952526e-03, 5.15090227e-01, 8.14032376e-01, 2.43680865e-01,
          5.37461676e-02, 3.86693850e-02, 1.06696282e-02, 3.24207485e-01,
          4.52908754e-01, 2.26572707e-01, 2.45949309e-02, 4.52908754e-01,
          4.52908754e-01, 4.52908754e-01, 1.27177313e-01, 4.17871587e-02,
          5.65015972e-01, 0., 0., 9.71347243e-02, 1.31428078e-01, 0.,
          9.96003225e-02, 5.65015972e-01, 5.65015972e-01, 5.91575861e-01,
          0., 0., 3.27777341e-02, 5.35992324e-01, 1.53292567e-02,
          7.01163262e-02, 2.56019179e-02, 5.91575861e-01, 5.71055830e-01,
          0., 0., 2.13967897e-02, 5.71055830e-01, 2.84840818e-04,
          9.78184864e-02, 7.71831349e-02, 5.71055830e-01, 5.53160429e-01,
          1.65041391e-04, 4.95124143e-04, 9.84776095e-02, 5.53160429e-01,
          1.80825114e-01, 1.64480418e-01, 8.40659067e-02, 5.53160429e-01,
          4.91056263e-01, 4.91056263e-01, 2.84145087e-01, 4.16506315e-03,
          2.04472125e-01, 3.71739864e-01, 1.04542747e-01, 1.50149455e-03,
          4.91056263e-01 ]
      - [ 5.14776468e-01, 1.11307502e-01, 0., 1.25995576e-01,
          5.82809508e-01, 5.82809508e-01, 9.64542925e-02, 2.02208776e-02,
          1.08973511e-01, 5.10694087e-01, 1.96497058e-04, 0.,
          1.34928981e-02, 5.10694087e-01, 4.59566057e-01, 3.13368440e-02,
          1.04456153e-02, 5.10694087e-01, 5.69459498e-01, 5.56067447e-04,
          1.66820246e-03, 2.25935914e-02, 5.69459498e-01, 1.41848445e-01,
          2.72765700e-02, 9.09218844e-03, 5.69459498e-01, 5.62154114e-01,
          2.63231737e-03, 7.89695326e-03, 5.50038368e-02, 5.62154114e-01,
          1.98647201e-01, 6.03160113e-02, 1.18848644e-02, 5.62154114e-01,
          4.92841229e-02, 3.20553407e-02, 3.90644044e-01, 5.12210369e-01,
          5.12210369e-01, 1.90120548e-01, 1.25011608e-01, 1.65836275e-01,
          4.84593660e-01, 5.59420764e-01, 5.59420764e-01, 0.,
          3.12006231e-02, 2.37886414e-01, 2.23114163e-01, 7.58238584e-02,
          2.18495559e-02, 5.04916489e-01, 6.96811497e-01, 2.01276504e-03,
          0., 3.74618638e-03, 1.33381248e-01, 6.43657371e-02, 0., 0.,
          6.96811497e-01, 6.99690998e-01, 0., 0., 4.08524834e-03,
          1.17178962e-01, 1.15252454e-02, 0., 0., 6.99690998e-01,
          7.00262964e-01, 0., 0., 0., 9.62930471e-02, 1.93155762e-02,
          1.21898176e-02, 4.97939624e-02, 7.00262964e-01, 1.97497562e-01,
          1.83971599e-03, 3.80370200e-01, 4.84216422e-01, 8.84604007e-02,
          2.41559781e-02, 3.15702647e-01, 4.84216422e-01, 4.84216422e-01,
          4.31114584e-01, 4.31114584e-01, 4.31114584e-01, 4.31114584e-01,
          4.31114584e-01, 7.39126373e-03, 6.74229413e-02, 2.48448551e-02,
          2.47339681e-01, 5.60824811e-01, 5.96005097e-03, 1.21945273e-02,
          1.66665167e-02, 5.60824811e-01, 2.24420071e-01, 0., 0.,
          5.60824811e-01, 5.37339389e-01, 0., 0., 1.72716640e-02,
          5.37339389e-01, 3.57959330e-01, 0., 0., 5.37339389e-01,
          5.60800374e-01, 0., 0., 7.96823651e-02, 5.60800374e-01,
          2.03935668e-01, 3.13455164e-02, 4.45785820e-02, 5.60800374e-01,
          8.08880329e-02, 1.22236677e-01, 2.48371914e-01, 2.04856619e-02,
          2.77753115e-01, 4.75764662e-01, 4.75764662e-01, 4.75764662e-01,
          3.94274354e-01, 3.31991748e-03, 6.17688522e-02, 5.66784382e-01,
          5.70234835e-01, 5.70234835e-01, 3.80560644e-02, 5.91457598e-02,
          1.10144608e-01, 4.26737927e-02, 0., 4.72819782e-04,
          2.37636850e-03, 2.81743538e-02, 9.15797651e-01, 3.89073282e-01,
          0., 0., 0., 0., 0., 0., 3.66694084e-03, 8.73892963e-01,
          4.77051049e-01, 0., 0., 0., 0., 0., 0., 1.81029681e-02,
          8.59226227e-01, 5.02627254e-01, 1.36599978e-02, 2.80728634e-03,
          0., 3.96099478e-01, 4.56304282e-01, 6.49880990e-02,
          1.10360200e-03, 4.56304282e-01, 4.56304282e-01, 4.56304282e-01,
          2.65654065e-02, 2.76166331e-02, 4.40971673e-01, 5.73736848e-03,
          2.51926258e-02, 4.40971673e-01, 4.40971673e-01, 4.21039425e-02,
          1.83073357e-01, 4.26397711e-01, 4.40971673e-01, 5.61595500e-01,
          2.69018696e-04, 8.07056145e-04, 1.76224988e-02, 5.61595500e-01,
          2.17429042e-01, 2.39397436e-02, 7.97991455e-03, 5.61595500e-01,
          5.58367968e-01, 5.01625240e-03, 1.50487563e-02, 0.,
          5.58367968e-01, 2.42261961e-01, 1.18971430e-02, 3.96571402e-03,
          5.58367968e-01, 5.47757328e-01, 1.69048086e-02, 5.07144220e-02,
          0., 5.47757328e-01, 3.01692128e-01, 2.15460192e-02,
          8.68570339e-03, 5.47757328e-01, 5.35468042e-01, 5.35468042e-01,
          2.38625616e-01, 0., 1.63595781e-01, 2.95054048e-01,
          4.96453755e-02, 4.03374098e-02, 4.96332496e-01 ]
      - [ 2.94832230e-01, 5.93578517e-02, 1.80882378e-03, 0.,
          6.66078746e-01, 6.66078746e-01, 7.98174590e-02, 1.60999373e-02,
          9.45824161e-02, 5.77175200e-01, 1.67331647e-03, 2.04264559e-03,
          5.78279980e-02, 5.86699903e-01, 4.36958134e-01, 4.13239785e-02,
          1.37746595e-02, 3.47293705e-01, 5.38624108e-01, 5.97233651e-04,
          1.79170107e-03, 6.92914752e-03, 5.38624108e-01, 3.45546842e-01,
          6.60348013e-02, 2.14121416e-02, 5.38624108e-01, 5.69864035e-01,
          6.55273441e-04, 1.96582032e-03, 2.81670913e-02, 5.69864035e-01,
          1.27226055e-01, 3.37011330e-02, 4.42097597e-02, 5.69864035e-01,
          1.94388300e-01, 2.68483572e-02, 2.52700865e-01, 5.29336512e-01,
          5.29336512e-01, 3.01357526e-02, 6.74826046e-03, 2.25395545e-01,
          5.29336512e-01, 4.80559647e-01, 4.80559647e-01, 4.02863696e-03,
          0., 2.93293536e-01, 4.49312329e-01, 1.19934730e-01,
          9.17921867e-03, 4.80559647e-01, 6.88508213e-01, 7.07335677e-03,
          0., 1.62406564e-02, 2.08357245e-01, 3.62374671e-02, 0., 0.,
          6.88508213e-01, 7.03730762e-01, 0., 0., 1.75708695e-03,
          4.31591198e-02, 2.30400190e-02, 9.74112004e-03, 3.09502962e-03,
          7.03730762e-01, 7.03525186e-01, 0., 0., 0., 7.43251512e-05,
          2.97313352e-04, 1.21515673e-02, 5.41680232e-02, 7.03525186e-01,
          3.06296647e-01, 2.99737900e-02, 3.65202814e-01, 3.53004366e-01,
          1.07437141e-01, 0., 4.58684534e-01, 4.58684534e-01,
          4.58684534e-01, 4.82649088e-01, 4.82649088e-01, 4.82649088e-01,
          3.56932729e-01, 2.47289345e-01, 1.49382185e-02, 1.22858606e-01,
          3.36567350e-02, 3.02201688e-01, 5.62056959e-01, 2.53823958e-02,
          1.04337698e-02, 1.23405866e-02, 5.62056959e-01, 2.13910669e-01,
          0., 0., 5.62056959e-01, 5.24532020e-01, 0., 0., 3.67037952e-03,
          5.24532020e-01, 4.11517590e-01, 0., 0., 5.24532020e-01,
          5.20662069e-01, 0., 0., 6.76012933e-02, 5.20662069e-01,
          4.17481065e-01, 3.54831479e-02, 3.75998616e-02, 5.20662069e-01,
          5.05551249e-02, 2.17197970e-01, 2.64492810e-01, 2.03333749e-03,
          2.18943223e-01, 5.12903869e-01, 5.12903869e-01, 5.12903869e-01,
          1.95036009e-01, 2.98175984e-03, 1.69318929e-01, 5.58733165e-01,
          5.58733165e-01, 5.58733165e-01, 1.21284090e-01, 9.83696878e-02,
          6.63507953e-02, 2.01428924e-02, 7.26135960e-03, 2.58886185e-03,
          2.59408401e-03, 4.41952795e-02, 8.30251634e-01, 5.47970176e-01,
          0., 0., 1.03070699e-02, 4.28981866e-06, 0., 0., 7.82099515e-02,
          8.13057125e-01, 5.69830954e-01, 0., 0., 1.05612722e-04,
          2.86589540e-03, 0., 0., 8.90563428e-02, 8.28861177e-01,
          5.44225872e-01, 2.41125692e-02, 0., 3.88223003e-03,
          4.47838783e-01, 4.47838783e-01, 5.43282740e-02, 3.05090495e-03,
          4.47838783e-01, 4.47838783e-01, 4.32229042e-01, 1.22458432e-02,
          5.79260625e-02, 2.99283385e-01, 1.29289669e-03, 1.56743620e-02,
          4.88919228e-01, 4.88919228e-01, 1.43802717e-01, 2.75790960e-01,
          3.02379042e-01, 4.88919228e-01, 5.38038015e-01, 2.35409793e-02,
          7.06229433e-02, 5.95333502e-02, 5.38038015e-01, 3.42176765e-01,
          1.03639008e-03, 4.53909626e-04, 5.38038015e-01, 5.59448183e-01,
          2.88086832e-02, 8.64260420e-02, 1.69420213e-01, 5.59448183e-01,
          1.35882288e-01, 0., 0., 5.59448183e-01, 5.63291728e-01,
          3.21156867e-02, 9.63470563e-02, 6.31203875e-02, 5.63291728e-01,
          1.62109599e-01, 4.36418019e-02, 0., 5.63291728e-01,
          6.11014545e-01, 6.11014545e-01, 1.93687111e-01, 3.74391791e-04,
          1.33898214e-01, 2.14531109e-01, 3.38600464e-02, 0.,
          3.80273670e-01 ]
      - [ 5.61250627e-01, 1.15916133e-01, 6.24080747e-03, 2.99261436e-02,
          5.61250627e-01, 5.61250627e-01, 1.06758311e-01, 2.60921456e-02,
          1.51457310e-01, 5.71346402e-01, 1.59667693e-02, 5.25930664e-03,
          1.17120139e-01, 5.71346402e-01, 3.11139524e-02, 3.90492892e-03,
          1.30164297e-03, 5.71346402e-01, 5.70460379e-01, 2.72335741e-03,
          8.17007292e-03, 1.22466549e-01, 5.70460379e-01, 5.43656722e-02,
          7.39693001e-04, 2.46564334e-04, 5.70460379e-01, 5.40887296e-01,
          9.51380562e-03, 2.85414197e-02, 3.30417424e-01, 5.40887296e-01,
          8.10441151e-02, 0., 1.64967515e-02, 5.40887296e-01,
          1.60147976e-02, 2.69463845e-02, 4.49219823e-01, 6.15055382e-01,
          6.15055382e-01, 0., 0., 9.79091525e-02, 1.57814637e-01,
          5.83586097e-01, 5.83586097e-01, 1.75832316e-01, 6.79737749e-03,
          1.42468750e-01, 2.42968753e-01, 1.01177037e-01, 4.19528130e-03,
          4.38723683e-01, 7.04544902e-01, 1.28283529e-02, 3.29297007e-04,
          4.27488005e-03, 4.01271880e-03, 1.01503718e-03, 0., 0.,
          7.04544902e-01, 7.04066634e-01, 0., 0., 1.18664987e-02,
          3.55489776e-02, 1.21546183e-02, 0., 0., 7.04066634e-01,
          6.91836059e-01, 0., 0., 3.02679334e-02, 7.78430551e-02,
          1.44235715e-02, 5.66671835e-03, 1.69126213e-01, 6.91836059e-01,
          6.66700676e-02, 5.38728014e-03, 4.72879231e-01, 4.72879231e-01,
          2.19616741e-01, 4.11537848e-03, 2.19306648e-01, 4.72879231e-01,
          4.72879231e-01, 4.41628367e-01, 4.41628367e-01, 4.41628367e-01,
          4.41628367e-01, 4.41628367e-01, 4.14320733e-03, 9.24393460e-02,
          2.94322483e-02, 1.04795031e-01, 5.60707748e-01, 1.00435428e-02,
          4.04563732e-03, 2.25834697e-01, 5.60707748e-01, 1.01350974e-02,
          0., 0., 5.60707748e-01, 5.18428028e-01, 0., 0., 4.33597624e-01,
          5.18428028e-01, 2.26417147e-02, 0., 0., 5.18428028e-01,
          4.60132211e-01, 0., 4.05431679e-03, 2.62401432e-01,
          4.60132211e-01, 4.60132211e-01, 2.16655388e-01, 1.80850223e-01,
          4.60132211e-01, 3.48294601e-02, 2.08015308e-01, 4.65402246e-01,
          9.19938684e-02, 8.20622966e-02, 4.68502343e-01, 4.68502343e-01,
          4.68502343e-01, 2.46084332e-01, 2.62548774e-02, 2.94729165e-04,
          4.25911844e-01, 5.16437948e-01, 5.16437948e-01, 8.91420990e-04,
          3.08630094e-02, 1.99945197e-01, 4.88266528e-01, 9.11963731e-03,
          3.86669300e-04, 3.61059234e-02, 2.51377821e-01, 9.60643768e-01,
          4.93964255e-02, 0., 8.81709997e-03, 2.20134221e-02, 0., 0.,
          1.22471415e-02, 5.30503809e-01, 8.41859996e-01, 3.58695425e-02,
          0., 0., 0., 5.09319874e-03, 0., 7.57765316e-04, 1.01362690e-01,
          7.00089514e-01, 7.00089514e-01, 4.93527167e-02, 3.36496555e-03,
          3.58804991e-03, 4.51438338e-01, 4.51438338e-01, 1.25384748e-01,
          1.13269198e-03, 4.00830537e-01, 4.51438338e-01, 4.51438338e-01,
          1.35217691e-02, 6.11060783e-02, 6.08636200e-01, 6.79969136e-03,
          1.90882795e-02, 1.88021809e-01, 3.04114789e-01, 0.,
          9.28743333e-02, 3.40841293e-01, 6.08636200e-01, 5.70715547e-01,
          3.55553231e-03, 6.51154891e-02, 3.86150144e-02, 5.70715547e-01,
          4.31188643e-02, 8.75831544e-02, 4.33417708e-02, 5.70715547e-01,
          5.70579708e-01, 7.46947806e-03, 4.62864414e-02, 1.01388939e-01,
          5.70579708e-01, 4.98343222e-02, 4.89060991e-02, 1.63020343e-02,
          5.70579708e-01, 5.50076663e-01, 6.89571630e-03, 2.06871480e-02,
          8.22232943e-03, 5.50076663e-01, 2.89009571e-01, 4.78113405e-02,
          1.99561659e-02, 5.50076663e-01, 6.14961088e-01, 6.14961088e-01,
          2.03927815e-01, 0., 9.83334482e-02, 1.80679500e-01,
          9.63630807e-03, 6.81881094e-03, 3.91746342e-01 ]
      - [ 5.18976986e-01, 2.31298774e-01, 3.53452604e-04, 6.03571944e-02,
          5.18976986e-01, 5.18976986e-01, 2.43812546e-01, 4.24839370e-02,
          2.61561006e-01, 5.68138838e-01, 9.34560597e-03, 2.64070090e-02,
          1.58376440e-01, 5.68138838e-01, 9.56487097e-03, 4.61264886e-03,
          1.01060653e-03, 5.68138838e-01, 5.67126930e-01, 9.11221083e-04,
          2.73366342e-03, 2.80933492e-02, 5.67126930e-01, 1.68602496e-01,
          1.38639789e-02, 4.62132646e-03, 5.67126930e-01, 5.39091527e-01,
          2.35307030e-03, 7.05921045e-03, 2.85655968e-02, 5.54740846e-01,
          2.95621395e-01, 2.41273316e-03, 9.82365757e-03, 5.54740846e-01,
          4.40103374e-02, 3.96167189e-02, 3.80907655e-01, 6.21533811e-01,
          6.21533811e-01, 1.25194918e-02, 5.13602309e-02, 8.31437632e-02,
          2.50761807e-01, 5.32192647e-01, 5.32192647e-01, 2.61511356e-01,
          1.11824432e-02, 9.25870538e-02, 2.01170027e-01, 1.65258855e-01,
          1.15150483e-02, 5.32192647e-01, 7.03075945e-01, 1.26926964e-02,
          1.57934928e-03, 7.42398994e-03, 6.42726123e-02, 4.98481910e-04,
          3.43435066e-04, 0., 7.03075945e-01, 7.01948345e-01, 0., 0.,
          5.23445429e-03, 8.48894790e-02, 1.72123276e-02, 0., 0.,
          7.01948345e-01, 6.96734488e-01, 0., 0., 9.95959737e-04,
          7.46481270e-02, 4.76223230e-02, 2.75819073e-03, 1.19658396e-01,
          6.96734488e-01, 1.28003821e-01, 5.24656149e-03, 4.58583742e-01,
          4.74990696e-01, 1.90760210e-01, 2.55682971e-03, 2.35158622e-01,
          4.74990696e-01, 4.74990696e-01, 4.38673824e-01, 4.38673824e-01,
          4.38673824e-01, 4.38673824e-01, 4.38673824e-01, 1.68481413e-02,
          1.16561010e-01, 3.21006589e-02, 1.36174679e-01, 5.64147472e-01,
          1.31013868e-02, 6.17744168e-03, 1.87804058e-01, 5.64147472e-01,
          6.40256330e-02, 0., 0., 5.64147472e-01, 5.73789775e-01, 0., 0.,
          2.04741098e-02, 5.73789775e-01, 7.84021169e-02, 0., 0.,
          5.73789775e-01, 5.54389238e-01, 0., 0., 3.90000343e-02,
          5.54389238e-01, 2.31308982e-01, 5.07338643e-02, 1.21748477e-01,
          5.54389238e-01, 3.50608528e-02, 1.63289487e-01, 2.99801916e-01,
          3.02568804e-02, 2.21856907e-01, 4.93188769e-01, 4.93188769e-01,
          4.93188769e-01, 3.12184066e-01, 3.58850067e-03, 3.82888335e-04,
          4.88053292e-01, 5.85783660e-01, 5.85783660e-01, 2.61426922e-02,
          8.46434981e-02, 2.34696984e-01, 8.20131525e-02, 0., 0.,
          1.06198923e-03, 1.38156742e-01, 9.67855453e-01, 1.85774714e-01,
          0., 0., 0., 0., 0., 0., 1.53594129e-02, 9.26889062e-01,
          3.62481982e-01, 0., 0., 0., 0., 0., 0., 4.03447598e-02,
          9.45096791e-01, 3.09126556e-01, 1.32876933e-02, 0., 0.,
          3.52451682e-01, 4.64805335e-01, 7.44119510e-02, 2.22777878e-03,
          4.64805335e-01, 4.64805335e-01, 4.64805335e-01, 2.48018317e-02,
          2.83164699e-02, 4.34408247e-01, 0., 4.00668010e-03,
          3.97727907e-01, 4.34408247e-01, 5.46160387e-03, 2.87376523e-01,
          4.34408247e-01, 4.34408247e-01, 5.64744413e-01, 0., 0.,
          4.08535749e-02, 5.64744413e-01, 1.77696124e-01, 6.22575581e-02,
          2.07525212e-02, 5.64744413e-01, 5.30639350e-01, 3.44280357e-04,
          1.03284104e-03, 3.36756208e-03, 5.30639350e-01, 3.80845785e-01,
          6.64786920e-02, 2.21595634e-02, 5.30639350e-01, 5.64714015e-01,
          1.52683146e-02, 4.58049476e-02, 2.05595214e-02, 5.64714015e-01,
          1.86688766e-01, 6.61218585e-03, 2.20406195e-03, 5.64714015e-01,
          5.74490964e-01, 5.74490964e-01, 4.43376392e-01, 3.52376723e-03,
          2.45910212e-01, 2.54296392e-01, 1.46623645e-02, 1.22357582e-04,
          1.10613182e-01 ]
      - [ 3.39324176e-01, 1.92493781e-01, 2.12138165e-02, 3.54880467e-02,
          6.37227178e-01, 6.37227178e-01, 1.27876312e-01, 1.68553889e-02,
          1.04787484e-01, 5.45482159e-01, 3.20683583e-03, 2.75251945e-03,
          5.74878126e-04, 5.45482159e-01, 3.83053929e-01, 1.51370391e-02,
          5.04567986e-03, 5.02442122e-01, 5.48608959e-01, 0., 0., 0.,
          5.48608959e-01, 2.99842209e-01, 3.92368287e-02, 1.26976520e-02,
          5.48608959e-01, 5.42015970e-01, 2.08697189e-03, 6.26091659e-03,
          1.02308514e-02, 5.42015970e-01, 3.20813477e-01, 6.73969686e-02,
          7.50435069e-02, 5.42015970e-01, 5.04385531e-02, 2.15823594e-02,
          3.12702924e-01, 5.30726373e-01, 5.30726373e-01, 1.09021388e-01,
          3.93273048e-02, 1.88316688e-01, 5.30726373e-01, 5.18355727e-01,
          5.18355727e-01, 2.41096262e-02, 8.65385868e-03, 3.00012797e-01,
          3.62898320e-01, 1.56398326e-01, 1.21865002e-02, 4.58770096e-01,
          6.91791952e-01, 1.05531290e-02, 0., 1.73765584e-04,
          1.80364326e-01, 5.74386194e-02, 0., 0., 6.91791952e-01,
          7.00607002e-01, 0., 0., 0., 1.03597067e-01, 2.39487644e-02,
          3.08673334e-04, 0., 7.00607002e-01, 7.02919722e-01, 0., 0., 0.,
          4.96805087e-03, 1.53044844e-02, 1.79354884e-02, 6.48874342e-02,
          7.02919722e-01, 1.49085179e-01, 2.34174728e-02, 3.39717865e-01,
          4.60821241e-01, 8.46207589e-02, 2.50694137e-02, 4.60821241e-01,
          4.60821241e-01, 4.60821241e-01, 4.34664071e-01, 4.34664071e-01,
          4.34664071e-01, 4.34664071e-01, 4.34664071e-01, 3.61379385e-02,
          1.08810037e-01, 3.98395434e-02, 1.90423876e-01, 5.50698459e-01,
          6.29225280e-03, 3.47802462e-03, 4.32697311e-02, 5.50698459e-01,
          2.87698120e-01, 0., 0., 5.50698459e-01, 5.70725441e-01, 0., 0.,
          1.02786452e-03, 5.70725441e-01, 1.30833149e-01, 0., 0.,
          5.70725441e-01, 5.26690543e-01, 0., 0., 0., 5.76136768e-01,
          3.55896145e-01, 1.27844438e-02, 3.59953977e-02, 5.06743729e-01,
          4.10966724e-02, 2.73275167e-01, 1.77197695e-01, 1.53291654e-02,
          4.47173774e-01, 4.48687136e-01, 4.48687136e-01, 4.48687136e-01,
          2.89121181e-01, 1.35806575e-02, 1.49781546e-02, 2.49235138e-01,
          5.74146211e-01, 5.74146211e-01, 7.08181113e-02, 5.61019927e-02,
          4.90383506e-01, 1.54316247e-01, 3.20698097e-02, 2.61455862e-04,
          1.52293185e-03, 5.56640364e-02, 8.36210191e-01, 5.32739878e-01,
          0., 0., 6.68344125e-02, 9.73566771e-02, 0., 0., 3.25069966e-04,
          9.21894670e-01, 3.09043288e-01, 0., 0., 1.89542472e-01,
          1.30942240e-01, 0., 0., 0., 7.85625398e-01, 5.43173790e-01, 0.,
          0., 2.50536144e-01, 4.84545797e-01, 4.84545797e-01,
          6.98299929e-02, 3.62436622e-02, 4.84545797e-01, 4.84545797e-01,
          2.05027282e-01, 0., 8.82939845e-02, 4.84573513e-01,
          2.60542091e-02, 8.62251408e-03, 2.65492141e-01, 4.21453327e-01,
          1.97065398e-02, 2.03654900e-01, 4.84573513e-01, 4.84573513e-01,
          5.68501592e-01, 3.15056555e-02, 9.41710174e-02, 1.99958067e-02,
          5.68501592e-01, 1.20121896e-01, 6.77745929e-03, 2.25915294e-03,
          5.68501592e-01, 5.74372828e-01, 1.04075819e-02, 3.12227458e-02,
          0., 5.74372828e-01, 5.88976443e-02, 0., 0., 5.74372828e-01,
          5.75203419e-01, 3.69652361e-03, 1.10895708e-02, 0.,
          5.69234431e-01, 9.13612098e-02, 4.92175668e-03, 1.64058560e-03,
          5.75203419e-01, 6.27287567e-01, 6.27287567e-01, 1.33036405e-01,
          1.02966875e-02, 8.62335190e-02, 8.25283006e-02, 4.07120027e-03,
          1.35706679e-03, 4.17956293e-01 ]
      - [ 5.24438143e-01, 1.35920495e-02, 1.51746906e-04, 5.79918288e-02,
          5.24438143e-01, 5.24438143e-01, 3.66540998e-01, 4.48522642e-02,
          1.72466561e-01, 5.73008835e-01, 3.05248122e-03, 8.30979738e-03,
          9.48910490e-02, 5.73008835e-01, 1.29412618e-02, 3.09299887e-03,
          1.03099947e-03, 5.73008835e-01, 5.73239625e-01, 5.34051331e-03,
          1.60215404e-02, 9.04327482e-02, 5.73239625e-01, 0.,
          1.15496805e-03, 3.84989340e-04, 5.73239625e-01, 5.64262450e-01,
          8.27788282e-03, 2.48336475e-02, 1.81016102e-01, 5.64262450e-01,
          7.52924234e-02, 7.82491267e-03, 2.60830414e-03, 5.64262450e-01,
          5.41916490e-02, 2.16519628e-02, 2.07967028e-01, 6.30835056e-01,
          6.30835056e-01, 3.98323461e-02, 1.54438324e-03, 5.14794490e-04,
          3.86717916e-01, 5.43697000e-01, 5.43697000e-01, 3.16986382e-01,
          1.72128864e-02, 7.81721771e-02, 2.70794004e-01, 2.90696621e-01,
          5.02008349e-02, 3.68939251e-01, 7.04286456e-01, 1.65822133e-02,
          2.03113467e-03, 1.26266479e-02, 2.21496616e-02, 1.20895065e-03,
          0., 0., 7.04286456e-01, 7.02230036e-01, 0., 0., 7.16479961e-03,
          8.17606449e-02, 0., 0., 0., 7.02230036e-01, 6.99102819e-01, 0.,
          0., 6.26593549e-03, 9.92246419e-02, 1.80040617e-02,
          1.35217822e-04, 7.29572698e-02, 6.99102819e-01, 1.32805884e-01,
          1.36645846e-02, 2.75535792e-01, 5.05751967e-01, 2.19052434e-01,
          1.11216769e-01, 2.71102428e-01, 5.05751967e-01, 5.05751967e-01,
          4.64831740e-01, 4.64831740e-01, 4.64831740e-01, 4.64831740e-01,
          2.95198560e-01, 2.84203086e-02, 1.49471611e-01, 1.33861884e-01,
          5.35939187e-02, 5.26080668e-01, 2.40894668e-02, 1.62409060e-02,
          4.04483765e-01, 5.26080668e-01, 3.51044559e-03, 0., 0.,
          5.26080668e-01, 5.69028437e-01, 0., 0., 9.34842676e-02,
          5.69028437e-01, 1.19156517e-01, 0., 0., 5.69028437e-01,
          5.17299712e-01, 0., 0., 8.35079625e-02, 5.17299712e-01,
          4.15730804e-01, 5.75762764e-02, 9.44253355e-02, 5.17299712e-01,
          2.87621934e-02, 2.12273329e-01, 1.99799791e-01, 3.67671140e-02,
          1.68791756e-01, 5.00590086e-01, 5.00590086e-01, 5.00590086e-01,
          3.57182473e-01, 1.75423026e-01, 0., 3.10806185e-01,
          4.65004772e-01, 4.65004772e-01, 8.35820287e-03, 5.47172911e-02,
          4.65004772e-01, 4.65004772e-01, 3.90099823e-01, 3.86002623e-02,
          3.46371182e-03, 6.45548701e-01, 6.45548701e-01, 1.72705315e-02,
          0., 4.14490607e-03, 7.80602619e-02, 4.65109535e-02,
          2.82321032e-03, 0., 9.03742537e-02, 7.41080225e-01,
          6.08094096e-01, 0., 2.02983350e-01, 1.48605987e-01,
          2.86644828e-02, 1.84830034e-03, 0., 1.92979515e-01,
          8.35322499e-01, 5.03077984e-01, 1.97327826e-02, 3.80290374e-02,
          3.01878937e-02, 4.39541668e-01, 4.39541668e-01, 2.38238927e-02,
          1.33543042e-03, 4.39541668e-01, 4.39541668e-01, 4.39541668e-01,
          1.17226876e-01, 1.23747334e-01, 5.78233898e-01, 8.57804407e-05,
          3.08835413e-03, 1.34019300e-01, 9.29270461e-02, 0.,
          1.34962469e-01, 5.29807687e-01, 5.78233898e-01, 5.88229954e-01,
          8.93252864e-02, 6.46793395e-02, 1.55678496e-01, 5.14827251e-01,
          4.95571783e-03, 2.06635557e-02, 1.41669456e-02, 5.88229954e-01,
          5.30836940e-01, 5.42717520e-03, 3.53260874e-03, 1.42269582e-02,
          5.01677752e-01, 1.45929083e-01, 1.66203588e-01, 3.60941976e-01,
          5.30836940e-01, 5.69040000e-01, 1.28302937e-02, 2.70575564e-02,
          4.56030332e-02, 5.69040000e-01, 8.85311514e-02, 5.61765619e-02,
          9.44904163e-02, 5.69040000e-01, 5.81776798e-01, 5.81776798e-01,
          2.27241620e-01, 2.28783552e-04, 1.03605472e-01, 1.55776531e-01,
          1.00161098e-02, 2.40732990e-02, 4.79523897e-01 ]
      - [ 4.68103707e-01, 2.48207659e-01, 5.01963776e-03, 8.90535042e-02,
          4.68103707e-01, 4.68103707e-01, 2.20032513e-01, 2.93757822e-02,
          4.68103707e-01, 5.68251789e-01, 1.33402934e-02, 4.00208831e-02,
          1.54316470e-01, 5.68251789e-01, 7.22348690e-04, 1.14543899e-03,
          3.81812948e-04, 5.68251789e-01, 5.70084155e-01, 1.29833017e-02,
          3.89498957e-02, 1.14777014e-01, 5.70084155e-01, 2.06140131e-02,
          0., 6.35217652e-02, 5.70084155e-01, 5.65548658e-01,
          1.46987541e-02, 4.40962650e-02, 1.79260507e-01, 5.65548658e-01,
          7.66720856e-03, 6.78812154e-04, 2.15083417e-02, 5.65548658e-01,
          3.31789628e-02, 3.48862745e-02, 2.19642892e-01, 5.99201024e-01,
          5.99201024e-01, 4.13159793e-03, 5.88939409e-04, 1.59628525e-01,
          4.47072357e-01, 4.95806605e-01, 4.95806605e-01, 4.95806605e-01,
          0., 6.93490775e-03, 5.57434782e-02, 9.24985036e-02,
          6.31974451e-03, 4.95806605e-01, 7.04590440e-01, 8.11621081e-03,
          2.30733701e-03, 0., 0., 0., 0., 0., 7.04590440e-01,
          7.04554975e-01, 0., 0., 0., 0., 0., 0., 1.30962180e-02,
          7.04554975e-01, 7.03903496e-01, 0., 0., 3.08230781e-04,
          5.93591761e-03, 9.88913584e-04, 1.40964868e-04, 4.44615968e-02,
          7.03903496e-01, 1.55522779e-01, 0., 2.08311155e-01,
          5.38937390e-01, 2.07031906e-01, 1.00056850e-03, 1.13196075e-01,
          5.38937390e-01, 5.38937390e-01, 2.56547600e-01, 4.78371769e-01,
          4.78371769e-01, 4.78371769e-01, 4.78371769e-01, 0.,
          7.70891234e-02, 2.35256888e-02, 8.68959054e-02, 4.95983392e-01,
          8.10225308e-03, 4.66355262e-03, 1.92988589e-01, 5.96021354e-01,
          1.53074218e-02, 0., 0., 5.96021354e-01, 5.59571922e-01, 0., 0.,
          2.27369726e-01, 5.59571922e-01, 5.79053313e-02, 0., 0.,
          5.59571922e-01, 5.28482974e-01, 0., 0., 3.60919386e-01,
          5.28482974e-01, 1.58166319e-01, 2.38077417e-02, 3.15173157e-02,
          5.28482974e-01, 8.29499587e-02, 6.23802952e-02, 1.10676050e-01,
          4.50371131e-02, 2.99006850e-01, 4.69270229e-01, 4.69270229e-01,
          4.69270229e-01, 4.69270229e-01, 1.48650473e-02, 0.,
          3.09052020e-01, 5.28151214e-01, 5.28151214e-01, 0.,
          2.91823093e-02, 2.47605845e-01, 5.28151214e-01, 0., 0.,
          3.12896591e-04, 3.18214744e-01, 9.42697644e-01, 2.50134747e-02,
          0., 1.24386430e-03, 5.33557357e-03, 0., 0., 0., 3.16391319e-01,
          9.41519260e-01, 6.35981336e-02, 0., 0., 0., 0., 0., 0.,
          5.03354311e-01, 8.35466325e-01, 2.00673014e-01, 4.86303726e-03,
          0., 0., 1.32043749e-01, 4.88203436e-01, 2.16756873e-02,
          1.28651094e-02, 4.95868921e-01, 4.95868921e-01, 4.95868921e-01,
          1.96543410e-02, 2.42824946e-02, 4.35201108e-01, 0.,
          2.61846427e-02, 1.84316680e-01, 2.73158967e-01, 0.,
          1.97296798e-01, 4.68878984e-01, 6.60273135e-01, 5.72667480e-01,
          0., 0., 8.46578255e-02, 5.72667480e-01, 2.42215730e-02,
          4.83541191e-02, 1.85957085e-02, 5.72667480e-01, 5.60352683e-01,
          1.61170232e-04, 4.83510696e-04, 1.76545173e-01, 5.60352683e-01,
          1.94634981e-02, 1.37056991e-01, 4.56856564e-02, 5.60352683e-01,
          5.58009624e-01, 1.68112398e-03, 5.04337205e-03, 1.72073767e-01,
          5.58009624e-01, 1.51553109e-01, 8.32328275e-02, 2.77442727e-02,
          5.58009624e-01, 4.46051836e-01, 4.46051836e-01, 2.93222994e-01,
          6.87384920e-04, 4.46051836e-01, 4.46051836e-01, 1.06161218e-02,
          1.74648419e-03, 3.37045312e-01 ]
      - [ 4.58439022e-01, 1.57522544e-01, 5.14179887e-03, 6.08140640e-02,
          4.58439022e-01, 4.58439022e-01, 3.12981218e-01, 1.68106973e-01,
          4.58439022e-01, 5.69104373e-01, 1.19484989e-02, 3.58454995e-02,
          1.45741686e-01, 5.69104373e-01, 2.98779062e-03, 5.31231868e-04,
          1.77077280e-04, 5.69104373e-01, 5.60019791e-01, 1.29061919e-02,
          3.87185737e-02, 2.26109788e-01, 5.60019791e-01, 2.10657576e-03,
          8.57421290e-03, 2.59199552e-02, 5.60019791e-01, 5.50568044e-01,
          5.61322412e-03, 1.68396700e-02, 2.84201741e-01, 5.50568044e-01,
          6.21179268e-02, 1.26333032e-02, 4.75289160e-03, 5.50568044e-01,
          6.49592802e-02, 1.28212478e-02, 2.39371642e-01, 5.89182794e-01,
          5.89182794e-01, 3.68255377e-02, 4.89074644e-03, 2.10147537e-03,
          4.86597389e-01, 4.91176039e-01, 4.91176039e-01, 4.91176039e-01,
          0., 2.05673911e-02, 9.62718651e-02, 1.32912248e-01,
          5.21702990e-02, 4.91176039e-01, 7.04569042e-01, 1.08939866e-02,
          3.62619455e-03, 0., 0., 0., 0., 0., 7.04569042e-01,
          7.04604328e-01, 0., 0., 8.12533777e-04, 6.91287642e-05,
          4.36762755e-04, 1.63353083e-03, 5.32600144e-03, 7.04604328e-01,
          7.03951418e-01, 0., 0., 2.05438994e-02, 2.88490262e-02,
          1.31294876e-02, 1.87088840e-03, 2.11541709e-02, 7.03951418e-01,
          2.04307228e-01, 1.21572828e-02, 2.14440510e-01, 5.40996552e-01,
          1.51791483e-01, 1.01380153e-02, 7.44858310e-02, 5.40996552e-01,
          5.40996552e-01, 2.88638055e-01, 4.67423528e-01, 4.67423528e-01,
          4.67423528e-01, 4.67423528e-01, 0., 1.00632653e-01,
          7.67104328e-02, 1.48555472e-01, 5.50943553e-01, 1.14382673e-02,
          9.58397891e-03, 2.85694271e-01, 5.51726043e-01, 1.74470246e-02,
          0., 0., 5.51726043e-01, 5.56992412e-01, 0., 0., 1.97006032e-01,
          5.56992412e-01, 1.57813028e-01, 0., 0., 5.56992412e-01,
          5.57372212e-01, 0., 0., 1.86889097e-01, 5.57372212e-01,
          1.57959700e-01, 3.22698094e-02, 3.90209928e-02, 5.57372212e-01,
          7.89672509e-02, 8.72699246e-02, 7.63568282e-02, 4.15870249e-02,
          2.66642213e-01, 4.75064516e-01, 4.75064516e-01, 4.75064516e-01,
          4.75064516e-01, 6.09284975e-02, 1.16525836e-01, 4.49578732e-01,
          4.49578732e-01, 4.49578732e-01, 2.43918840e-02, 3.42827141e-02,
          4.09834474e-01, 4.49578732e-01, 6.32460490e-02, 6.80343062e-03,
          2.80211703e-03, 3.77269179e-01, 9.02971268e-01, 7.95508623e-02,
          0., 5.23383245e-02, 1.42054483e-01, 1.01413205e-02,
          7.74162728e-03, 1.49488738e-02, 5.69771767e-01, 8.15565705e-01,
          4.10405397e-02, 0., 0., 1.73832721e-03, 0., 0., 0.,
          2.05283076e-01, 9.35879230e-01, 2.69422531e-01, 7.92244915e-03,
          8.78270832e-04, 0., 2.87802696e-01, 4.68040109e-01,
          1.75954856e-03, 1.49421431e-02, 4.69674081e-01, 4.69674081e-01,
          4.69674081e-01, 1.73505306e-01, 3.61286663e-02, 3.80980790e-01,
          3.72485146e-02, 2.81166658e-03, 9.37052146e-02, 1.65217772e-01,
          7.60089653e-03, 1.22783750e-01, 5.72829723e-01, 6.83585405e-01,
          5.68618119e-01, 1.17966374e-02, 2.72996561e-03, 4.61181141e-02,
          5.68618119e-01, 2.69379038e-02, 8.47473666e-02, 1.18999839e-01,
          5.68618119e-01, 5.54863811e-01, 1.72560122e-02, 3.33208963e-02,
          2.21308559e-01, 5.54863811e-01, 0., 1.35671750e-01,
          4.52239141e-02, 5.54863811e-01, 5.59118271e-01, 6.84331171e-04,
          2.05299351e-03, 7.72324577e-02, 5.59118271e-01, 1.97940961e-01,
          1.01410165e-01, 3.38033885e-02, 5.59118271e-01, 4.64255154e-01,
          4.64255154e-01, 2.05451310e-01, 3.79636534e-04, 3.26528788e-01,
          4.64255154e-01, 7.26327999e-03, 1.33394254e-02, 4.46880460e-01 ]
      - [ 5.48851073e-01, 1.05888136e-01, 0., 2.78751971e-03,
          5.48851073e-01, 5.48851073e-01, 2.26375028e-01, 3.85683291e-02,
          1.63870201e-01, 5.73812246e-01, 2.18552072e-03, 1.57270842e-04,
          6.02499470e-02, 5.73812246e-01, 4.62418981e-02, 2.50723734e-02,
          9.31868516e-03, 5.73812246e-01, 5.73544443e-01, 4.88800509e-03,
          1.46640139e-02, 8.46893564e-02, 5.73544443e-01, 0.,
          1.34564727e-03, 4.48549079e-04, 5.73544443e-01, 5.59860706e-01,
          1.74635684e-03, 5.23907086e-03, 6.39884993e-02, 5.59860706e-01,
          1.36130869e-01, 2.76945475e-02, 1.75081357e-01, 5.59860706e-01,
          2.82944255e-02, 4.07619067e-02, 5.09083033e-01, 5.09083033e-01,
          5.09083033e-01, 1.12844054e-02, 1.10214076e-03, 9.71384197e-02,
          4.53202426e-01, 5.92567325e-01, 5.92567325e-01, 4.03025597e-02,
          0., 6.22766726e-02, 3.77226114e-01, 2.34120250e-01,
          3.63174044e-02, 2.96441555e-01, 7.04302430e-01, 2.97490936e-02,
          9.00098021e-05, 0., 4.89448314e-04, 5.05742209e-04, 0.,
          2.20429371e-04, 7.04302430e-01, 7.04615593e-01, 0., 0., 0., 0.,
          0., 0., 0., 7.04615593e-01, 6.84045494e-01, 0., 0.,
          1.40541268e-03, 2.11958960e-03, 0., 6.83030039e-02,
          2.29484513e-01, 6.84045494e-01, 7.32014775e-02, 2.74173152e-02,
          4.43810940e-01, 4.43810940e-01, 6.79407492e-02, 0.,
          4.43810940e-01, 4.43810940e-01, 4.43810940e-01, 4.41076517e-01,
          4.41076517e-01, 4.41076517e-01, 4.41076517e-01, 4.41076517e-01,
          1.62285659e-02, 1.34546980e-01, 5.69253713e-02, 3.52815837e-02,
          5.74705541e-01, 3.30178030e-02, 7.62261776e-03, 1.37994856e-01,
          5.74705541e-01, 3.50601412e-02, 0., 0., 5.58809578e-01,
          5.75744748e-01, 0., 0., 2.26940936e-03, 5.75744748e-01,
          1.18253231e-01, 0., 0., 5.63292027e-01, 4.02549654e-01, 0., 0.,
          0., 5.13707519e-01, 5.13707519e-01, 1.31549299e-01,
          1.54376417e-01, 5.13707519e-01, 2.09220052e-02, 4.44946826e-01,
          4.00642693e-01, 1.91149544e-02, 1.33118600e-01, 4.44946826e-01,
          4.44946826e-01, 4.44946826e-01, 1.56864658e-01, 9.07647163e-02,
          2.09794100e-02, 4.64304179e-01, 4.64304179e-01, 4.64304179e-01,
          2.33186502e-02, 5.39470166e-02, 3.47730756e-01, 4.64304179e-01,
          2.87757874e-01, 1.87305908e-04, 2.37617013e-03, 2.02674761e-01,
          9.14239585e-01, 4.20905538e-02, 0., 0., 1.71421364e-01,
          2.73789495e-01, 0., 0., 7.88708031e-03, 9.23921883e-01,
          1.43139064e-01, 0., 0., 2.04055905e-01, 2.38729447e-01, 0., 0.,
          0., 6.36670470e-01, 6.36670470e-01, 2.26374865e-02, 0.,
          3.54176283e-01, 4.99543011e-01, 4.99543011e-01, 8.92594084e-02,
          0., 1.86785698e-01, 4.99543011e-01, 4.07007992e-01, 0.,
          1.94601178e-01, 5.83508015e-01, 4.61072102e-03, 1.45798363e-02,
          1.15391858e-01, 3.05532485e-01, 0., 1.19214535e-01,
          4.38290924e-01, 5.83508015e-01, 5.75197101e-01, 7.79418647e-03,
          2.25564204e-02, 3.35661322e-02, 5.75197101e-01, 0.,
          2.15276284e-03, 7.17587594e-04, 5.75197101e-01, 5.75572252e-01,
          4.27825330e-03, 1.28347576e-02, 1.80141884e-03, 5.75572252e-01,
          1.24953277e-02, 7.34428735e-03, 2.44809571e-03, 5.75572252e-01,
          6.35911047e-01, 5.87102771e-03, 1.76130813e-02, 0.,
          4.05513346e-01, 1.39901787e-01, 2.21550222e-02, 6.00737380e-03,
          6.35911047e-01, 5.94151199e-01, 5.94151199e-01, 1.17113784e-01,
          0., 1.45293605e-02, 4.58233766e-02, 2.73070168e-02,
          1.41652316e-04, 5.20829976e-01 ]
      - [ 5.44538260e-01, 2.12868173e-02, 8.90336186e-03, 1.29229026e-02,
          5.44538260e-01, 5.44538260e-01, 2.91849971e-01, 4.52647731e-02,
          1.30658507e-01, 5.71956575e-01, 3.03931795e-02, 1.60276424e-03,
          2.32635369e-03, 5.71956575e-01, 1.06475048e-01, 2.36200057e-02,
          7.68517563e-03, 5.71956575e-01, 5.74505270e-01, 0., 0., 0.,
          5.74505270e-01, 6.22230582e-02, 1.41586950e-02, 4.71956469e-03,
          5.74505270e-01, 5.73484361e-01, 8.07480980e-03, 2.42244322e-02,
          5.65462187e-02, 5.73484361e-01, 5.67673221e-02, 1.44048585e-02,
          1.84664354e-02, 5.73484361e-01, 4.92169447e-02, 4.47520688e-02,
          4.85204130e-01, 4.94797230e-01, 4.94797230e-01, 9.14624427e-03,
          2.46855034e-03, 1.43692046e-01, 4.94797230e-01, 5.77928245e-01,
          5.77928245e-01, 5.35062775e-02, 3.34938476e-03, 8.14548042e-03,
          4.31465328e-01, 2.03858539e-01, 1.34871006e-02, 3.08842808e-01,
          7.04486787e-01, 1.90560371e-02, 3.24894296e-04, 4.71572101e-04,
          0., 8.02724971e-04, 1.14424591e-04, 0., 7.04486787e-01,
          7.04615593e-01, 0., 0., 0., 0., 0., 0., 0., 7.04615593e-01,
          7.02759564e-01, 0., 0., 0., 0., 2.24971896e-04, 4.12049564e-03,
          7.22892657e-02, 7.02759564e-01, 1.12492897e-01, 1.42505276e-03,
          4.26890254e-01, 4.43471968e-01, 7.03382567e-02, 2.09377613e-03,
          4.34800118e-01, 4.52722639e-01, 4.52722639e-01, 4.41463768e-01,
          4.41463768e-01, 4.41463768e-01, 4.41463768e-01, 4.41463768e-01,
          2.57745408e-03, 1.17783293e-01, 4.69592772e-02, 7.10929036e-02,
          5.64765155e-01, 1.58545561e-02, 1.73117034e-02, 1.54643446e-01,
          5.64765155e-01, 1.14087008e-01, 0., 0., 5.64765155e-01,
          5.72289109e-01, 0., 0., 1.42516326e-02, 5.72289109e-01,
          1.07414365e-01, 0., 0., 5.72289109e-01, 4.96787310e-01, 0., 0.,
          4.29715030e-02, 4.96787310e-01, 4.96787310e-01, 3.97851020e-02,
          6.64709061e-02, 4.96787310e-01, 3.34064290e-02, 1.76834926e-01,
          2.53039330e-01, 1.70067213e-02, 1.99651971e-01, 5.07102191e-01,
          5.07102191e-01, 5.07102191e-01, 2.94808447e-01, 2.24104594e-03,
          4.31340002e-02, 4.76411223e-01, 5.79832733e-01, 5.79832733e-01,
          8.61743093e-03, 1.62658408e-01, 2.56928265e-01, 2.05115769e-02,
          0., 7.77300214e-04, 4.19416884e-03, 1.69691160e-01,
          9.72436249e-01, 1.25911579e-01, 0., 0., 0., 3.39374803e-02,
          1.54459979e-02, 3.32686026e-03, 1.63356476e-02, 9.80772614e-01,
          1.60027653e-01, 0., 6.66356704e-04, 3.19987461e-02,
          6.26663491e-02, 2.61741667e-03, 0., 3.81978825e-02,
          8.17687035e-01, 5.55289805e-01, 8.16666801e-03, 2.97723967e-03,
          9.70170274e-02, 4.41550225e-01, 4.41550225e-01, 4.49875295e-02,
          1.67903141e-04, 4.41550225e-01, 4.41550225e-01, 4.41550225e-01,
          3.80945974e-03, 1.36814266e-01, 4.56085026e-01, 1.10392943e-02,
          3.31178792e-02, 2.47262537e-01, 4.56085026e-01, 1.19269220e-02,
          3.17632705e-01, 4.56085026e-01, 4.56085026e-01, 5.61110675e-01,
          5.41992858e-02, 1.58257261e-01, 1.46315351e-01, 5.61110675e-01,
          2.16548629e-02, 1.01010129e-03, 3.36700439e-04, 5.61110675e-01,
          5.68343639e-01, 7.28387982e-02, 1.37326479e-01, 9.33563989e-03,
          5.68343639e-01, 3.19905467e-02, 1.75910082e-03, 1.84421393e-03,
          5.68343639e-01, 5.73208272e-01, 9.00625158e-03, 1.16156833e-02,
          4.23191814e-03, 5.73208272e-01, 8.64678174e-02, 2.56109424e-02,
          1.43771730e-02, 5.73208272e-01, 5.86055875e-01, 5.86055875e-01,
          1.37955919e-01, 4.85744822e-05, 8.30514282e-02, 1.43424839e-01,
          7.96927232e-03, 3.93297989e-03, 5.10535002e-01 ]
      - [ 4.40355629e-01, 0., 0., 2.04286035e-02, 5.91414154e-01,
          5.91414154e-01, 1.67914093e-01, 1.85576361e-02, 2.67737657e-01,
          6.13553524e-01, 5.09504171e-04, 1.52851234e-03, 1.26848847e-01,
          6.13553524e-01, 9.51039866e-02, 2.66093034e-02, 8.86976812e-03,
          4.63738352e-01, 5.28742254e-01, 7.80746690e-04, 2.46207584e-02,
          3.43646020e-01, 5.28742254e-01, 1.89215451e-01, 3.68960053e-02,
          1.22986669e-02, 5.28742254e-01, 5.60662389e-01, 1.18740853e-02,
          5.88689372e-02, 1.37871444e-01, 5.60662389e-01, 1.06750652e-01,
          1.01887196e-01, 8.35617408e-02, 5.60662389e-01, 1.16008446e-02,
          3.14987451e-02, 5.21570385e-01, 5.21570385e-01, 5.21570385e-01,
          1.65396303e-01, 1.04880542e-01, 1.58398286e-01, 3.37803721e-01,
          5.17545760e-01, 5.17545760e-01, 6.52363747e-02, 5.20070177e-03,
          1.86289936e-01, 3.64344776e-01, 1.39575094e-01, 7.43904058e-03,
          5.17545760e-01, 6.91067278e-01, 2.88095139e-03, 0.,
          3.10956314e-02, 1.92265555e-01, 3.47054983e-03, 0., 0.,
          6.91067278e-01, 7.02231646e-01, 0., 5.05404547e-03,
          7.51915798e-02, 3.24352235e-02, 5.54100516e-05, 0., 0.,
          7.02231646e-01, 6.95657432e-01, 0., 4.55569476e-03,
          3.17577762e-03, 2.42818249e-04, 1.18116317e-02, 2.98066270e-02,
          1.55300915e-01, 6.95657432e-01, 1.28406867e-01, 1.24008015e-01,
          4.74644810e-01, 4.74644810e-01, 9.84568298e-02, 4.90746386e-02,
          2.23919705e-01, 4.74644810e-01, 4.74644810e-01, 4.36944455e-01,
          4.36944455e-01, 4.36944455e-01, 4.36944455e-01, 4.36944455e-01,
          1.26016969e-02, 8.96413252e-02, 4.07699794e-02, 1.76569223e-01,
          5.70696592e-01, 4.42595733e-03, 3.88394971e-03, 8.90125781e-02,
          5.70696592e-01, 9.62265730e-02, 0., 0., 5.70696592e-01,
          5.74581504e-01, 0., 0., 2.60146968e-02, 5.74581504e-01,
          5.61613739e-02, 0., 0., 5.74581504e-01, 5.07776022e-01, 0., 0.,
          3.24888527e-02, 5.07776022e-01, 4.57693219e-01, 2.96557043e-02,
          1.00005187e-01, 5.07776022e-01, 4.66844551e-02, 2.54119962e-01,
          3.57715756e-01, 2.07955856e-03, 3.66354793e-01, 4.13240343e-01,
          4.13240343e-01, 4.13240343e-01, 3.93232793e-01, 2.43544690e-02,
          0., 2.37174436e-01, 5.34293473e-01, 5.34293473e-01,
          8.09687469e-03, 4.17797118e-02, 4.57955927e-01, 3.94139260e-01,
          1.30732283e-01, 4.17004079e-02, 1.21490809e-03, 2.50367761e-01,
          9.50118661e-01, 7.52034709e-02, 0., 6.76161668e-04,
          2.49917507e-02, 2.56455094e-01, 3.42486911e-02, 0.,
          1.50030270e-01, 9.47849870e-01, 5.08085154e-02, 0., 0.,
          9.58158448e-03, 2.09341452e-01, 2.22826144e-04, 0.,
          5.73047660e-02, 6.73591435e-01, 6.73591435e-01, 4.97248489e-03,
          0., 1.96703032e-01, 4.81902421e-01, 4.81902421e-01,
          2.67061651e-01, 2.57264776e-03, 4.15247023e-01, 4.81902421e-01,
          1.26850441e-01, 0., 1.96589351e-01, 5.23319483e-01,
          3.56989185e-04, 1.07096753e-03, 8.19964707e-02, 3.55884314e-01,
          0., 1.99512899e-01, 5.23319483e-01, 5.23319483e-01,
          5.70370555e-01, 9.76237431e-02, 6.36782199e-02, 6.88014999e-02,
          5.70370555e-01, 0., 3.45527078e-03, 2.39052624e-03,
          5.70370555e-01, 5.71874559e-01, 8.06018189e-02, 7.23424703e-02,
          3.79213728e-02, 5.71874559e-01, 0., 0., 0., 5.71874559e-01,
          6.07453525e-01, 2.17354298e-02, 6.39026389e-02, 1.88973062e-02,
          4.81237888e-01, 1.39399260e-01, 2.80230131e-04, 0.,
          6.07453525e-01, 5.93851984e-01, 5.93851984e-01, 1.20255664e-01,
          0., 1.49945524e-02, 1.03789277e-01, 4.29333886e-03,
          8.61782464e-04, 5.13100684e-01 ]
      - [ 5.04987180e-01, 1.61678240e-01, 5.35957851e-02, 0.,
          5.65775096e-01, 5.65775096e-01, 2.17823401e-01, 4.43390198e-02,
          1.43910035e-01, 5.25586247e-01, 5.85740386e-03, 3.38575244e-02,
          3.72526515e-03, 5.25586247e-01, 3.73841166e-01, 1.57337144e-01,
          1.79340653e-02, 5.25586247e-01, 5.56795061e-01, 0.,
          3.01648434e-02, 1.61401909e-02, 5.56795061e-01, 2.16250911e-01,
          5.24454415e-02, 1.17013700e-01, 5.56795061e-01, 5.44966459e-01,
          2.38113361e-03, 7.14340108e-03, 1.47895114e-02, 5.44966459e-01,
          3.14604551e-01, 5.75610884e-02, 3.20576653e-02, 5.44966459e-01,
          5.43868542e-02, 5.41475639e-02, 3.84808987e-01, 5.12456954e-01,
          5.12456954e-01, 2.16316488e-02, 1.63238158e-03, 2.29362607e-01,
          5.12456954e-01, 5.47080517e-01, 5.47080517e-01, 1.64017752e-01,
          0., 1.61725402e-01, 3.67205799e-01, 1.46870643e-01,
          9.20369197e-03, 4.31728780e-01, 7.03794897e-01, 1.66894067e-02,
          5.39413560e-03, 9.42202983e-04, 8.08622874e-03, 3.45484167e-02,
          2.74290517e-02, 4.14247508e-04, 7.03794897e-01, 7.04437673e-01,
          0., 6.46775775e-03, 1.12973445e-03, 1.06312986e-03,
          6.79592660e-04, 2.13114850e-04, 2.14120485e-02, 7.04437673e-01,
          6.97084665e-01, 5.20858243e-02, 0., 0., 0., 0., 4.79442626e-02,
          1.27183229e-01, 6.97084665e-01, 1.08882144e-01, 3.30668353e-02,
          3.20351422e-01, 4.66664404e-01, 9.28918868e-02, 5.79009578e-03,
          4.66664404e-01, 4.66664404e-01, 4.66664404e-01, 4.39336389e-01,
          4.39336389e-01, 4.39336389e-01, 4.39336389e-01, 4.39336389e-01,
          5.96462004e-02, 1.21356599e-01, 2.87688524e-02, 1.06847346e-01,
          5.65596819e-01, 1.42277749e-02, 6.17191987e-03, 5.54024950e-02,
          5.65596819e-01, 1.77038968e-01, 0., 0., 5.65596819e-01,
          5.66141605e-01, 0., 0., 6.10647276e-02, 5.66141605e-01,
          1.70495555e-01, 0., 0., 5.66141605e-01, 5.33212125e-01,
          6.55482709e-02, 0., 4.13572565e-02, 5.42798638e-01,
          5.03468513e-01, 7.65184015e-02, 7.82785788e-02, 3.79689008e-01,
          5.24486974e-02, 3.49728256e-01, 1.74559265e-01, 2.40495056e-02,
          3.25366020e-01, 4.86821800e-01, 4.86821800e-01, 4.86821800e-01,
          1.48924276e-01, 6.48236051e-02, 1.34731969e-02, 5.29060662e-01,
          5.29060662e-01, 5.29060662e-01, 1.93732351e-01, 7.68916458e-02,
          2.12802917e-01, 2.48772159e-01, 1.57707855e-01, 1.50575463e-04,
          2.41420674e-03, 4.14839499e-02, 8.84344041e-01, 3.76572013e-01,
          0., 0., 2.01759160e-01, 2.80789465e-01, 0., 0., 1.59625158e-01,
          8.61460805e-01, 2.75159717e-01, 0., 0., 2.63160288e-01,
          3.44513625e-01, 0., 0., 2.38398071e-02, 6.69049680e-01,
          5.94881892e-01, 5.37334196e-03, 0., 2.69298702e-01,
          4.54104275e-01, 4.54104275e-01, 2.27096006e-02, 1.99744973e-04,
          4.50004429e-01, 4.54104275e-01, 3.49915713e-01, 2.87630204e-02,
          2.24820241e-01, 5.62717319e-01, 2.76493449e-02, 9.45190117e-02,
          1.81306273e-01, 3.57020736e-01, 4.03187647e-02, 7.47147650e-02,
          4.28762525e-01, 5.62717319e-01, 5.72442651e-01, 5.97347785e-03,
          1.79204345e-02, 1.02960772e-03, 5.72442651e-01, 7.40014389e-02,
          6.95710033e-02, 2.31903344e-02, 5.72442651e-01, 5.96738994e-01,
          2.92397011e-02, 8.77191052e-02, 3.54268886e-02, 5.19968987e-01,
          4.09105942e-02, 6.87452091e-04, 2.29150668e-04, 5.96738994e-01,
          6.39791429e-01, 7.80378189e-03, 2.34113485e-02, 3.34868673e-03,
          4.05216724e-01, 8.01983029e-02, 5.76807931e-02, 1.91433318e-02,
          6.39791429e-01, 6.19940460e-01, 6.19940460e-01, 9.90432277e-02,
          0., 2.35762093e-02, 6.08483925e-02, 3.64983524e-03,
          6.13663171e-04, 4.59430367e-01 ]
      - [ 2.56764740e-01, 3.27462815e-02, 4.50174958e-02, 6.51785880e-02,
          6.73660934e-01, 6.73660934e-01, 3.10904700e-02, 7.46017694e-03,
          1.06486388e-01, 4.71653581e-01, 1.04368490e-03, 2.12296611e-03,
          0., 5.21327496e-01, 5.15204966e-01, 4.02453877e-02,
          1.34151299e-02, 4.83024418e-01, 5.25186121e-01, 8.69615003e-04,
          2.60884478e-03, 0., 5.25186121e-01, 4.08822984e-01,
          1.16171828e-02, 3.87239456e-03, 5.25186121e-01, 5.65712035e-01,
          2.52243830e-03, 7.00308010e-02, 5.92591092e-02, 5.65712035e-01,
          1.55737519e-01, 3.86131555e-02, 9.64969583e-03, 5.65712035e-01,
          8.36500302e-02, 2.96370853e-02, 1.80084318e-01, 5.58284760e-01,
          5.58284760e-01, 1.13895066e-01, 1.73986312e-02, 7.61481524e-02,
          5.58284760e-01, 5.45403361e-01, 5.45403361e-01, 1.03199415e-01,
          1.00071900e-01, 4.21368957e-01, 3.22829634e-01, 7.86302015e-02,
          9.49855056e-03, 3.01522166e-01, 6.90871775e-01, 1.74919069e-02,
          0., 0., 1.82977691e-01, 6.86214268e-02, 0., 0., 6.90871775e-01,
          7.00031579e-01, 0., 0., 0., 9.09284204e-02, 6.82311431e-02, 0.,
          0., 7.00031579e-01, 7.03313291e-01, 1.50806671e-02,
          1.72930788e-02, 1.45112230e-02, 1.59691367e-02, 2.51931865e-02,
          2.55472157e-02, 3.74254957e-02, 7.03313291e-01, 2.48074099e-01,
          7.46394135e-03, 1.76962614e-01, 4.69491214e-01, 1.41465187e-01,
          2.64193360e-02, 4.69491214e-01, 4.69491214e-01, 4.69491214e-01,
          4.43504065e-01, 4.43504065e-01, 4.43504065e-01, 4.43504065e-01,
          4.43504065e-01, 6.57862704e-03, 8.36671591e-02, 2.53030006e-02,
          6.63850084e-02, 5.64570665e-01, 2.11379398e-02, 9.34776850e-03,
          1.16911978e-01, 5.64570665e-01, 1.54724136e-01, 0., 0.,
          5.64570665e-01, 4.98753130e-01, 0., 0., 0., 4.98753130e-01,
          4.98753130e-01, 0., 0., 4.98753130e-01, 5.92416704e-01,
          1.99730713e-02, 0., 0., 5.92416704e-01, 3.96365047e-01,
          3.02916486e-02, 3.46736349e-02, 3.64068031e-01, 5.06697893e-02,
          1.82518080e-01, 1.27302215e-01, 2.50906888e-02, 4.39220369e-01,
          4.87578243e-01, 4.87578243e-01, 4.87578243e-01, 1.90531492e-01,
          1.41668037e-01, 4.19984646e-02, 5.50404727e-01, 5.50404727e-01,
          5.50404727e-01, 4.19005344e-04, 6.15847483e-02, 1.19861424e-01,
          2.13715136e-01, 2.03288943e-02, 5.79621177e-03, 2.70042592e-03,
          1.38954729e-01, 9.62058008e-01, 1.97532758e-01, 0.,
          3.66696995e-03, 7.77926743e-02, 1.34462966e-02, 0., 0.,
          2.43665752e-04, 6.90514505e-01, 6.90514505e-01, 0.,
          2.53283102e-02, 1.96630791e-01, 1.97610319e-01, 0., 0., 0.,
          7.72458494e-01, 5.42475045e-01, 0., 2.27288299e-04,
          2.49538198e-01, 4.52179760e-01, 4.52179760e-01, 1.37820514e-02,
          0., 4.52179760e-01, 4.52179760e-01, 3.94248843e-01,
          1.07617397e-02, 1.47915930e-01, 5.82772672e-01, 2.84949839e-02,
          5.54215275e-02, 2.56391525e-01, 4.32635337e-01, 0.,
          1.36074543e-01, 1.99055389e-01, 5.82772672e-01, 5.71201205e-01,
          4.73335125e-02, 1.09643206e-01, 2.16817446e-02, 5.71201205e-01,
          2.64835283e-02, 6.89645705e-04, 7.05349585e-03, 5.71201205e-01,
          5.68492055e-01, 4.02522885e-04, 1.20756880e-03, 1.00411293e-04,
          5.68492055e-01, 1.40364841e-01, 3.56379040e-02, 6.16403967e-02,
          5.68492055e-01, 5.87600470e-01, 9.31779295e-03, 2.79533789e-02,
          0., 5.43559551e-01, 8.48139897e-02, 7.54341157e-03,
          2.89595150e-03, 5.87600470e-01, 5.68839669e-01, 5.68839669e-01,
          1.09674908e-01, 0., 8.30280781e-02, 6.59408495e-02,
          1.74107626e-02, 3.24052898e-03, 5.68839669e-01 ]
      - [ 0., 1.92365702e-02, 5.89519925e-02, 4.28524107e-01,
          8.77713025e-01, 1.82711706e-01, 2.32732964e-05, 0., 0.,
          3.30322608e-02, 3.43430974e-02, 8.80771950e-02, 6.04758598e-02,
          8.56530845e-01, 4.91784483e-01, 1.09665403e-02, 2.56259944e-02,
          3.86444665e-02, 8.65238309e-02, 1.26275212e-01, 5.25657758e-02,
          2.55457535e-02, 6.90771937e-01, 6.90771937e-01, 9.32496861e-02,
          5.23993187e-02, 2.19954364e-02, 5.62197149e-01, 1.21272705e-01,
          8.27036798e-03, 3.39393392e-02, 5.62197149e-01, 1.69798970e-01,
          3.58739980e-02, 1.19579984e-02, 5.62197149e-01, 4.65607882e-01,
          4.65607882e-01, 2.26483732e-01, 2.68828332e-01, 4.65607882e-01,
          4.49995026e-02, 4.83552627e-02, 1.61184184e-02, 4.65607882e-01,
          5.26036918e-01, 5.26036918e-01, 4.61115912e-02, 3.28562170e-01,
          5.26036918e-01, 1.12773463e-01, 5.31941578e-02, 2.43588220e-02,
          1.95913330e-01, 5.67825615e-01, 4.57018912e-02, 6.09036200e-02,
          6.55527562e-02, 5.53089797e-01, 5.02386205e-02, 2.28582993e-02,
          1.74436837e-01, 5.67825615e-01, 2.98336565e-01, 3.92712504e-01,
          3.92712504e-01, 9.68621857e-03, 3.92712504e-01, 1.65110558e-01,
          3.29547077e-01, 3.92712504e-01, 3.92712504e-01, 5.71862340e-01,
          5.71862340e-01, 1.13061711e-01, 7.16075581e-03, 1.92801300e-02,
          1.15164462e-03, 6.79851335e-04, 1.49328134e-03, 5.71862340e-01,
          6.86912954e-01, 2.21666530e-01, 1.74473058e-02, 0.,
          1.86238496e-03, 0., 0., 0., 6.86912954e-01, 4.91973847e-01,
          4.91973847e-01, 4.91973847e-01, 4.91973847e-01, 1.10291392e-01,
          4.97487839e-03, 5.59062697e-02, 5.95078096e-02, 8.98759738e-02,
          4.36659247e-01, 1.18686393e-01, 7.37055615e-02, 1.22785002e-01,
          4.36659247e-01, 4.23865169e-01, 4.24045831e-01, 1.71908617e-01,
          4.36659247e-01, 5.95384799e-02, 4.63583082e-01, 4.63583082e-01,
          5.55051025e-04, 2.59298310e-02, 2.93959320e-01, 4.63583082e-01,
          4.63583082e-01, 2.12374404e-01, 5.20618141e-01, 5.20618141e-01,
          5.20618141e-01, 0., 5.38320951e-02, 1.04160365e-02,
          9.93162859e-03, 6.01094076e-03, 4.22527879e-01, 6.90617263e-01,
          2.76513342e-02, 4.87800874e-03, 4.47409414e-02, 1.25557214e-01,
